{"learner":{"attributes":{"best_iteration":"99","best_score":"0.08478060994611826","scikit_learn":"{\"_estimator_type\": \"classifier\"}"},"feature_names":[],"feature_types":[],"gradient_booster":{"model":{"gbtree_model_param":{"num_parallel_tree":"1","num_trees":"100"},"iteration_indptr":[0,1,2,3,4,5,6,7,8,9,10,11,12,13,14,15,16,17,18,19,20,21,22,23,24,25,26,27,28,29,30,31,32,33,34,35,36,37,38,39,40,41,42,43,44,45,46,47,48,49,50,51,52,53,54,55,56,57,58,59,60,61,62,63,64,65,66,67,68,69,70,71,72,73,74,75,76,77,78,79,80,81,82,83,84,85,86,87,88,89,90,91,92,93,94,95,96,97,98,99,100],"tree_info":[0,0,0,0,0,0,0,0,0,0,0,0,0,0,0,0,0,0,0,0,0,0,0,0,0,0,0,0,0,0,0,0,0,0,0,0,0,0,0,0,0,0,0,0,0,0,0,0,0,0,0,0,0,0,0,0,0,0,0,0,0,0,0,0,0,0,0,0,0,0,0,0,0,0,0,0,0,0,0,0,0,0,0,0,0,0,0,0,0,0,0,0,0,0,0,0,0,0,0,0],"trees":[{"base_weights":[-2.477377E-2,1.1042018E1,-4.5572984E-1,1.4083059E-1,1.1229688E1,9.478309E0,-5.4209113E-1,1.1336696E1,3.3707115E-1,2.1536294E-1,1.0186489E0,7.049123E0,-5.959932E-1,1.1448785E0,3.3707115E-1,1.1626581E-1,7.914843E0,8.887348E-1,-6.261007E-1,2.7455086E-1,8.9310473E-1,-6.920031E-1,3.4914613E0,8.219909E-1,-7.178332E-2,6.8495506E-1,1.5629242E-1],"categories":[],"categories_nodes":[],"categories_segments":[],"categories_sizes":[],"default_left":[0,0,0,0,1,0,0,1,0,0,0,0,0,0,0,0,0,0,1,0,0,0,0,0,0,0,0],"id":0,"left_children":[1,3,5,-1,7,9,11,13,-1,-1,-1,15,17,-1,-1,-1,19,-1,21,-1,-1,23,25,-1,-1,-1,-1],"loss_changes":[5.959317E3,6.885986E1,1.0368914E3,0E0,2.998047E-1,3.2107483E1,4.924406E2,1.3735352E0,0E0,0E0,0E0,3.406659E1,3.441096E2,0E0,0E0,0E0,1.3459106E1,0E0,3.2340387E2,0E0,0E0,2.7410126E2,1.1104512E2,0E0,0E0,0E0,0E0],"parents":[2147483647,0,0,1,1,2,2,4,4,5,5,6,6,7,7,11,11,12,12,16,16,18,18,21,21,22,22],"right_children":[2,4,6,-1,8,10,12,14,-1,-1,-1,16,18,-1,-1,-1,20,-1,22,-1,-1,24,26,-1,-1,-1,-1],"split_conditions":[1.0150163E0,2.3116278E-2,1.1601807E0,1.4083059E-1,1.3599604E-1,9.624756E-2,1.2358104E0,1.239295E-1,3.3707115E-1,2.1536294E-1,1.0186489E0,3.7243407E-2,1.6048758E-1,1.1448785E0,3.3707115E-1,1.1626581E-1,6.78009E-2,8.887348E-1,6.951117E-2,2.7455086E-1,8.9310473E-1,2.948414E-1,1.728651E-1,8.219909E-1,-7.178332E-2,6.8495506E-1,1.5629242E-1],"split_indices":[2440,922,7765,0,1001,5146,2230,9695,0,0,0,8809,2064,0,0,0,9551,0,2745,0,0,5958,6213,0,0,0,0],"split_type":[0,0,0,0,0,0,0,0,0,0,0,0,0,0,0,0,0,0,0,0,0,0,0,0,0,0,0],"sum_hessian":[1.2474607E3,4.5834167E1,1.2016266E3,1.0383145E0,4.4795853E1,9.418996E0,1.1922075E3,4.375754E1,1.0383145E0,1.1866452E0,8.23235E0,7.4906974E0,1.1847168E3,4.2719227E1,1.0383145E0,1.2608105E0,6.229887E0,2.8182821E0,1.1818986E3,1.6316371E0,4.59825E0,1.1640989E3,1.7799677E1,2.4474556E0,1.1616515E3,5.562399E0,1.2237278E1],"tree_param":{"num_deleted":"0","num_feature":"10000","num_nodes":"27","size_leaf_vector":"1"}},{"base_weights":[-1.739834E-2,-1.9766101E-1,3.8290112E0,-3.875427E-1,2.77296E0,-7.798783E-2,4.055624E0,4.6801573E-1,-4.7584376E-1,-5.9162896E-2,3.261337E0,4.208433E0,4.200946E-1,-5.2725726E-1,3.519916E0,1.5533892E0,-5.5868214E-1,3.5305216E0,-6.641615E-1,4.3401694E0,3.5014708E-2,-6.0617324E-2,1.3611542E-1,5.050861E-1,-5.585E-1,4.374619E0,-2.3774694E-1,1.9145592E-1,4.255056E-2,5.6190338E-2,-8.281696E-1,3.8656945E0,6.806156E-1,-8.106115E-2,-6.385285E-3,-1.000525E-2,4.44123E0,-5.7851236E-2,7.39246E-1,5.1512855E-1,-6.430263E-2,4.3733876E-2,-6.6653036E-2,-9.307969E-2,-6.4780447E-3,2.5646305E-2,4.057518E-1,-3.8723234E-2,1.7141627E-1,4.5012957E-1,8.488247E-2],"categories":[],"categories_nodes":[],"categories_segments":[],"categories_sizes":[],"default_left":[1,1,0,0,0,0,1,0,1,0,1,1,1,0,1,1,0,1,1,0,0,0,0,0,1,1,0,0,0,0,1,0,1,0,0,0,1,0,0,0,0,0,0,0,0,0,0,0,0,0,0],"id":1,"left_children":[1,3,5,7,9,-1,11,-1,13,15,17,19,21,23,25,27,29,31,33,35,-1,-1,-1,-1,37,39,41,-1,-1,-1,43,45,47,-1,-1,-1,49,-1,-1,-1,-1,-1,-1,-1,-1,-1,-1,-1,-1,-1,-1],"loss_changes":[8.798378E2,6.84747E2,6.249408E1,5.124027E2,1.01081726E2,0E0,2.8401306E1,0E0,2.32249E2,1.0300579E1,6.8103516E1,2.4913147E1,4.0135393E0,1.9593683E2,4.7214798E1,4.213109E-1,3.3874319E0,5.3149475E1,3.733287E-1,2.2970642E1,0E0,0E0,0E0,0E0,1.7975693E2,4.9158966E1,1.3372318E0,0E0,0E0,0E0,5.8248997E-1,3.4986572E1,8.78551E0,0E0,0E0,0E0,6.7750854E0,0E0,0E0,0E0,0E0,0E0,0E0,0E0,0E0,0E0,0E0,0E0,0E0,0E0,0E0],"parents":[2147483647,0,0,1,1,2,2,3,3,4,4,6,6,8,8,9,9,10,10,11,11,12,12,13,13,14,14,15,15,16,16,17,17,18,18,19,19,24,24,25,25,26,26,30,30,31,31,32,32,36,36],"right_children":[2,4,6,8,10,-1,12,-1,14,16,18,20,22,24,26,28,30,32,34,36,-1,-1,-1,-1,38,40,42,-1,-1,-1,44,46,48,-1,-1,-1,50,-1,-1,-1,-1,-1,-1,-1,-1,-1,-1,-1,-1,-1,-1],"split_conditions":[3.34033E-2,3.6145758E-2,2.47458E-1,1.8108311E-1,1.00159176E-1,-7.798783E-2,3.932132E-2,4.6801573E-1,1.0532896E-1,1.0493667E-1,4.8501473E-2,6.290586E-2,1.0639988E-1,2.948414E-1,6.420417E-2,4.6668883E-2,1.24553174E-1,3.4905724E-2,5.6025676E-2,8.270502E-2,3.5014708E-2,-6.0617324E-2,1.3611542E-1,5.050861E-1,7.177401E-2,7.978103E-2,8.151441E-2,1.9145592E-1,4.255056E-2,5.6190338E-2,6.5480776E-2,8.344367E-2,4.141278E-2,-8.106115E-2,-6.385285E-3,-1.000525E-2,1.03297025E-1,-5.7851236E-2,7.39246E-1,5.1512855E-1,-6.430263E-2,4.3733876E-2,-6.6653036E-2,-9.307969E-2,-6.4780447E-3,2.5646305E-2,4.057518E-1,-3.8723234E-2,1.7141627E-1,4.5012957E-1,8.488247E-2],"split_indices":[5112,9536,6606,1628,1863,0,6563,0,7600,8112,3946,4701,8809,5958,3946,1412,4457,6563,4806,7968,0,0,0,0,5291,8006,255,0,0,0,4470,3520,6337,0,0,0,216,0,0,0,0,0,0,0,0,0,0,0,0,0,0],"split_type":[0,0,0,0,0,0,0,0,0,0,0,0,0,0,0,0,0,0,0,0,0,0,0,0,0,0,0,0,0,0,0,0,0,0,0,0,0,0,0,0,0,0,0,0,0,0,0,0,0,0,0],"sum_hessian":[1.2668491E3,1.211042E3,5.5807083E1,1.1391003E3,7.1941605E1,2.500945E0,5.330614E1,1.861751E1,1.1204829E3,1.071039E1,6.1231213E1,5.100472E1,2.301422E0,1.1071057E3,1.3377106E1,2.0341055E0,8.676285E0,5.7395996E1,3.835216E0,4.919995E1,1.804765E0,1.2710956E0,1.0303264E0,5.2714396E0,1.1018344E3,1.0764475E1,2.612631E0,1.0124274E0,1.0216781E0,1.4716738E0,7.204611E0,5.1037167E1,6.3588324E0,2.801455E0,1.0337611E0,1.0951048E0,4.8104847E1,1.0999929E3,1.8414146E0,9.298548E0,1.4659272E0,1.0070916E0,1.6055394E0,6.15752E0,1.0470909E0,2.6935725E0,4.8343594E1,3.4350834E0,2.923749E0,4.7064907E1,1.039942E0],"tree_param":{"num_deleted":"0","num_feature":"10000","num_nodes":"51","size_leaf_vector":"1"}},{"base_weights":[-3.5600778E-2,3.340947E0,-4.009373E-1,3.393733E0,1.4452893E0,3.6282258E0,-4.8093385E-1,3.409526E-2,3.4180315E0,4.42833E-2,1.9097476E-1,2.8220036E0,5.1991086E0,-5.315488E-1,3.5391564E0,3.43426E0,7.8617446E-2,8.152628E-2,3.05711E0,1.9307466E-1,5.9069186E-1,-5.872906E-1,2.3002324E0,3.8910167E0,-1.8066531E-2,3.4504077E0,7.963225E-2,3.1608364E-1,8.641E-2,-6.1857253E-1,3.730296E0,-8.4602855E-2,2.9342737E0,4.1447325E0,7.439279E-2,3.4649315E-1,1.09979115E-1,-6.436569E-2,4.0376082E-1,4.0483275E-1,8.84608E-2,-7.070018E-2,3.3777794E-1,4.3930173E-1,1.135058E-1],"categories":[],"categories_nodes":[],"categories_segments":[],"categories_sizes":[],"default_left":[0,1,0,0,0,0,1,0,1,0,0,0,0,1,1,1,0,0,0,0,0,1,0,1,0,1,0,0,0,1,0,0,0,1,0,0,0,0,0,0,0,0,0,0,0],"id":2,"left_children":[1,3,5,7,9,11,13,-1,15,-1,-1,17,19,21,23,25,-1,-1,27,-1,-1,29,31,33,-1,35,-1,-1,-1,37,39,-1,41,43,-1,-1,-1,-1,-1,-1,-1,-1,-1,-1,-1],"loss_changes":[1.5369839E3,7.2678223E0,3.6410333E2,7.558716E0,1.4997177E0,1.3194763E1,2.263606E2,0E0,2.2790527E0,0E0,0E0,5.3997803E0,3.1128235E0,1.7346448E2,1.8827972E1,2.1750488E0,0E0,0E0,5.92041E-1,0E0,0E0,1.4684027E2,4.4877853E1,7.0536346E0,0E0,1.0021973E-1,0E0,0E0,0E0,1.2678714E2,3.5139084E0,0E0,3.1314056E1,3.6293488E0,0E0,0E0,0E0,0E0,0E0,0E0,0E0,0E0,0E0,0E0,0E0],"parents":[2147483647,0,0,1,1,2,2,3,3,4,4,5,5,6,6,8,8,11,11,12,12,13,13,14,14,15,15,18,18,21,21,22,22,23,23,25,25,29,29,30,30,32,32,33,33],"right_children":[2,4,6,8,10,12,14,-1,16,-1,-1,18,20,22,24,26,-1,-1,28,-1,-1,30,32,34,-1,36,-1,-1,-1,38,40,-1,42,44,-1,-1,-1,-1,-1,-1,-1,-1,-1,-1,-1],"split_conditions":[1.0150163E0,1.257457E-1,8.914103E-2,1.6843928E-2,9.37905E-2,3.8553845E-2,4.9460914E-2,3.409526E-2,5.3246353E-2,4.42833E-2,1.9097476E-1,1.4509271E-1,6.813324E-2,9.1304526E-2,6.495237E-2,1.1173887E-1,7.8617446E-2,8.152628E-2,8.301706E-2,1.9307466E-1,5.9069186E-1,3.463701E-2,9.3940085E-1,7.902053E-2,-1.8066531E-2,6.0539518E-2,7.963225E-2,3.1608364E-1,8.641E-2,4.2465206E-2,1.3983496E-1,-8.4602855E-2,1.210297E-1,5.682105E-2,7.439279E-2,3.4649315E-1,1.09979115E-1,-6.436569E-2,4.0376082E-1,4.0483275E-1,8.84608E-2,-7.070018E-2,3.3777794E-1,4.3930173E-1,1.135058E-1],"split_indices":[2440,785,8855,2307,93,1639,2230,0,7691,0,0,5572,4024,2745,1639,361,0,0,1452,0,0,2448,5484,9707,0,2256,0,0,0,291,7461,0,7613,6952,0,0,0,0,0,0,0,0,0,0,0],"split_type":[0,0,0,0,0,0,0,0,0,0,0,0,0,0,0,0,0,0,0,0,0,0,0,0,0,0,0,0,0,0,0,0,0,0,0,0,0,0,0,0,0,0,0,0,0],"sum_hessian":[1.2438718E3,1.2064943E2,1.1232224E3,1.16612015E2,4.037417E0,2.100324E1,1.1022191E3,1.0395414E0,1.1557247E2,1.8968406E0,2.1405766E0,1.572775E1,5.275491E0,1.0893712E3,1.2847952E1,1.14561195E2,1.0112764E0,2.1179256E0,1.3609824E1,1.6026976E0,3.6727934E0,1.0691189E3,2.0252316E1,1.1695633E1,1.1523194E0,1.1355806E2,1.0031346E0,1.257378E1,1.0360442E0,1.0622792E3,6.8397274E0,3.3406897E0,1.6911625E1,1.0529729E1,1.1659034E0,1.1238959E2,1.1684719E0,1.0574441E3,4.8350396E0,5.772032E0,1.0676956E0,1.7716752E0,1.5139951E1,9.302668E0,1.2270615E0],"tree_param":{"num_deleted":"0","num_feature":"10000","num_nodes":"45","size_leaf_vector":"1"}},{"base_weights":[-1.49993105E-2,2.650841E0,-3.6002505E-1,2.672319E0,-9.264949E-3,2.8935456E0,-4.4324028E-1,2.8093016E0,2.0291228E0,-1.1967262E-2,3.0240421E0,-5.0305474E-1,2.3492024E0,6.516811E-2,2.8333936E0,3.5522994E-2,2.101968E0,4.6140486E-1,2.4800463E0,-5.298422E-1,4.598418E-1,3.0512807E0,-5.0131077E-1,2.85121E0,6.35834E-2,2.1616118E0,3.0987492E-2,2.0522019E-2,2.5865383E0,4.9940774E-1,-5.51992E-1,-5.836333E-2,3.3419507E0,-8.220988E-2,4.3105427E-2,7.046804E-2,2.8669032E-1,2.2180234E-1,5.2524682E-2,8.5096285E-2,2.7320492E-1,4.9273473E-1,-5.728001E-2,-1.0737988E-2,3.590523E-1],"categories":[],"categories_nodes":[],"categories_segments":[],"categories_sizes":[],"default_left":[0,1,0,1,0,0,1,0,0,0,1,1,0,0,1,0,1,0,0,0,0,0,1,0,0,1,0,0,0,0,0,0,0,0,0,0,0,0,0,0,0,0,0,0,0],"id":3,"left_children":[1,3,5,7,-1,9,11,13,15,-1,17,19,21,-1,23,-1,25,-1,27,29,-1,31,33,35,-1,37,-1,-1,39,-1,41,-1,43,-1,-1,-1,-1,-1,-1,-1,-1,-1,-1,-1,-1],"loss_changes":[1.1296841E3,8.540894E0,2.956988E2,6.6068726E0,0E0,1.1077698E1,1.7842775E2,4.0044556E0,2.682953E0,0E0,1.1183075E1,1.4452277E2,4.64187E1,0E0,2.5337524E0,0E0,2.1894226E0,0E0,4.714508E0,1.2941797E2,0E0,2.1114883E1,1.9370503E0,1.6796265E0,0E0,1.2093201E0,0E0,0E0,2.87706E0,0E0,1.2048245E2,0E0,1.4913574E1,0E0,0E0,0E0,0E0,0E0,0E0,0E0,0E0,0E0,0E0,0E0,0E0],"parents":[2147483647,0,0,1,1,2,2,3,3,5,5,6,6,7,7,8,8,10,10,11,11,12,12,14,14,16,16,18,18,19,19,21,21,22,22,23,23,25,25,28,28,30,30,32,32],"right_children":[2,4,6,8,-1,10,12,14,16,-1,18,20,22,-1,24,-1,26,-1,28,30,-1,32,34,36,-1,38,-1,-1,40,-1,42,-1,44,-1,-1,-1,-1,-1,-1,-1,-1,-1,-1,-1,-1],"split_conditions":[1.0150163E0,2.7445128E-2,8.914103E-2,1.22412324E-1,-9.264949E-3,4.3255925E-2,7.90162E-2,8.879614E-2,1.00170285E-1,-1.1967262E-2,1.9768553E-2,5.856109E-2,9.410305E-2,6.516811E-2,2.4565722E-1,3.5522994E-2,1.0432741E-1,4.6140486E-1,1.06958084E-1,5.207148E-1,4.598418E-1,9.368196E-2,3.746008E-2,7.270043E-2,6.35834E-2,9.154057E-2,3.0987492E-2,2.0522019E-2,9.3432784E-2,4.9940774E-1,1.0159188E-1,-5.836333E-2,1.190244E-1,-8.220988E-2,4.3105427E-2,7.046804E-2,2.8669032E-1,2.2180234E-1,5.2524682E-2,8.5096285E-2,2.7320492E-1,4.9273473E-1,-5.728001E-2,-1.0737988E-2,3.590523E-1],"split_indices":[2440,603,8855,1694,0,9822,5785,234,7074,0,621,5291,4024,0,2577,0,216,0,2051,2831,0,5662,4335,7053,0,7613,0,0,711,0,4740,0,4538,0,0,0,0,0,0,0,0,0,0,0,0],"split_type":[0,0,0,0,0,0,0,0,0,0,0,0,0,0,0,0,0,0,0,0,0,0,0,0,0,0,0,0,0,0,0,0,0,0,0,0,0,0,0,0,0,0,0,0,0],"sum_hessian":[1.2261688E3,1.3974516E2,1.0864236E3,1.386854E2,1.0597767E0,2.6251806E1,1.0601719E3,1.1155878E2,2.7126612E1,1.0931634E0,2.5158644E1,1.0387417E3,2.1430132E1,1.5416505E0,1.1001713E2,1.3763493E0,2.5750261E1,4.5061564E0,2.0652487E1,1.0342073E3,4.5344057E0,1.7138504E1,4.291628E0,1.08837296E2,1.1798296E0,2.4721304E1,1.0289576E0,1.0544741E0,1.9598013E1,3.233916E0,1.0309734E3,1.1943914E0,1.5944112E1,3.2810278E0,1.0106E0,1.1230896E0,1.0771421E2,2.3553856E1,1.1674479E0,2.0457323E0,1.755228E1,3.0082934E0,1.0279651E3,1.1099424E0,1.4834169E1],"tree_param":{"num_deleted":"0","num_feature":"10000","num_nodes":"45","size_leaf_vector":"1"}},{"base_weights":[-3.5972197E-2,2.2390213E0,-3.5764617E-1,-1.611167E-2,2.2570758E0,2.5375926E0,-4.308044E-1,2.2796552E0,4.1580286E-2,1.8971622E0,3.979882E-1,-5.0252634E-1,1.8277192E0,4.02033E-2,2.294392E0,1.1060459E-2,2.0001352E0,-5.6890893E-1,1.7151169E0,2.5194836E0,-2.7206244E-2,4.1127954E-2,2.3076253E0,5.9902705E-2,2.123069E-1,3.2258192E-1,-6.0257316E-1,1.3117167E0,4.2555776E-1,2.7937253E0,-6.7109585E-2,-5.272271E-1,1.177386E0,2.3204587E-1,4.385252E-2,-6.314055E-2,3.225807E-1,4.6424173E-2,2.6495063E-1,3.0373147E-1,-2.4464699E-2,9.214703E-2,-9.053995E-2,-5.425958E-2,2.2891767E-1],"categories":[],"categories_nodes":[],"categories_segments":[],"categories_sizes":[],"default_left":[0,0,0,0,1,0,1,0,0,0,0,1,0,0,0,0,0,0,1,1,1,0,1,0,0,0,1,1,0,1,0,0,0,0,0,0,0,0,0,0,0,0,0,0,0],"id":4,"left_children":[1,3,5,-1,7,9,11,13,-1,15,-1,17,19,-1,21,-1,23,25,27,29,31,-1,33,-1,-1,-1,35,37,-1,39,-1,41,43,-1,-1,-1,-1,-1,-1,-1,-1,-1,-1,-1,-1],"loss_changes":[8.703459E2,6.748108E0,2.2177531E2,0E0,5.1345215E0,1.6301956E1,1.656678E2,3.0704956E0,0E0,3.4201279E0,0E0,1.462074E2,4.0513428E1,0E0,2.6137085E0,0E0,1.9416428E0,1.24404144E2,2.4057564E1,2.1972E1,6.3735437E0,0E0,2.3825684E0,0E0,0E0,0E0,1.0701279E2,2.8705547E1,0E0,1.6540222E1,0E0,4.910412E0,7.1910176E0,0E0,0E0,0E0,0E0,0E0,0E0,0E0,0E0,0E0,0E0,0E0,0E0],"parents":[2147483647,0,0,1,1,2,2,4,4,5,5,6,6,7,7,9,9,11,11,12,12,14,14,16,16,17,17,18,18,19,19,20,20,22,22,26,26,27,27,29,29,31,31,32,32],"right_children":[2,4,6,-1,8,10,12,14,-1,16,-1,18,20,-1,22,-1,24,26,28,30,32,-1,34,-1,-1,-1,36,38,-1,40,-1,42,44,-1,-1,-1,-1,-1,-1,-1,-1,-1,-1,-1,-1],"split_conditions":[1.0150163E0,8.270502E-2,1.1601807E0,-1.611167E-2,1.969345E-1,1.2660532E-1,3.9218344E-2,8.879614E-2,4.1580286E-2,9.501127E-2,3.979882E-1,5.648729E-2,2.5231245E-1,4.02033E-2,1.7484744E-1,1.1060459E-2,9.3432784E-2,2.948414E-1,8.676408E-2,3.9034802E-2,3.0247446E-2,4.1127954E-2,1.5117279E-1,5.9902705E-2,2.123069E-1,3.2258192E-1,3.6402903E-2,4.4196527E-2,4.2555776E-1,4.0748745E-2,-6.7109585E-2,1.1534711E0,6.1941512E-2,2.3204587E-1,4.385252E-2,-6.314055E-2,3.225807E-1,4.6424173E-2,2.6495063E-1,3.0373147E-1,-2.4464699E-2,9.214703E-2,-9.053995E-2,-5.425958E-2,2.2891767E-1],"split_indices":[2440,7968,7765,0,2158,5399,9624,234,0,5402,0,2745,9551,0,8317,0,711,5958,3946,6606,6150,0,1614,0,0,0,2231,8809,0,1863,0,6754,2307,0,0,0,0,0,0,0,0,0,0,0,0],"split_type":[0,0,0,0,0,0,0,0,0,0,0,0,0,0,0,0,0,0,0,0,0,0,0,0,0,0,0,0,0,0,0,0,0,0,0,0,0,0,0,0,0,0,0,0,0],"sum_hessian":[1.1872178E3,1.4633359E2,1.0408842E3,1.0333812E0,1.453002E2,2.4823105E1,1.01606104E3,1.4330478E2,1.9954215E0,1.879348E1,6.029625E0,9.8554156E2,3.0519476E1,1.3362356E0,1.4196855E2,1.1372113E0,1.7656267E1,9.576198E2,2.7921778E1,2.1968437E1,8.551039E0,1.2145429E0,1.40754E2,1.8979234E0,1.5758345E1,7.5868316E0,9.5003296E2,2.5404177E1,2.5176024E0,2.0344166E1,1.62427E0,6.4401007E0,2.1109378E0,1.3955434E2,1.1996713E0,9.437604E2,6.2725782E0,1.6376724E1,9.027452E0,1.883453E1,1.5096365E0,1.0357444E0,5.4043565E0,1.0297846E0,1.0811533E0],"tree_param":{"num_deleted":"0","num_feature":"10000","num_nodes":"45","size_leaf_vector":"1"}},{"base_weights":[-1.16783185E-2,1.9429612E0,-3.0807394E-1,1.960372E0,-1.1408197E-2,2.1089046E0,-3.871439E-1,1.9748149E0,2.4787213E-3,-1.3868117E-1,2.2733362E0,2.5424874E0,-4.392441E-1,1.987433E0,1.4057371E-2,-5.689348E-2,3.876823E-2,-2.8834714E-2,2.3790176E0,3.0042162E0,7.6902795E-1,-4.678828E-1,4.5929226E-1,3.3289596E-2,1.9989088E0,1.9267727E0,3.1907089E0,1.9046081E-2,3.2759914E0,-6.582027E-2,1.4392809E0,-4.96006E-1,3.8273022E-1,2.0096079E-1,3.223804E-2,4.6818506E-2,1.9977546E-1,1.1785654E-1,3.5153446E-1,3.458806E-1,1.0868855E-1,4.5945268E-2,1.8167095E-1,-5.173103E-2,4.8052832E-1],"categories":[],"categories_nodes":[],"categories_segments":[],"categories_sizes":[],"default_left":[0,1,0,1,0,0,0,1,0,0,0,1,1,0,0,0,0,0,0,0,1,1,0,0,1,0,0,0,1,0,1,1,0,0,0,0,0,0,0,0,0,0,0,0,0],"id":5,"left_children":[1,3,5,7,-1,9,11,13,-1,15,17,19,21,23,-1,-1,-1,-1,25,27,29,31,-1,-1,33,35,37,-1,39,-1,41,43,-1,-1,-1,-1,-1,-1,-1,-1,-1,-1,-1,-1,-1],"loss_changes":[6.729055E2,5.700989E0,1.9355548E2,4.1920776E0,0E0,1.2179749E1,1.5030449E2,3.2054443E0,0E0,9.2965007E-1,8.800079E0,1.1795204E1,1.406711E2,2.1725464E0,0E0,0E0,0E0,0E0,4.458252E0,9.564606E0,5.6370506E0,1.1745755E2,0E0,0E0,2.0111084E0,1.2470703E0,1.6140747E0,0E0,1.0783691E0,0E0,5.150132E-1,1.09928665E2,0E0,0E0,0E0,0E0,0E0,0E0,0E0,0E0,0E0,0E0,0E0,0E0,0E0],"parents":[2147483647,0,0,1,1,2,2,3,3,5,5,6,6,7,7,9,9,10,10,11,11,12,12,13,13,18,18,19,19,20,20,21,21,24,24,25,25,26,26,28,28,30,30,31,31],"right_children":[2,4,6,8,-1,10,12,14,-1,16,18,20,22,24,-1,-1,-1,-1,26,28,30,32,-1,-1,34,36,38,-1,40,-1,42,44,-1,-1,-1,-1,-1,-1,-1,-1,-1,-1,-1,-1,-1],"split_conditions":[5.0750315E-1,5.2742474E-2,1.2950039E-1,1.0393714E-1,-1.1408197E-2,5.6896303E-2,1.2358104E0,6.634335E-2,2.4787213E-3,3.8008794E-2,1.0690543E-1,9.9704385E-2,6.996602E-2,2.1809413E-1,1.4057371E-2,-5.689348E-2,3.876823E-2,-2.8834714E-2,3.1143117E-1,3.704473E-2,5.0658867E-2,5.856109E-2,4.5929226E-1,3.3289596E-2,2.743645E-2,7.842464E-2,4.9725894E-2,1.9046081E-2,5.289515E-2,-6.582027E-2,8.4944E-2,1.9775493E-1,3.8273022E-1,2.0096079E-1,3.223804E-2,4.6818506E-2,1.9977546E-1,1.1785654E-1,3.5153446E-1,3.458806E-1,1.0868855E-1,4.5945268E-2,1.8167095E-1,-5.173103E-2,4.8052832E-1],"split_indices":[2440,4797,8855,4701,0,6666,2230,7691,0,9679,2051,8883,5019,4365,0,0,0,0,7765,7965,8809,5291,0,0,603,5982,5482,0,255,0,8593,9700,0,0,0,0,0,0,0,0,0,0,0,0,0],"split_type":[0,0,0,0,0,0,0,0,0,0,0,0,0,0,0,0,0,0,0,0,0,0,0,0,0,0,0,0,0,0,0,0,0,0,0,0,0,0,0,0,0,0,0,0,0],"sum_hessian":[1.1594572E3,1.519352E2,1.007522E3,1.5070662E2,1.22858E0,3.1103119E1,9.764189E2,1.4957028E2,1.1363298E0,2.1310315E0,2.8972088E1,1.6225883E1,9.60193E2,1.4846545E2,1.104834E0,1.1280645E0,1.0029671E0,1.079397E0,2.789269E1,1.2323433E1,3.9024513E0,9.556612E2,4.5317717E0,1.2293677E0,1.4723608E2,2.0079113E1,7.813577E0,1.2352629E0,1.108817E1,1.2527772E0,2.649674E0,9.503234E2,5.3378243E0,1.4610503E2,1.1310585E0,1.2842958E0,1.8794819E1,1.7287756E0,6.0848017E0,9.698252E0,1.3899179E0,1.3534242E0,1.2962497E0,9.474184E2,2.9049788E0],"tree_param":{"num_deleted":"0","num_feature":"10000","num_nodes":"45","size_leaf_vector":"1"}},{"base_weights":[-3.45268E-2,1.7617191E0,-3.2305753E-1,1.839601E0,1.0441263E0,-4.0012267E-1,1.8023008E0,6.7368746E-3,1.854839E0,1.2390692E0,-1.0315691E-2,-4.5536432E-1,2.2029722E0,1.4575735E0,4.3145304E0,1.8673375E0,9.697705E-3,1.5161057E-2,1.3684684E0,-4.7118282E-1,6.777981E-1,2.4096487E0,-6.2903516E-2,1.6911348E0,-7.701499E-2,5.615153E-1,8.689236E-2,1.8829858E0,4.5131154E-2,1.7214784E-2,1.4782149E-1,-5.368471E-1,1.3451041E0,2.5737245E0,1.2734815E-2,1.82209E0,-5.9913255E-2,3.140084E-2,1.8952076E-1,2.7416378E-1,-5.744033E-2,-8.616898E-2,1.6736297E-1,2.697199E-1,5.458021E-2,1.3481706E-1,2.852858E-1],"categories":[],"categories_nodes":[],"categories_segments":[],"categories_sizes":[],"default_left":[0,1,1,0,1,1,1,0,1,0,0,1,1,1,1,1,0,0,0,1,0,1,0,1,0,0,0,0,0,0,0,0,0,1,0,0,0,0,0,0,0,0,0,0,0,0,0],"id":6,"left_children":[1,3,5,7,9,11,13,-1,15,17,-1,19,21,23,25,27,-1,-1,29,31,-1,33,-1,35,-1,-1,-1,37,-1,-1,-1,39,41,43,-1,45,-1,-1,-1,-1,-1,-1,-1,-1,-1,-1,-1],"loss_changes":[5.776772E2,6.700714E0,1.580028E2,3.5976562E0,4.023014E0,1.3437343E2,2.2967743E1,0E0,2.8209229E0,1.8981323E0,0E0,1.0720566E2,1.2896942E1,1.7544464E1,1.1101875E1,2.155304E0,0E0,0E0,1.4848423E0,1.0901277E2,0E0,6.535988E0,0E0,9.659485E0,0E0,0E0,0E0,1.9709167E0,0E0,0E0,0E0,1.09559586E2,2.461728E1,2.7965698E0,0E0,9.474861E0,0E0,0E0,0E0,0E0,0E0,0E0,0E0,0E0,0E0,0E0,0E0],"parents":[2147483647,0,0,1,1,2,2,3,3,4,4,5,5,6,6,8,8,9,9,11,11,12,12,13,13,14,14,15,15,18,18,19,19,21,21,23,23,27,27,31,31,32,32,33,33,35,35],"right_children":[2,4,6,8,10,12,14,-1,16,18,-1,20,22,24,26,28,-1,-1,30,32,-1,34,-1,36,-1,-1,-1,38,-1,-1,-1,40,42,44,-1,46,-1,-1,-1,-1,-1,-1,-1,-1,-1,-1,-1],"split_conditions":[1.0150163E0,1.3411404E-1,3.4170732E-2,1.7836161E-2,9.213051E-2,4.308351E-2,8.452803E-2,6.7368746E-3,3.18205E-2,1.3458367E-1,-1.0315691E-2,8.36816E-2,7.7695586E-2,5.647285E-2,2.5804553E-2,9.339412E-2,9.697705E-3,1.5161057E-2,9.721613E-2,5.7966936E-2,6.777981E-1,6.4540036E-2,-6.2903516E-2,9.244175E-2,-7.701499E-2,5.615153E-1,8.689236E-2,2.1809413E-1,4.5131154E-2,1.7214784E-2,1.4782149E-1,2.948414E-1,9.3940085E-1,5.4570198E-2,1.2734815E-2,4.386028E-2,-5.9913255E-2,3.140084E-2,1.8952076E-1,2.7416378E-1,-5.744033E-2,-8.616898E-2,1.6736297E-1,2.697199E-1,5.458021E-2,1.3481706E-1,2.852858E-1],"split_indices":[2440,279,6254,2307,93,2230,5983,0,7965,279,0,8426,1639,2375,1891,2078,0,0,131,2745,0,7822,0,6764,0,0,0,4365,0,0,0,5958,5484,1689,0,5662,0,0,0,0,0,0,0,0,0,0,0],"split_type":[0,0,0,0,0,0,0,0,0,0,0,0,0,0,0,0,0,0,0,0,0,0,0,0,0,0,0,0,0,0,0,0,0,0,0,0,0,0,0,0,0,0,0,0,0,0,0],"sum_hessian":[1.1125233E3,1.5326532E2,9.59258E2,1.3684921E2,1.6416113E1,9.264758E2,3.278213E1,1.2128352E0,1.3563638E2,1.3963477E1,2.4526358E0,9.080311E2,1.8444733E1,3.021608E1,2.56605E0,1.3461696E2,1.0194138E0,1.7157906E0,1.2247686E1,9.069825E2,1.0486082E0,1.7329205E1,1.1155276E0,2.7566765E1,2.649315E0,1.4057591E0,1.1602911E0,1.3281941E2,1.797544E0,1.2449846E0,1.1002702E1,8.760163E2,3.0966215E1,1.6047829E1,1.2813755E0,2.6269142E1,1.2976238E0,1.2329377E0,1.3158649E2,9.1059675E0,8.6691034E2,3.8022933E0,2.7163923E1,1.4815713E1,1.2321162E0,1.9576378E1,6.692764E0],"tree_param":{"num_deleted":"0","num_feature":"10000","num_nodes":"47","size_leaf_vector":"1"}},{"base_weights":[-1.227135E-2,1.5940261E0,-2.687125E-1,1.6958754E0,1.1252369E0,-3.2258868E-1,2.4115384E0,1.7137945E0,3.3443984E-2,1.238833E0,-9.592582E-3,1.3338423E0,-4.0332827E-1,3.1573772E0,6.282119E-1,2.3989683E-2,1.7262938E0,1.3175765E0,-2.1707326E-2,-8.5822485E-2,1.5822978E0,-4.6822527E-1,1.1780291E0,3.4038742E0,3.1147903E-2,-7.57606E-2,1.5927979E0,1.7454342E0,5.73984E-1,1.8082961E-2,1.3659554E0,-7.010465E-2,1.7220174E0,2.3449989E-1,-5.023432E-1,-8.943445E-2,1.4523246E0,3.6127138E0,5.9200555E-2,1.9260202E-1,3.4617614E-2,1.7576884E-1,4.071139E-2,-2.013502E-2,1.0817285E-1,3.988175E-2,1.4409907E-1,-7.806383E-4,1.8043268E-1,-5.2117378E-2,4.206203E-1,-7.637866E-2,1.6639094E-1,3.8320205E-1,8.843412E-2],"categories":[],"categories_nodes":[],"categories_segments":[],"categories_sizes":[],"default_left":[0,1,1,1,1,0,1,0,0,1,0,0,1,1,1,0,1,0,0,0,0,0,0,1,0,0,0,1,0,0,0,0,0,0,1,0,0,1,0,0,0,0,0,0,0,0,0,0,0,0,0,0,0,0,0],"id":7,"left_children":[1,3,5,7,9,11,13,15,-1,17,-1,19,21,23,25,-1,27,29,-1,-1,31,33,35,37,-1,-1,39,41,43,-1,45,-1,47,-1,49,-1,51,53,-1,-1,-1,-1,-1,-1,-1,-1,-1,-1,-1,-1,-1,-1,-1,-1,-1],"loss_changes":[4.467989E2,5.2214966E0,1.3583768E2,2.37146E0,4.228279E0,1.2327845E2,2.2687057E1,1.7761841E0,0E0,3.4014282E0,0E0,2.4715775E1,9.0438065E1,7.94014E0,1.0187176E1,0E0,1.5947876E0,1.178566E0,0E0,0E0,1.3608765E1,8.199979E1,2.1087555E1,4.735733E0,0E0,0E0,1.1126013E0,1.1756287E0,1.5616413E0,0E0,1.218586E0,0E0,5.2708893E0,0E0,7.603131E1,0E0,1.586483E1,3.014328E0,0E0,0E0,0E0,0E0,0E0,0E0,0E0,0E0,0E0,0E0,0E0,0E0,0E0,0E0,0E0,0E0,0E0],"parents":[2147483647,0,0,1,1,2,2,3,3,4,4,5,5,6,6,7,7,9,9,11,11,12,12,13,13,14,14,16,16,17,17,20,20,21,21,22,22,23,23,26,26,27,27,28,28,30,30,32,32,34,34,36,36,37,37],"right_children":[2,4,6,8,10,12,14,16,-1,18,-1,20,22,24,26,-1,28,30,-1,-1,32,34,36,38,-1,-1,40,42,44,-1,46,-1,48,-1,50,-1,52,54,-1,-1,-1,-1,-1,-1,-1,-1,-1,-1,-1,-1,-1,-1,-1,-1,-1],"split_conditions":[1.0150163E0,9.856923E-2,2.2030186E-2,9.177095E-2,9.213051E-2,1.1727191E-1,2.8184414E-2,1.6313812E-1,3.3443984E-2,2.7445128E-2,-9.592582E-3,1.378739E-1,5.648729E-2,4.8360888E-2,1.9049942E-2,2.3989683E-2,8.376965E-2,9.882687E-2,-2.1707326E-2,-8.5822485E-2,2.2609697E-1,2.948414E-1,3.5071927E-1,4.066449E-2,3.1147903E-2,-7.57606E-2,6.440558E-2,1.667742E-1,1.1492526E-1,1.8082961E-2,8.442905E-2,-7.010465E-2,8.599702E-2,2.3449989E-1,1.2851797E-1,-8.943445E-2,1.0345013E0,4.0137094E-2,5.9200555E-2,1.9260202E-1,3.4617614E-2,1.7576884E-1,4.071139E-2,-2.013502E-2,1.0817285E-1,3.988175E-2,1.4409907E-1,-7.806383E-4,1.8043268E-1,-5.2117378E-2,4.206203E-1,-7.637866E-2,1.6639094E-1,3.8320205E-1,8.843412E-2],"split_indices":[2440,7524,5595,6150,93,2063,4024,7081,0,603,0,4816,2745,2023,3002,0,4701,182,0,0,2860,5958,5040,7916,0,0,9551,2078,6337,0,7009,0,7765,0,5226,0,2747,1760,0,0,0,0,0,0,0,0,0,0,0,0,0,0,0,0,0],"split_type":[0,0,0,0,0,0,0,0,0,0,0,0,0,0,0,0,0,0,0,0,0,0,0,0,0,0,0,0,0,0,0,0,0,0,0,0,0,0,0,0,0,0,0,0,0,0,0,0,0,0,0,0,0,0,0],"sum_hessian":[1.0826322E3,1.483267E2,9.3430554E2,1.1970251E2,2.8624193E1,9.1675726E2,1.7548256E1,1.1789201E2,1.8104911E0,2.6174862E1,2.4493308E0,4.188738E1,8.7486993E2,1.1830076E1,5.718179E0,1.1611749E0,1.1673084E2,2.4921955E1,1.2529063E0,4.0144615E0,3.7872917E1,8.410578E2,3.381209E1,1.0706657E1,1.1234186E0,2.4347541E0,3.2834253E0,1.14317245E2,2.413594E0,1.2107619E0,2.3711193E1,1.9521818E0,3.5920734E1,9.2662735E0,8.3179156E2,3.6879745E0,3.0124117E1,9.701324E0,1.0053335E0,2.1608403E0,1.122585E0,1.12969505E2,1.3477417E0,1.193912E0,1.219682E0,2.161857E0,2.1549337E1,1.6726782E0,3.4248055E1,8.29364E2,2.4275067E0,2.3979945E0,2.7726122E1,8.605136E0,1.0961881E0],"tree_param":{"num_deleted":"0","num_feature":"10000","num_nodes":"55","size_leaf_vector":"1"}},{"base_weights":[-2.9074112E-2,1.5049434E0,-2.774497E-1,-8.687662E-3,1.5205747E0,1.7294656E0,-3.422131E-1,1.5374373E0,2.6763681E-2,1.2821932E0,2.831242E0,4.716608E0,-3.6775136E-1,1.5492078E0,9.910896E-3,-1.751899E-3,1.3560425E0,7.817913E-2,3.0443245E-1,5.513697E-1,1.5043508E-1,-4.2328522E-1,1.8531616E0,1.569587E0,6.092345E-1,1.495823E0,7.3321486E-1,-4.6919987E-1,2.1450322E0,-5.9985947E-2,2.003103E0,1.9995231E-2,1.580209E-1,1.703904E-2,1.00722186E-1,1.5454303E-1,4.874037E-2,3.0925546E-3,1.0561588E-1,-4.929295E-2,3.4827325E-1,-4.194282E-2,2.5619084E-1,2.1391009E-1,6.066521E-3],"categories":[],"categories_nodes":[],"categories_segments":[],"categories_sizes":[],"default_left":[0,0,0,0,1,0,0,1,0,0,0,1,1,1,0,0,1,0,0,0,0,1,0,0,0,1,0,1,1,0,1,0,0,0,0,0,0,0,0,0,0,0,0,0,0],"id":8,"left_children":[1,3,5,-1,7,9,11,13,-1,15,17,19,21,23,-1,-1,25,-1,-1,-1,-1,27,29,31,33,35,37,39,41,-1,43,-1,-1,-1,-1,-1,-1,-1,-1,-1,-1,-1,-1,-1,-1],"loss_changes":[3.993595E2,3.76651E0,1.1782836E2,0E0,2.6455994E0,1.03467865E1,1.1473129E2,2.2600098E0,0E0,2.1354752E0,8.348541E-1,3.1392365E0,1.0823046E2,1.7512207E0,0E0,0E0,7.167587E-1,0E0,0E0,0E0,0E0,1.0132727E2,9.086693E0,1.6873779E0,6.376693E-1,4.9713135E-2,1.278153E0,8.017209E1,1.7239952E1,0E0,5.268112E0,0E0,0E0,0E0,0E0,0E0,0E0,0E0,0E0,0E0,0E0,0E0,0E0,0E0,0E0],"parents":[2147483647,0,0,1,1,2,2,4,4,5,5,6,6,7,7,9,9,10,10,11,11,12,12,13,13,16,16,21,21,22,22,23,23,24,24,25,25,26,26,27,27,28,28,30,30],"right_children":[2,4,6,-1,8,10,12,14,-1,16,18,20,22,24,-1,-1,26,-1,-1,-1,-1,28,30,32,34,36,38,40,42,-1,44,-1,-1,-1,-1,-1,-1,-1,-1,-1,-1,-1,-1,-1,-1],"split_conditions":[1.0150163E0,6.904883E-2,1.1601807E0,-8.687662E-3,9.6564405E-2,8.230815E-2,1.1431533E0,1.5537041E-1,2.6763681E-2,1.06958084E-1,3.244913E-2,1.1500274E-1,2.2452427E-2,1.257457E-1,9.910896E-3,-1.751899E-3,5.207537E-2,7.817913E-2,3.0443245E-1,5.513697E-1,1.5043508E-1,8.8366024E-2,7.9229504E-2,1.0647364E-1,1.1190516E-1,4.5749392E-2,8.959138E-2,3.781864E-2,3.5917863E-2,-5.9985947E-2,6.4540036E-2,1.9995231E-2,1.580209E-1,1.703904E-2,1.00722186E-1,1.5454303E-1,4.874037E-2,3.0925546E-3,1.0561588E-1,-4.929295E-2,3.4827325E-1,-4.194282E-2,2.5619084E-1,2.1391009E-1,6.066521E-3],"split_indices":[2440,7053,7765,0,182,8855,8317,5932,0,2051,1175,2745,2230,785,0,0,110,0,0,0,0,6861,4458,8668,2440,164,7765,2264,2781,0,7822,0,0,0,0,0,0,0,0,0,0,0,0,0,0],"split_type":[0,0,0,0,0,0,0,0,0,0,0,0,0,0,0,0,0,0,0,0,0,0,0,0,0,0,0,0,0,0,0,0,0,0,0,0,0,0,0,0,0,0,0,0,0],"sum_hessian":[1.0460575E3,1.4506259E2,9.009949E2,1.366313E0,1.4369627E2,2.736274E1,8.7363214E2,1.41564E2,2.1322896E0,2.1001013E1,6.361727E0,3.4655247E0,8.701666E2,1.4033846E2,1.2255433E0,1.1701255E0,1.9830887E1,1.0388556E0,5.3228717E0,2.202533E0,1.2629917E0,8.497286E2,2.043802E1,1.3670479E2,3.633666E0,1.505128E1,4.7796073E0,8.356075E2,1.4121118E1,1.0044658E0,1.9433554E1,1.204588E0,1.355002E2,2.4073315E0,1.2263345E0,1.3838019E1,1.2132605E0,1.850715E0,2.9288924E0,8.3149E2,4.11747E0,1.9736804E0,1.2147438E1,1.806734E1,1.3662126E0],"tree_param":{"num_deleted":"0","num_feature":"10000","num_nodes":"45","size_leaf_vector":"1"}},{"base_weights":[-2.2480484E-2,1.3804953E0,-2.4896538E-1,1.4564129E0,7.800511E-1,2.4874938E0,-2.963818E-1,-3.4212742E-2,1.4739078E0,2.1988228E-1,1.0186929E0,-2.6813561E-2,2.742442E0,-3.4655777E-1,2.1677337E0,-9.7076E-3,1.489962E0,-1.9515814E-2,4.489342E-1,3.5280645E-1,1.17897265E-1,3.5027122E0,1.8184474E0,1.5958959E0,-4.084066E-1,2.5242572E0,-6.665561E-2,1.5118319E0,2.8535834E-2,9.6877E-2,-1.6112244E-2,9.829698E-2,-3.056777E-2,9.923293E-2,3.7894843E0,3.0065766E-2,1.9978845E-1,2.5067946E-1,1.1717837E0,-4.320986E-1,3.688895E0,3.9769883E0,1.4097346E0,1.52579E-1,9.371157E-3,4.4668046E-1,1.6463396E-1,1.7703077E-2,1.2849198E-1,-4.564761E-2,3.2694873E-1,4.7862586E-1,1.3175003E-1,1.1078397E-1,4.5120057E-1,1.8361892E-1,-3.8027383E-2],"categories":[],"categories_nodes":[],"categories_segments":[],"categories_sizes":[],"default_left":[0,1,0,0,0,0,1,0,0,0,0,0,0,0,1,0,1,0,1,0,0,0,0,1,1,1,0,1,0,0,0,0,0,0,1,0,0,0,0,1,0,0,0,0,0,0,0,0,0,0,0,0,0,0,0,0,0],"id":9,"left_children":[1,3,5,7,9,11,13,-1,15,17,19,-1,21,23,25,-1,27,-1,29,31,-1,33,35,37,39,41,-1,43,-1,-1,-1,-1,-1,-1,45,-1,-1,-1,47,49,51,53,55,-1,-1,-1,-1,-1,-1,-1,-1,-1,-1,-1,-1,-1,-1],"loss_changes":[3.2088843E2,5.262512E0,1.1354701E2,4.3889465E0,2.170044E0,1.1213669E1,1.0652519E2,0E0,3.2330933E0,7.174659E-1,8.9502716E-1,0E0,3.2832565E0,1.0148318E2,1.9073639E1,0E0,2.7637024E0,0E0,1.6061006E0,1.8814652E0,0E0,8.8920593E-1,1.654974E0,7.14666E0,8.063008E1,1.948378E1,0E0,2.210266E0,0E0,0E0,0E0,0E0,0E0,0E0,5.4528046E-1,0E0,0E0,0E0,1.9882698E0,7.4619644E1,6.147873E0,4.4854507E0,8.574633E0,0E0,0E0,0E0,0E0,0E0,0E0,0E0,0E0,0E0,0E0,0E0,0E0,0E0,0E0],"parents":[2147483647,0,0,1,1,2,2,3,3,4,4,5,5,6,6,8,8,9,9,10,10,12,12,13,13,14,14,16,16,18,18,19,19,21,21,22,22,23,23,24,24,25,25,27,27,34,34,38,38,39,39,40,40,41,41,42,42],"right_children":[2,4,6,8,10,12,14,-1,16,18,20,-1,22,24,26,-1,28,-1,30,32,-1,34,36,38,40,42,-1,44,-1,-1,-1,-1,-1,-1,46,-1,-1,-1,48,50,52,54,56,-1,-1,-1,-1,-1,-1,-1,-1,-1,-1,-1,-1,-1,-1],"split_conditions":[1.0150163E0,1.2563793E-1,5.433266E-1,1.6129648E-2,7.6119326E-2,1.2344698E-1,9.313434E-2,-3.4212742E-2,1.23940594E-1,4.2188533E-2,7.042049E-2,-2.6813561E-2,1.2779278E-1,1.1601807E0,4.0536277E-2,-9.7076E-3,9.339412E-2,-1.9515814E-2,9.213051E-2,1.0831939E-1,1.17897265E-1,6.782745E-2,1.7645249E-1,2.2445718E-2,7.6794274E-2,3.3916514E-2,-6.665561E-2,1.6376267E-1,2.8535834E-2,9.6877E-2,-1.6112244E-2,9.829698E-2,-3.056777E-2,9.923293E-2,3.646113E-2,3.0065766E-2,1.9978845E-1,2.5067946E-1,8.599702E-2,2.0611201E-1,4.1842985E-1,8.1762993E-1,1.2576239E-1,1.52579E-1,9.371157E-3,4.4668046E-1,1.6463396E-1,1.7703077E-2,1.2849198E-1,-4.564761E-2,3.2694873E-1,4.7862586E-1,1.3175003E-1,1.1078397E-1,4.5120057E-1,1.8361892E-1,-3.8027383E-2],"split_indices":[2440,1694,1628,1014,87,8659,7600,0,7691,8883,126,0,9551,7765,6972,0,2078,0,93,2440,0,87,8614,1075,8317,1348,0,2772,0,0,0,0,0,0,6688,0,0,0,7765,9700,7384,7617,1851,0,0,0,0,0,0,0,0,0,0,0,0,0,0],"split_type":[0,0,0,0,0,0,0,0,0,0,0,0,0,0,0,0,0,0,0,0,0,0,0,0,0,0,0,0,0,0,0,0,0,0,0,0,0,0,0,0,0,0,0,0,0,0,0,0,0,0,0,0,0,0,0,0,0],"sum_hessian":[1.00778644E3,1.3936783E2,8.6841864E2,1.2245907E2,1.6908764E1,1.3914856E1,8.545038E2,1.0009629E0,1.2145811E2,5.6254396E0,1.1283324E1,1.173987E0,1.2740869E1,8.382932E2,1.6210527E1,1.1775897E0,1.2028052E2,2.0531397E0,3.5723002E0,2.8100576E0,8.473267E0,5.4586277E0,7.2822413E0,2.5102701E1,8.1319055E2,1.4496419E1,1.7141082E0,1.1788524E2,2.3952794E0,1.6112969E0,1.9610033E0,1.1841042E0,1.6259536E0,1.0169199E0,4.4417076E0,1.0527763E0,6.229465E0,6.4146876E0,1.8688013E1,8.0940485E2,3.7857134E0,5.178343E0,9.318075E0,1.1666106E2,1.2241843E0,2.551197E0,1.8905106E0,2.1703029E0,1.651771E1,8.0498016E2,4.4246683E0,1.8919035E0,1.8938098E0,1.296459E0,3.881884E0,7.5044127E0,1.8136628E0],"tree_param":{"num_deleted":"0","num_feature":"10000","num_nodes":"57","size_leaf_vector":"1"}},{"base_weights":[-1.7856596E-2,1.3035687E0,-2.3375021E-1,1.3208529E0,-9.35979E-3,-3.4547007E-1,8.4429055E-1,1.3360082E0,-2.3342935E-2,-3.8080972E-1,2.620475E0,1.188469E0,-4.5699233E-1,1.3512706E0,-1.8998427E-2,-4.1336897E-1,2.3465357E0,3.175565E-1,7.703082E-1,1.0314741E0,3.7715966E-1,-6.783171E-1,1.0199242E-1,1.3688173E0,-5.353844E-3,-4.5991844E-1,1.585024E0,-2.2677448E-2,2.785261E-1,1.9150047E-2,9.3089804E-2,2.304296E-1,7.7600825E-1,-8.575397E-1,9.677501E-2,-1.1798406E-2,1.3854371E-1,-5.0120797E-2,1.7745708E-1,4.1023064E-1,1.1531657E-1,-5.8137815E-2,9.419974E-2,-9.7941615E-2,3.7732076E-2],"categories":[],"categories_nodes":[],"categories_segments":[],"categories_sizes":[],"default_left":[0,1,1,1,0,1,1,1,0,1,1,1,1,1,0,1,1,0,1,0,0,1,0,0,0,1,0,0,0,0,0,0,0,1,0,0,0,0,0,0,0,0,0,0,0],"id":10,"left_children":[1,3,5,7,-1,9,11,13,-1,15,17,19,21,23,-1,25,27,-1,29,31,-1,33,-1,35,-1,37,39,-1,-1,-1,-1,-1,41,43,-1,-1,-1,-1,-1,-1,-1,-1,-1,-1,-1],"loss_changes":[2.7831775E2,3.4321442E0,1.01278885E2,3.5012665E0,0E0,8.070689E1,3.5936813E1,3.383194E0,0E0,6.778231E1,6.8804016E0,2.1566963E1,6.331144E0,3.352539E0,0E0,6.997265E1,1.0821632E1,0E0,1.3925743E-1,1.790168E1,0E0,5.4333234E0,0E0,3.411148E0,0E0,6.807326E1,1.3933933E1,0E0,0E0,0E0,0E0,0E0,1.2250223E1,2.5671968E0,0E0,0E0,0E0,0E0,0E0,0E0,0E0,0E0,0E0,0E0,0E0],"parents":[2147483647,0,0,1,1,2,2,3,3,5,5,6,6,7,7,9,9,10,10,11,11,12,12,13,13,15,15,16,16,18,18,19,19,21,21,23,23,25,25,26,26,32,32,33,33],"right_children":[2,4,6,8,-1,10,12,14,-1,16,18,20,22,24,-1,26,28,-1,30,32,-1,34,-1,36,-1,38,40,-1,-1,-1,-1,-1,42,44,-1,-1,-1,-1,-1,-1,-1,-1,-1,-1,-1],"split_conditions":[1.0150163E0,1.0432741E-1,1.4520149E-2,2.743645E-2,-9.35979E-3,3.0844016E-2,3.3752788E-2,1.0336572E-1,-2.3342935E-2,7.441099E-2,1.0162376E-2,6.4575315E-2,8.33235E-2,1.4235677E-1,-1.8998427E-2,8.967394E-2,6.1865952E-2,3.175565E-1,4.9409993E-2,5.433266E-1,3.7715966E-1,6.585061E-2,1.0199242E-1,6.904883E-2,-5.353844E-3,1.24337494E-1,2.3912415E-1,-2.2677448E-2,2.785261E-1,1.9150047E-2,9.3089804E-2,2.304296E-1,5.276497E-2,4.7439657E-2,9.677501E-2,-1.1798406E-2,1.3854371E-1,-5.0120797E-2,1.7745708E-1,4.1023064E-1,1.1531657E-1,-5.8137815E-2,9.419974E-2,-9.7941615E-2,3.7732076E-2],"split_indices":[2440,216,9536,603,0,2952,6563,349,0,9289,1001,5112,6187,1614,0,7600,2851,0,2251,1628,0,1863,0,7053,0,4145,6702,0,0,0,0,0,3520,1460,0,0,0,0,0,0,0,0,0,0,0],"split_type":[0,0,0,0,0,0,0,0,0,0,0,0,0,0,0,0,0,0,0,0,0,0,0,0,0,0,0,0,0,0,0,0,0,0,0,0,0,0,0,0,0,0,0,0,0],"sum_hessian":[9.73502E2,1.3600638E2,8.374956E2,1.3439838E2,1.6079991E0,7.594696E2,7.802606E1,1.3323964E2,1.1587398E0,7.513883E2,8.081291E0,6.1774036E1,1.6252026E1,1.3203358E2,1.2060537E0,7.433624E2,8.025881E0,5.665232E0,2.4160593E0,5.9553837E1,2.220197E0,1.4604218E1,1.6478086E0,1.3043007E2,1.6035119E0,7.271934E2,1.6168985E1,1.2393969E0,6.786484E0,1.0009295E0,1.4151298E0,8.614308E0,5.093953E1,1.3602251E1,1.001966E0,1.3744462E0,1.2905563E2,7.1476154E2,1.2431866E1,1.123128E0,1.5045857E1,5.2777658E0,4.5661766E1,1.2568632E1,1.0336189E0],"tree_param":{"num_deleted":"0","num_feature":"10000","num_nodes":"45","size_leaf_vector":"1"}},{"base_weights":[-5.413772E-3,-2.0323174E-1,1.2225697E0,-2.9573834E-1,9.464846E-1,1.2452921E0,-6.789504E-2,-3.3651197E-1,2.3916595E0,7.698307E-1,3.2358038E0,1.3604671E0,8.766385E-1,-3.901277E-1,1.4323862E0,3.2254217E0,1.2702934E0,-8.301298E-2,8.84341E-1,6.194774E-2,4.0184364E-1,1.3865484E0,1.1186642E-2,9.386693E-1,-4.7616597E-2,-4.2193788E-1,2.65004E0,1.8044697E0,-2.8511253E-1,6.602848E-2,3.9512463E0,1.46145E-1,1.2096845E-2,9.8374546E-1,-7.72359E-2,6.401135E-3,1.4044536E0,1.0204277E0,2.9530786E-3,-4.375011E-2,4.44475E-1,3.056514E-1,2.4254292E-2,2.0182168E-1,-6.285895E-2,-7.551891E-2,3.398491E-2,1.0331738E-1,4.6562204E-1,-7.550987E-4,1.1622947E-1,1.4166479E-1,2.2647383E-2,-2.3690157E-3,1.08879045E-1],"categories":[],"categories_nodes":[],"categories_segments":[],"categories_sizes":[],"default_left":[1,1,1,1,1,1,0,1,0,0,1,1,1,1,0,0,0,0,1,0,0,0,0,1,0,1,1,1,1,0,0,0,0,0,0,0,1,0,0,0,0,0,0,0,0,0,0,0,0,0,0,0,0,0,0],"id":11,"left_children":[1,3,5,7,9,11,-1,13,15,17,19,21,23,25,27,29,31,-1,33,-1,-1,35,-1,37,-1,39,41,43,45,-1,47,-1,-1,49,-1,-1,51,53,-1,-1,-1,-1,-1,-1,-1,-1,-1,-1,-1,-1,-1,-1,-1,-1,-1],"loss_changes":[2.2870511E2,8.6518555E1,6.4894104E0,8.312033E1,2.202502E1,4.3031464E0,0E0,7.082396E1,6.515152E0,1.1285328E1,5.7635612E0,2.9975739E0,3.26853E0,7.073511E1,1.4579731E1,8.302338E0,1.2491198E0,0E0,9.690231E0,0E0,0E0,2.153656E0,0E0,2.3845558E0,0E0,5.5968956E1,6.6876106E0,1.0747665E1,1.6617126E0,0E0,4.1736298E0,0E0,0E0,9.141403E0,0E0,0E0,1.0212402E0,2.151165E0,0E0,0E0,0E0,0E0,0E0,0E0,0E0,0E0,0E0,0E0,0E0,0E0,0E0,0E0,0E0,0E0,0E0],"parents":[2147483647,0,0,1,1,2,2,3,3,4,4,5,5,7,7,8,8,9,9,10,10,11,11,12,12,13,13,14,14,15,15,16,16,18,18,21,21,23,23,25,25,26,26,27,27,28,28,30,30,33,33,36,36,37,37],"right_children":[2,4,6,8,10,12,-1,14,16,18,20,22,24,26,28,30,32,-1,34,-1,-1,36,-1,38,-1,40,42,44,46,-1,48,-1,-1,50,-1,-1,52,54,-1,-1,-1,-1,-1,-1,-1,-1,-1,-1,-1,-1,-1,-1,-1,-1,-1],"split_conditions":[2.626125E-2,3.6145758E-2,2.7445128E-2,4.4861954E-2,4.9789697E-2,6.9641106E-2,-6.789504E-2,7.90162E-2,1.9250032E-1,5.841387E-1,3.5231534E-2,5.2216545E-2,1.0432741E-1,4.2465206E-2,1.05895996E-1,1.0542774E-1,3.727112E-1,-8.301298E-2,3.6686394E-2,6.194774E-2,4.0184364E-1,9.212857E-2,1.1186642E-2,2.1208706E-1,-4.7616597E-2,8.901166E-2,8.016875E-2,3.48141E-2,6.0349874E-2,6.602848E-2,6.3472316E-2,1.46145E-1,1.2096845E-2,8.940519E-2,-7.72359E-2,6.401135E-3,1.0160076E-1,1.00170285E-1,2.9530786E-3,-4.375011E-2,4.44475E-1,3.056514E-1,2.4254292E-2,2.0182168E-1,-6.285895E-2,-7.551891E-2,3.398491E-2,1.0331738E-1,4.6562204E-1,-7.550987E-4,1.1622947E-1,1.4166479E-1,2.2647383E-2,-2.3690157E-3,1.08879045E-1],"split_indices":[2440,9536,603,7354,5112,1412,0,5785,6243,3069,6952,7916,216,291,8883,1593,6243,0,6972,0,0,5021,0,637,0,8426,4806,4157,9822,0,4748,0,0,4538,0,0,2231,7074,0,0,0,0,0,0,0,0,0,0,0,0,0,0,0,0,0],"split_type":[0,0,0,0,0,0,0,0,0,0,0,0,0,0,0,0,0,0,0,0,0,0,0,0,0,0,0,0,0,0,0,0,0,0,0,0,0,0,0,0,0,0,0,0,0,0,0,0,0,0,0,0,0,0,0],"sum_hessian":[9.3947125E2,8.0984625E2,1.2962502E2,7.502256E2,5.962065E1,1.2843538E2,1.1896471E0,7.398749E2,1.03507185E1,5.6590176E1,3.0304763E0,9.581153E1,3.2623848E1,7.1886536E2,2.1009531E1,4.860493E0,5.4902253E0,3.362285E0,5.322789E1,1.1102986E0,1.9201777E0,9.3742905E1,2.0686247E0,3.1486223E1,1.1376233E0,7.122738E2,6.591523E0,1.7226828E1,3.7827046E0,1.4931729E0,3.3673203E0,4.4744577E0,1.0157676E0,5.059813E1,2.6297598E0,1.3133065E0,9.2429596E1,2.8776E1,2.7102249E0,7.109105E2,1.3633264E0,5.4087467E0,1.1827766E0,1.5992381E1,1.2344464E0,2.0399451E0,1.7427597E0,1.1349626E0,2.2323577E0,7.8687787E0,4.272935E1,9.128206E1,1.147543E0,1.8084598E0,2.6967539E1],"tree_param":{"num_deleted":"0","num_feature":"10000","num_nodes":"55","size_leaf_vector":"1"}},{"base_weights":[-1.6902305E-2,1.1402943E0,-1.9739412E-1,1.230131E0,6.5281487E-1,-2.7055568E-1,1.26521E0,1.2565047E0,1.5645114E-1,7.4103016E-1,-3.219041E-2,-3.060825E-1,2.5528786E-1,8.595634E-1,3.5779607E0,1.2788683E0,4.955391E-3,-7.081373E-2,8.521016E-2,-2.0757891E-2,8.227717E-1,2.2931485E0,-3.4535426E-1,-5.746161E-1,1.0900863E0,1.0526226E-1,4.1398117E-1,-1.3098816E-2,1.2959466E0,9.1653115E-1,2.592639E-3,1.2967475E-2,2.5392306E0,2.8295372E0,-3.7507105E-1,-8.2512714E-2,2.4075784E-2,-7.377423E-2,1.2546617E0,1.3213502E-1,2.968286E-2,4.8129182E-2,1.19665526E-1,8.567861E-2,2.92411E-1,3.6839542E-1,1.06019214E-1,-4.134748E-2,1.8320975E-1,2.4852028E-2,-4.405934E-2,-5.696828E-2,1.3658276E-1],"categories":[],"categories_nodes":[],"categories_segments":[],"categories_sizes":[],"default_left":[0,1,1,1,1,1,1,1,0,0,0,0,0,0,0,0,0,0,0,0,1,0,0,0,0,0,0,0,1,0,0,0,0,0,1,0,0,0,0,0,0,0,0,0,0,0,0,0,0,0,0,0,0],"id":12,"left_children":[1,3,5,7,9,11,13,15,17,19,-1,21,-1,23,25,27,-1,-1,-1,-1,29,31,33,35,37,-1,-1,-1,39,41,-1,-1,43,45,47,-1,-1,49,51,-1,-1,-1,-1,-1,-1,-1,-1,-1,-1,-1,-1,-1,-1],"loss_changes":[1.913183E2,4.6096344E0,8.512557E1,2.7266083E0,2.075489E0,7.655357E1,3.2500538E1,2.6524048E0,2.7789671E0,1.7133417E0,0E0,7.703327E1,0E0,1.172784E1,3.2225952E0,2.547287E0,0E0,0E0,0E0,0E0,1.3596487E0,5.659012E0,7.056305E1,1.2821916E0,5.699768E0,0E0,0E0,0E0,2.0863647E0,1.4404106E0,0E0,0E0,3.9994202E0,6.5982437E0,6.2694954E1,0E0,0E0,6.4991033E-1,5.990738E0,0E0,0E0,0E0,0E0,0E0,0E0,0E0,0E0,0E0,0E0,0E0,0E0,0E0,0E0],"parents":[2147483647,0,0,1,1,2,2,3,3,4,4,5,5,6,6,7,7,8,8,9,9,11,11,13,13,14,14,15,15,20,20,21,21,22,22,23,23,24,24,28,28,29,29,32,32,33,33,34,34,37,37,38,38],"right_children":[2,4,6,8,10,12,14,16,18,20,-1,22,-1,24,26,28,-1,-1,-1,-1,30,32,34,36,38,-1,-1,-1,40,42,-1,-1,44,46,48,-1,-1,50,52,-1,-1,-1,-1,-1,-1,-1,-1,-1,-1,-1,-1,-1,-1],"split_conditions":[1.0150163E0,9.9988975E-2,3.184459E-2,7.502839E-2,2.024981E-1,5.856109E-2,1.2661222E-1,7.587095E-2,4.5934733E-2,1.08271904E-1,-3.219041E-2,2.217514E-1,2.5528786E-1,8.8633604E-2,7.330742E-2,2.960355E-1,4.955391E-3,-7.081373E-2,8.521016E-2,-2.0757891E-2,9.213051E-2,5.835222E-2,1.1431533E0,5.8786836E-2,9.624756E-2,1.0526226E-1,4.1398117E-1,-1.3098816E-2,1.969345E-1,1.1669331E-1,2.592639E-3,1.2967475E-2,9.999223E-2,4.1842985E-1,3.0060109E-2,-8.2512714E-2,2.4075784E-2,5.3220462E-2,1.3423358E-1,1.3213502E-1,2.968286E-2,4.8129182E-2,1.19665526E-1,8.567861E-2,2.92411E-1,3.6839542E-1,1.06019214E-1,-4.134748E-2,1.8320975E-1,2.4852028E-2,-4.405934E-2,-5.696828E-2,1.3658276E-1],"split_indices":[2440,7524,6254,234,3443,5291,5982,9636,4806,216,0,8829,0,3678,7087,362,0,0,0,0,93,4067,8317,7578,5146,0,0,0,2158,5112,0,0,2230,7384,5595,0,0,93,9470,0,0,0,0,0,0,0,0,0,0,0,0,0,0],"split_type":[0,0,0,0,0,0,0,0,0,0,0,0,0,0,0,0,0,0,0,0,0,0,0,0,0,0,0,0,0,0,0,0,0,0,0,0,0,0,0,0,0,0,0,0,0,0,0,0,0,0,0,0,0],"sum_hessian":[9.1391473E2,1.22595314E2,7.9131946E2,1.0223174E2,2.0363571E1,7.543984E2,3.6921074E1,9.9614555E1,2.6171877E0,1.8893406E1,1.4701649E0,7.4590436E2,8.493999E0,3.257859E1,4.3424835E0,9.7743866E1,1.8706869E0,1.1589E0,1.4582877E0,1.3767543E0,1.7516651E1,1.02479E1,7.356565E2,4.3046846E0,2.8273907E1,1.3132662E0,3.0292175E0,1.0900214E0,9.665385E1,1.5538179E1,1.9784724E0,1.2025379E0,9.045362E0,5.9481635E0,7.297083E2,3.28382E0,1.0208646E0,3.5711095E0,2.4702797E1,9.394274E1,2.7111025E0,7.1488624E0,8.3893175E0,2.2846148E0,6.760748E0,3.2814503E0,2.6667132E0,7.180276E2,1.1680694E1,2.0725904E0,1.4985194E0,1.1819062E0,2.3520891E1],"tree_param":{"num_deleted":"0","num_feature":"10000","num_nodes":"53","size_leaf_vector":"1"}},{"base_weights":[8.387887E-3,1.0661471E0,-1.5673064E-1,1.1824175E0,5.644134E-1,3.3760197E-2,-6.961223E-1,-1.7681146E-1,1.2163202E0,6.3133824E-1,-4.430444E-2,-7.901627E-2,1.0991386E0,-7.805366E-1,1.8758805E0,-9.346567E-2,7.2930746E-2,1.2397901E0,-1.6867252E-2,-3.748399E-2,7.086668E-1,-1.3455634E-1,1.8528652E0,1.2906525E0,-8.539455E-2,-8.2763594E-1,2.7069038E-1,2.0343602E-1,5.9988406E-2,1.2608895E0,-2.0931063E-2,8.000198E-1,-1.07578516E-1,-2.1959603E-1,1.1780965E0,3.3122818E0,4.64476E-1,-6.063376E-1,1.4505981E0,2.0580328E-1,-8.740862E-1,1.2895018E-1,4.066503E-3,8.679436E-2,-2.101911E-2,-8.627694E-2,7.1808904E-2,4.2179838E-1,-2.448706E-2,9.873722E-2,3.3896795E-1,7.834482E-2,3.6788008E-1,-9.189355E-3,2.2447877E-1,-2.364734E-3,-7.606782E-2,-7.293982E-2,1.5777524E-1,1.5534244E-1,-9.033489E-2],"categories":[],"categories_nodes":[],"categories_segments":[],"categories_sizes":[],"default_left":[0,1,1,0,1,1,1,0,1,0,0,1,1,1,0,0,0,1,0,0,1,1,1,0,0,0,0,0,0,1,0,1,0,0,1,0,1,0,0,0,0,0,0,0,0,0,0,0,0,0,0,0,0,0,0,0,0,0,0,0,0],"id":13,"left_children":[1,3,5,7,9,11,13,15,17,19,-1,21,23,25,27,-1,-1,29,-1,-1,31,33,35,37,-1,39,-1,-1,-1,41,-1,43,45,47,49,51,53,55,57,-1,59,-1,-1,-1,-1,-1,-1,-1,-1,-1,-1,-1,-1,-1,-1,-1,-1,-1,-1,-1,-1],"loss_changes":[1.5630737E2,6.381958E0,7.956683E1,4.6937866E0,1.9415541E0,6.893979E1,4.5340828E1,2.905377E0,3.2955933E0,2.0960102E0,0E0,5.5951183E1,2.1645355E1,3.449611E1,1.3767433E-1,0E0,0E0,3.122406E0,0E0,0E0,1.7408247E0,5.6693428E1,2.799482E1,1.617643E1,0E0,2.7872879E1,0E0,0E0,0E0,3.169754E0,0E0,1.5600376E0,2.5619538E0,5.4380253E1,9.6940155E0,3.5529327E0,8.756946E0,3.979963E-1,1.412085E1,0E0,1.5052338E1,0E0,0E0,0E0,0E0,0E0,0E0,0E0,0E0,0E0,0E0,0E0,0E0,0E0,0E0,0E0,0E0,0E0,0E0,0E0,0E0],"parents":[2147483647,0,0,1,1,2,2,3,3,4,4,5,5,6,6,7,7,8,8,9,9,11,11,12,12,13,13,14,14,17,17,20,20,21,21,22,22,23,23,25,25,29,29,31,31,32,32,33,33,34,34,35,35,36,36,37,37,38,38,40,40],"right_children":[2,4,6,8,10,12,14,16,18,20,-1,22,24,26,28,-1,-1,30,-1,-1,32,34,36,38,-1,40,-1,-1,-1,42,-1,44,46,48,50,52,54,56,58,-1,60,-1,-1,-1,-1,-1,-1,-1,-1,-1,-1,-1,-1,-1,-1,-1,-1,-1,-1,-1,-1],"split_conditions":[1.0150163E0,1.22412324E-1,1.6130034E-2,2.2770834E-1,1.0432741E-1,2.184595E-2,9.0075016E-2,5.1116887E-2,2.4565722E-1,1.00170285E-1,-4.430444E-2,9.59115E-2,4.5642443E-2,2.8768644E-1,1.1396111E-1,-9.346567E-2,7.2930746E-2,2.7445128E-2,-1.6867252E-2,-3.748399E-2,8.907995E-2,2.397046E-2,1.4232917E-2,1.2590721E-1,-8.539455E-2,5.198914E-1,2.7069038E-1,2.0343602E-1,5.9988406E-2,8.376965E-2,-2.0931063E-2,9.154057E-2,1.3877529E-1,4.210422E-1,7.1496E-2,9.000124E-1,4.386648E-2,2.887358E-2,3.8575817E-2,2.0580328E-1,1.7366119E-1,1.2895018E-1,4.066503E-3,8.679436E-2,-2.101911E-2,-8.627694E-2,7.1808904E-2,4.2179838E-1,-2.448706E-2,9.873722E-2,3.3896795E-1,7.834482E-2,3.6788008E-1,-9.189355E-3,2.2447877E-1,-2.364734E-3,-7.606782E-2,-7.293982E-2,1.5777524E-1,1.5534244E-1,-9.033489E-2],"split_indices":[2440,1694,6563,234,216,7461,9289,4024,2577,7074,0,4145,2422,6751,3185,0,0,603,0,0,110,8855,8614,5673,0,5019,0,0,0,4701,0,7613,279,6050,7409,4149,5800,4157,3678,0,2748,0,0,0,0,0,0,0,0,0,0,0,0,0,0,0,0,0,0,0,0],"split_type":[0,0,0,0,0,0,0,0,0,0,0,0,0,0,0,0,0,0,0,0,0,0,0,0,0,0,0,0,0,0,0,0,0,0,0,0,0,0,0,0,0,0,0,0,0,0,0,0,0,0,0,0,0,0,0,0,0,0,0,0,0],"sum_hessian":[8.9298926E2,1.1983868E2,7.731506E2,9.619097E1,2.3647701E1,5.7206006E2,2.0109055E2,2.2382877E0,9.395268E1,2.2524733E1,1.1229678E0,5.18138E2,5.392207E1,1.9537479E2,5.7157607E0,1.2017188E0,1.0365689E0,9.2490204E1,1.4624836E0,1.3329815E0,2.1191751E1,5.0456256E2,1.3575429E1,4.9415676E1,4.5063906E0,1.9352383E2,1.8509408E0,4.5556197E0,1.1601413E0,9.1290855E1,1.1993456E0,1.9076603E1,2.115148E0,4.7464554E2,2.9917011E1,5.9428506E0,7.632578E0,3.6255023E0,4.5790176E1,2.3797302E0,1.911441E2,8.91438E1,2.1470556E0,1.8006712E1,1.0698924E0,1.0812526E0,1.0338954E0,1.7486E0,4.7289694E2,2.8873451E1,1.0435592E0,1.1494745E0,4.7933764E0,6.537813E0,1.0947646E0,1.0007046E0,2.6247976E0,2.2626054E0,4.352757E1,1.656331E0,1.8948778E2],"tree_param":{"num_deleted":"0","num_feature":"10000","num_nodes":"61","size_leaf_vector":"1"}},{"base_weights":[-8.883661E-4,-1.7678279E-1,7.2305065E-1,1.2823946E0,-2.4037932E-1,-5.1183915E-1,9.4028E-1,1.339334E0,2.9492948E-2,1.6190012E0,-2.8806844E-1,1.46171E-1,-6.745353E-1,4.1245756E-1,8.868678E-1,3.7485372E-2,1.3621797E-1,-1.1302947E-2,1.7676016E0,-3.0599445E-1,4.492878E-1,-7.966029E-1,1.0861766E-1,-4.724079E-1,1.000732E0,1.7508544E-2,1.9351369E0,2.0432997E0,-3.4223855E-1,-8.872629E-1,6.0902238E-2,-7.33278E-1,1.09110944E-1,-5.7124513E-1,1.070175E0,2.2901995E-2,2.082694E-1,3.4526788E-2,2.221903E-1,-4.0532865E-2,9.2816785E-2,6.0248277E-3,-9.384782E-2,4.691443E-2,-9.060922E-2,-8.463174E-2,4.3719362E-2,1.0158439E-1,3.3472234E-1],"categories":[],"categories_nodes":[],"categories_segments":[],"categories_sizes":[],"default_left":[1,0,0,1,0,0,0,0,0,0,1,0,1,0,0,0,0,0,0,0,0,1,0,1,0,0,0,0,1,0,0,0,0,1,1,0,0,0,0,0,0,0,0,0,0,0,0,0,0],"id":14,"left_children":[1,3,5,7,9,11,13,15,-1,17,19,-1,21,-1,23,-1,-1,-1,25,27,-1,29,-1,31,33,-1,35,37,39,41,-1,43,-1,45,47,-1,-1,-1,-1,-1,-1,-1,-1,-1,-1,-1,-1,-1,-1],"loss_changes":[1.10784996E2,6.526225E1,4.610221E1,1.2574654E0,6.0014713E1,9.3626995E0,2.0999847E1,9.543991E-2,0E0,4.5609283E0,5.7562836E1,0E0,6.1923723E0,0E0,2.2738335E1,0E0,0E0,0E0,3.8407898E0,5.639446E1,0E0,3.5676575E0,0E0,5.6124964E0,1.5136658E1,0E0,3.066368E0,2.2902641E0,5.2074364E1,1.1592445E0,0E0,2.650519E0,0E0,2.1124103E0,1.24079895E1,0E0,0E0,0E0,0E0,0E0,0E0,0E0,0E0,0E0,0E0,0E0,0E0,0E0,0E0],"parents":[2147483647,0,0,1,1,2,2,3,3,4,4,5,5,6,6,7,7,9,9,10,10,12,12,14,14,18,18,19,19,21,21,23,23,24,24,26,26,27,27,28,28,29,29,31,31,33,33,34,34],"right_children":[2,4,6,8,10,12,14,16,-1,18,20,-1,22,-1,24,-1,-1,-1,26,28,-1,30,-1,32,34,-1,36,38,40,42,-1,44,-1,46,48,-1,-1,-1,-1,-1,-1,-1,-1,-1,-1,-1,-1,-1,-1],"split_conditions":[6.9332324E-2,6.645634E-1,4.2267808E-1,1.1492526E-1,6.179002E-1,1.7366119E-1,3.025637E-1,3.6732238E-2,2.9492948E-2,6.938702E-2,2.3614539E-1,1.46171E-1,3.91923E-2,4.1245756E-1,4.807388E-2,3.7485372E-2,1.3621797E-1,-1.1302947E-2,3.1436495E-2,1.4752085E0,4.492878E-1,6.3091226E-2,1.0861766E-1,3.0810274E-2,2.9369896E-2,1.7508544E-2,2.1875556E-1,1.105086E-1,6.0530767E-2,9.4299145E-2,6.0902238E-2,4.791949E-2,1.09110944E-1,5.2735284E-2,4.619958E-2,2.2901995E-2,2.082694E-1,3.4526788E-2,2.221903E-1,-4.0532865E-2,9.2816785E-2,6.0248277E-3,-9.384782E-2,4.691443E-2,-9.060922E-2,-8.463174E-2,4.3719362E-2,1.0158439E-1,3.3472234E-1],"split_indices":[8809,5022,6563,6337,2230,2748,1627,4538,0,7065,8421,0,7347,0,3520,0,0,0,6337,5291,0,1678,0,8862,2513,0,9695,6420,9157,1106,0,3069,0,6243,7594,0,0,0,0,0,0,0,0,0,0,0,0,0,0],"split_type":[0,0,0,0,0,0,0,0,0,0,0,0,0,0,0,0,0,0,0,0,0,0,0,0,0,0,0,0,0,0,0,0,0,0,0,0,0,0,0,0,0,0,0,0,0,0,0,0,0],"sum_hessian":[8.6801154E2,6.9894556E2,1.6906598E2,2.8390106E1,6.705554E2,2.5088501E1,1.4397748E2,2.6505413E1,1.8846935E0,1.5944304E1,6.5461115E2,1.302654E0,2.3785847E1,1.1177645E0,1.4285973E2,1.0161115E0,2.5489302E1,1.2787738E0,1.466553E1,6.530983E2,1.5127752E0,2.2755789E1,1.0300583E0,1.0798742E1,1.3206097E2,1.5906438E0,1.3074886E1,9.081343E0,6.44017E2,2.1723448E1,1.032341E0,9.709703E0,1.0890392E0,5.28135E0,1.26779625E2,1.2439463E0,1.183094E1,1.1434458E0,7.937897E0,6.1419617E2,2.9820866E1,1.1049477E0,2.06185E1,1.00466E0,8.705044E0,4.2758026E0,1.0055476E0,1.2523753E2,1.5420902E0],"tree_param":{"num_deleted":"0","num_feature":"10000","num_nodes":"49","size_leaf_vector":"1"}},{"base_weights":[-6.0478994E-3,1.0207881E0,-1.5828244E-1,1.0868456E0,3.5908917E-1,-6.742759E-1,1.5712926E-2,1.1091332E0,-2.7767537E-2,-7.211744E-2,5.692813E-1,1.7172019E-1,-7.4168164E-1,-1.4353502E-1,7.5353146E-1,1.1314939E0,-2.2040004E-2,8.883685E-1,-2.1631248E-1,-7.8268105E-1,2.77288E-1,-1.7655787E-1,4.5285645E0,5.256255E-1,1.5651317E0,-3.1185621E-2,1.1512465E0,1.0927E-1,3.3469656E-1,-2.5584474E-3,-3.3270765E-2,8.8043207E-1,-8.67073E-1,4.406732E-1,-2.0044956E-1,9.4850935E-2,5.743346E-1,3.0277577E-1,1.8113545E0,1.7925828E0,-7.075392E-2,-1.8685028E-2,1.1715076E-1,5.487924E-3,4.7509167E-2,-4.5411333E-2,1.5470897E-1,-9.045727E-2,1.6386758E-1,2.0757797E-1,-2.453781E-2,3.3782932E-1,2.0526389E-2,-1.1657667E-2,2.238905E-1,-2.4747927E-2,1.9415055E-1],"categories":[],"categories_nodes":[],"categories_segments":[],"categories_sizes":[],"default_left":[0,1,0,1,0,0,1,1,0,0,1,0,1,1,1,0,0,1,1,0,0,0,1,1,0,0,0,0,0,0,0,1,1,0,0,0,0,0,0,0,0,0,0,0,0,0,0,0,0,0,0,0,0,0,0,0,0],"id":15,"left_children":[1,3,5,7,9,11,13,15,-1,-1,17,-1,19,21,23,25,-1,27,29,31,-1,33,35,37,39,-1,41,-1,43,-1,-1,45,47,-1,49,-1,-1,51,53,55,-1,-1,-1,-1,-1,-1,-1,-1,-1,-1,-1,-1,-1,-1,-1,-1,-1],"loss_changes":[1.3180063E2,4.368141E0,6.593193E1,3.3031921E0,2.99334E0,3.1124458E1,6.47393E1,3.136261E0,0E0,0E0,2.719169E0,0E0,2.8222893E1,7.0731514E1,1.7268906E1,3.0863419E0,0E0,4.674797E-1,7.398346E-2,2.595636E1,0E0,5.027369E1,8.550629E0,2.1763382E1,1.2091843E1,0E0,2.7831879E0,0E0,1.0855129E-1,0E0,0E0,8.856142E0,1.7581467E1,0E0,4.6495064E1,0E0,0E0,1.9570196E1,9.577488E0,6.3490715E0,0E0,0E0,0E0,0E0,0E0,0E0,0E0,0E0,0E0,0E0,0E0,0E0,0E0,0E0,0E0,0E0,0E0],"parents":[2147483647,0,0,1,1,2,2,3,3,4,4,5,5,6,6,7,7,10,10,12,12,13,13,14,14,15,15,17,17,18,18,19,19,21,21,22,22,23,23,24,24,26,26,28,28,31,31,32,32,34,34,37,37,38,38,39,39],"right_children":[2,4,6,8,10,12,14,16,-1,-1,18,-1,20,22,24,26,-1,28,30,32,-1,34,36,38,40,-1,42,-1,44,-1,-1,46,48,-1,50,-1,-1,52,54,56,-1,-1,-1,-1,-1,-1,-1,-1,-1,-1,-1,-1,-1,-1,-1,-1,-1],"split_conditions":[1.0150163E0,1.2877545E-1,8.453662E-1,2.7445128E-2,1.292417E-1,2.948414E-1,6.1684947E-2,2.4565722E-1,-2.7767537E-2,-7.211744E-2,9.213051E-2,1.7172019E-1,1.6932884E-1,1.466807E-1,2.119889E-2,1.0647364E-1,-2.2040004E-2,8.907995E-2,1.2591358E-1,3.578486E-1,2.77288E-1,6.4792536E-2,1.458467E-1,3.8193703E-2,1.676445E-1,-3.1185621E-2,8.256915E-2,1.0927E-1,1.2600921E-1,-2.5584474E-3,-3.3270765E-2,3.532208E-2,7.443323E-2,4.406732E-1,8.286165E-1,9.4850935E-2,5.743346E-1,2.9690725E-1,1.2661222E-1,7.22383E-2,-7.075392E-2,-1.8685028E-2,1.1715076E-1,5.487924E-3,4.7509167E-2,-4.5411333E-2,1.5470897E-1,-9.045727E-2,1.6386758E-1,2.0757797E-1,-2.453781E-2,3.3782932E-1,2.0526389E-2,-1.1657667E-2,2.238905E-1,-2.4747927E-2,1.9415055E-1],"split_indices":[2440,1694,6563,603,1694,5958,8809,2577,0,0,93,0,7384,5226,2781,8668,0,110,785,2745,0,5590,7009,4990,1175,0,7009,0,785,0,0,9551,6917,0,4860,0,0,2264,5982,445,0,0,0,0,0,0,0,0,0,0,0,0,0,0,0,0,0],"split_type":[0,0,0,0,0,0,0,0,0,0,0,0,0,0,0,0,0,0,0,0,0,0,0,0,0,0,0,0,0,0,0,0,0,0,0,0,0,0,0,0,0,0,0,0,0,0,0,0,0,0,0,0,0,0,0,0,0],"sum_hessian":[8.4111316E2,1.0786287E2,7.332503E2,9.74881E1,1.0374774E1,1.8417963E2,5.490707E2,9.610551E1,1.3825856E0,1.2938942E0,9.080879E0,4.3779907E0,1.7980164E2,4.522617E2,9.6808975E1,9.4662384E1,1.4431216E0,6.364831E0,2.7160487E0,1.7849667E2,1.3049661E0,4.5004294E2,2.2187374E0,7.687056E1,1.9938423E1,1.0783434E0,9.3584045E1,3.937977E0,2.426854E0,1.4916314E0,1.2244173E0,8.16458E0,1.7033209E2,1.3825042E0,4.4866043E2,1.0132927E0,1.2054448E0,6.656809E1,1.0302465E1,1.831653E1,1.6218921E0,1.273245E0,9.23108E1,1.2755281E0,1.1513258E0,2.8260617E0,5.338518E0,1.6845016E2,1.8819299E0,7.809381E0,4.4085107E2,1.0117774E0,6.555631E1,2.002052E0,8.300413E0,1.2011007E0,1.7115429E1],"tree_param":{"num_deleted":"0","num_feature":"10000","num_nodes":"57","size_leaf_vector":"1"}},{"base_weights":[1.2700016E-3,9.909254E-1,-1.3941857E-1,1.0130825E0,-4.5349326E-2,-1.5948458E-1,3.980381E-1,1.0344974E0,-5.094084E-2,-2.0761402E-1,1.4436665E0,1.055728E0,-1.7590476E-2,-2.4064575E-1,2.122341E0,1.594424E0,-6.2319584E-2,-2.5549069E-2,1.0735347E0,-2.8900096E-1,1.248924E0,5.8757955E-1,3.499145E0,1.7206401E0,-1.6520131E-2,-2.4238087E-2,1.0901715E-1,-3.2269336E-2,1.9890545E-1,7.259282E-2,2.6029667E-1,9.727347E-2,-4.1718505E-2,9.928829E-2,4.6877414E-1,1.8394953E-1,1.6744763E-3],"categories":[],"categories_nodes":[],"categories_segments":[],"categories_sizes":[],"default_left":[0,1,1,1,0,1,0,1,0,1,1,0,0,1,0,1,0,0,0,1,1,1,0,1,0,0,0,0,0,0,0,0,0,0,0,0,0],"id":16,"left_children":[1,3,5,7,-1,9,-1,11,-1,13,15,17,-1,19,21,23,-1,-1,25,27,29,31,33,35,-1,-1,-1,-1,-1,-1,-1,-1,-1,-1,-1,-1,-1],"loss_changes":[1.1328601E2,3.7004929E0,5.952577E1,3.7889786E0,0E0,5.507385E1,0E0,2.7295456E0,0E0,5.362033E1,7.480007E0,2.54908E0,0E0,4.9435635E1,1.8542595E1,4.655609E0,0E0,0E0,2.3728256E0,5.1353664E1,1.3413742E1,2.6548E0,1.0051807E1,3.7062035E0,0E0,0E0,0E0,0E0,0E0,0E0,0E0,0E0,0E0,0E0,0E0,0E0,0E0],"parents":[2147483647,0,0,1,1,2,2,3,3,5,5,7,7,9,9,10,10,11,11,13,13,14,14,15,15,18,18,19,19,20,20,21,21,22,22,23,23],"right_children":[2,4,6,8,-1,10,-1,12,-1,14,16,18,-1,20,22,24,-1,-1,26,28,30,32,34,36,-1,-1,-1,-1,-1,-1,-1,-1,-1,-1,-1,-1,-1],"split_conditions":[1.0150163E0,1.4235677E-1,2.0991477E-1,5.2742474E-2,-4.5349326E-2,4.308351E-2,3.980381E-1,8.376965E-2,-5.094084E-2,3.6402903E-2,7.7695586E-2,1.0647364E-1,-1.7590476E-2,1.3937977E-1,1.7978771E-1,4.097437E-2,-6.2319584E-2,-2.5549069E-2,2.1809413E-1,3.0987414E-2,8.676408E-2,3.72004E-2,9.671921E-2,6.727542E-2,-1.6520131E-2,-2.4238087E-2,1.0901715E-1,-3.2269336E-2,1.9890545E-1,7.259282E-2,2.6029667E-1,9.727347E-2,-4.1718505E-2,9.928829E-2,4.6877414E-1,1.8394953E-1,1.6744763E-3],"split_indices":[2440,1614,1926,4797,0,2230,0,4701,0,2231,1639,8668,0,2745,1075,3203,0,0,4365,2952,3946,5054,5853,7527,0,0,0,0,0,0,0,0,0,0,0,0,0],"split_type":[0,0,0,0,0,0,0,0,0,0,0,0,0,0,0,0,0,0,0,0,0,0,0,0,0,0,0,0,0,0,0,0,0,0,0,0,0],"sum_hessian":[8.1164996E2,1.0027004E2,7.113799E2,9.904927E1,1.2207782E0,7.088884E2,2.4914432E0,9.799148E1,1.0577921E0,6.890718E2,1.9816664E1,9.642791E1,1.563565E0,6.8032355E2,8.748217E0,1.8682531E1,1.1341323E0,1.1131396E0,9.531477E1,6.5971356E2,2.0609997E1,4.811488E0,3.936728E0,1.7452814E1,1.2297163E0,1.0205884E0,9.429418E1,6.5094446E2,8.769102E0,1.5975584E1,4.634412E0,3.5012403E0,1.310248E0,1.8568126E0,2.0799153E0,1.6240385E1,1.2124306E0],"tree_param":{"num_deleted":"0","num_feature":"10000","num_nodes":"37","size_leaf_vector":"1"}},{"base_weights":[-7.0084967E-3,1.4970973E-1,-6.183562E-1,2.4668118E-1,-6.8089986E-1,1.797471E-1,-7.177755E-1,9.733281E-1,1.2921357E-1,1.5829605E-1,-7.8619766E-1,-7.700401E-1,2.7624282E-1,1.1551113E0,-8.56323E-2,3.4294512E-2,9.8237103E-1,8.6441904E-2,-8.5093606E-1,-8.4485006E-1,1.5573184E-1,1.2785234E0,-3.9720073E-1,1.1130222E0,-5.5753652E-2,1.6680284E0,4.6352965E-1,-9.114978E-1,7.651028E-2,1.3644075E0,-8.8401806E-1,1.3492227E-1,-7.541458E-2,-8.6361915E-2,4.9412362E-2,2.0426409E-1,6.468239E-2,1.3273565E-1,-1.2891312E-2,-1.8766733E-3,1.8421757E-1,6.459038E-2,-3.7818704E-2,4.4348884E-2,-9.426098E-2,4.1052427E-2,1.6384512E-1,-9.127345E-2,9.944372E-2],"categories":[],"categories_nodes":[],"categories_segments":[],"categories_sizes":[],"default_left":[1,1,0,0,0,0,1,1,1,0,0,1,0,1,0,0,1,0,1,0,0,1,1,1,0,0,1,0,0,0,1,0,0,0,0,0,0,0,0,0,0,0,0,0,0,0,0,0,0],"id":17,"left_children":[1,3,5,7,9,-1,11,13,15,-1,17,19,-1,21,-1,23,25,-1,27,29,-1,31,33,35,37,39,41,43,-1,45,47,-1,-1,-1,-1,-1,-1,-1,-1,-1,-1,-1,-1,-1,-1,-1,-1,-1,-1],"loss_changes":[7.635001E1,5.1260403E1,4.034304E1,4.842134E1,1.7115906E1,0E0,3.0663437E1,2.7262749E1,3.970816E1,0E0,7.6054115E0,2.8363075E1,0E0,1.4355057E1,0E0,4.3060783E1,1.6692978E1,0E0,6.8012466E0,1.428614E1,0E0,1.0673981E1,2.9569807E0,1.3479919E1,4.1608086E1,6.13398E0,4.747133E0,2.9714737E0,0E0,1.1848354E-1,8.952148E0,0E0,0E0,0E0,0E0,0E0,0E0,0E0,0E0,0E0,0E0,0E0,0E0,0E0,0E0,0E0,0E0,0E0,0E0],"parents":[2147483647,0,0,1,1,2,2,3,3,4,4,6,6,7,7,8,8,10,10,11,11,13,13,15,15,16,16,18,18,19,19,21,21,22,22,23,23,24,24,25,25,26,26,27,27,29,29,30,30],"right_children":[2,4,6,8,10,-1,12,14,16,-1,18,20,-1,22,-1,24,26,-1,28,30,-1,32,34,36,38,40,42,44,-1,46,48,-1,-1,-1,-1,-1,-1,-1,-1,-1,-1,-1,-1,-1,-1,-1,-1,-1,-1],"split_conditions":[1.6130034E-2,9.294164E-3,2.948414E-1,1.6921532E-1,2.2470033E-1,1.797471E-1,1.5273193E-1,2.9683072E-2,1.8001739E-2,1.5829605E-1,8.7893374E-2,6.85377E-2,2.7624282E-1,3.2734174E-2,-8.56323E-2,7.140837E-2,8.51997E-2,8.6441904E-2,6.058454E-2,1.20187715E-1,1.5573184E-1,3.7959278E-2,3.977561E-2,9.0064425E-3,1.3291368E0,5.106729E-2,7.243862E-2,1.5108499E-1,7.651028E-2,5.773768E-2,1.0449691E-1,1.3492227E-1,-7.541458E-2,-8.6361915E-2,4.9412362E-2,2.0426409E-1,6.468239E-2,1.3273565E-1,-1.2891312E-2,-1.8766733E-3,1.8421757E-1,6.459038E-2,-3.7818704E-2,4.4348884E-2,-9.426098E-2,4.1052427E-2,1.6384512E-1,-9.127345E-2,9.944372E-2],"split_indices":[6563,7968,5958,7461,2748,0,7384,1215,5112,0,532,5779,0,6024,0,623,828,0,2230,2748,0,6829,6952,8883,5022,4470,87,618,0,1460,8783,0,0,0,0,0,0,0,0,0,0,0,0,0,0,0,0,0,0],"split_type":[0,0,0,0,0,0,0,0,0,0,0,0,0,0,0,0,0,0,0,0,0,0,0,0,0,0,0,0,0,0,0,0,0,0,0,0,0,0,0,0,0,0,0,0,0,0,0,0,0],"sum_hessian":[7.949292E2,6.3333075E2,1.6159843E2,5.677504E2,6.558034E1,5.712341E0,1.558861E2,7.799466E1,4.8975577E2,2.2910254E0,6.328931E1,1.543469E2,1.5391967E0,7.128126E1,6.713407E0,4.416587E2,4.809707E1,1.9223822E0,6.136693E1,1.5015727E2,4.1896205E0,6.6194984E1,5.0862713E0,3.315228E1,4.085064E2,1.9763876E1,2.8333193E1,5.957047E1,1.7964615E0,2.0263596E0,1.481309E2,6.4294945E1,1.9000418E0,3.359416E0,1.7268555E0,9.943346E0,2.3208931E1,1.9661133E1,3.8884528E2,1.9330028E0,1.7830873E1,2.3478712E1,4.85448E0,1.0395966E0,5.8530872E1,1.0097336E0,1.016626E0,1.4640686E2,1.7240582E0],"tree_param":{"num_deleted":"0","num_feature":"10000","num_nodes":"49","size_leaf_vector":"1"}},{"base_weights":[-8.293611E-3,1.4053331E-1,-6.1229414E-1,7.0646256E-2,1.1710885E0,-6.990874E-1,1.3156582E0,3.240119E-2,2.0777738E0,-5.2020926E-2,1.2637508E0,-7.638829E-1,1.2350864E0,-4.620523E-3,1.6440505E-1,9.131182E-1,-4.4146124E-2,-5.730603E-2,2.4532154E0,1.3433805E0,-5.917057E-2,-8.0423295E-1,1.9453742E-1,1.5275419E-1,6.489283E-3,-4.897784E-1,1.2207248E0,-7.582814E-2,2.3065546E0,2.2749653E-2,2.8851416E0,-1.5639243E-1,1.4412997E0,-8.6083835E-1,6.164124E-1,7.6729976E-2,-8.141004E-2,5.624506E-3,1.560518E-1,-1.1866247E-2,1.6956292E-1,-1.9390285E-3,2.7871737E-1,5.5698823E-2,3.1570506E-1,-4.7118325E-2,2.2675665E-2,-2.857477E-2,1.5274097E-1,-9.031252E-2,5.9638258E-2,1.3780624E-1,-6.85674E-2],"categories":[],"categories_nodes":[],"categories_segments":[],"categories_sizes":[],"default_left":[1,1,1,1,0,1,1,0,0,0,1,1,0,0,0,0,1,0,0,0,0,1,0,0,0,0,0,1,0,0,0,1,0,1,1,0,0,0,0,0,0,0,0,0,0,0,0,0,0,0,0,0,0],"id":18,"left_children":[1,3,5,7,9,11,13,15,17,-1,19,21,23,-1,-1,25,27,-1,29,31,-1,33,-1,-1,-1,35,37,39,41,-1,43,45,47,49,51,-1,-1,-1,-1,-1,-1,-1,-1,-1,-1,-1,-1,-1,-1,-1,-1,-1,-1],"loss_changes":[7.00746E1,4.496606E1,2.6706882E1,4.4978844E1,6.872761E0,1.9506798E1,3.200162E0,3.893065E1,1.2310387E1,0E0,6.3932037E0,1.729956E1,1.6747828E0,0E0,0E0,2.0524288E1,3.9772602E1,0E0,8.752174E0,5.6058197E0,0E0,1.1992561E1,0E0,0E0,0E0,4.301081E0,1.501049E1,4.0082474E1,7.9938927E0,0E0,3.3759918E0,4.864734E-1,5.5656357E0,9.010796E0,6.9392433E0,0E0,0E0,0E0,0E0,0E0,0E0,0E0,0E0,0E0,0E0,0E0,0E0,0E0,0E0,0E0,0E0,0E0,0E0],"parents":[2147483647,0,0,1,1,2,2,3,3,4,4,5,5,6,6,7,7,8,8,10,10,11,11,12,12,15,15,16,16,18,18,19,19,21,21,25,25,26,26,27,27,28,28,30,30,31,31,32,32,33,33,34,34],"right_children":[2,4,6,8,10,12,14,16,18,-1,20,22,24,-1,-1,26,28,-1,30,32,-1,34,-1,-1,-1,36,38,40,42,-1,44,46,48,50,52,-1,-1,-1,-1,-1,-1,-1,-1,-1,-1,-1,-1,-1,-1,-1,-1,-1,-1],"split_conditions":[1.6130034E-2,4.9704134E-2,7.592063E-2,3.505075E-2,7.514064E-2,6.85377E-2,7.4583374E-2,1.7878965E-1,2.3237497E-1,-5.2020926E-2,3.0120183E-2,5.180031E-2,8.1093006E-2,-4.620523E-3,1.6440505E-1,4.2592723E-2,5.5943E-2,-5.730603E-2,7.662266E-2,1.1857705E-1,-5.917057E-2,1.5690446E-1,1.9453742E-1,1.5275419E-1,6.489283E-3,5.9517603E-2,9.085498E-2,6.382328E-2,1.7442305E-1,2.2749653E-2,5.4193217E-2,9.937513E-2,1.1011406E-1,5.413353E-2,4.5005336E-2,7.6729976E-2,-8.141004E-2,5.624506E-3,1.560518E-1,-1.1866247E-2,1.6956292E-1,-1.9390285E-3,2.7871737E-1,5.5698823E-2,3.1570506E-1,-4.7118325E-2,2.2675665E-2,-2.857477E-2,1.5274097E-1,-9.031252E-2,5.9638258E-2,1.3780624E-1,-6.85674E-2],"split_indices":[6563,7347,6476,6751,3568,5779,2851,6213,9595,0,9742,8069,9838,0,0,4924,8048,0,9225,205,0,9551,0,0,0,9397,8583,5291,4686,0,1001,8809,8398,9624,2023,0,0,0,0,0,0,0,0,0,0,0,0,0,0,0,0,0,0],"split_type":[0,0,0,0,0,0,0,0,0,0,0,0,0,0,0,0,0,0,0,0,0,0,0,0,0,0,0,0,0,0,0,0,0,0,0,0,0,0,0,0,0,0,0,0,0,0,0,0,0,0,0,0,0],"sum_hessian":[7.775888E2,6.244824E2,1.5310638E2,5.858234E2,3.865904E1,1.4712064E2,5.9857354E0,5.7586664E2,9.95678E0,1.7683634E0,3.6890675E1,1.4293726E2,4.183388E0,1.3298914E0,4.655844E0,4.517506E1,5.306916E2,1.1699431E0,8.786838E0,3.5637234E1,1.253441E0,1.415325E2,1.4047468E0,3.1026075E0,1.0807807E0,8.01751E0,3.715755E1,5.2458905E2,6.1025076E0,1.6761789E0,7.110658E0,2.1475315E0,3.3489704E1,1.364882E2,5.0443044E0,1.3641567E0,6.6533537E0,8.656623E0,2.8500929E1,5.131148E2,1.1474242E1,1.2093827E0,4.893125E0,1.0624168E0,6.0482416E0,1.0527992E0,1.0947323E0,1.4803789E0,3.2009323E1,1.330087E2,3.4795089E0,3.1458206E0,1.8984838E0],"tree_param":{"num_deleted":"0","num_feature":"10000","num_nodes":"53","size_leaf_vector":"1"}},{"base_weights":[6.874886E-6,-1.1411897E-1,8.500441E-1,-1.5549412E-1,1.9042062E0,1.0564957E0,3.4297815E-1,-1.817071E-1,2.8805003E0,2.3452969E0,2.0996517E-2,-3.8723823E-2,1.1042757E0,4.0185416E-1,-5.937137E-2,-2.2658472E-1,1.5058639E0,8.251953E-3,3.7631887E-1,1.1527811E0,3.6366054E-1,6.6191405E-2,-4.851544E-2,-5.0802138E-2,3.9415967E-2,-2.4524514E-2,1.146068E0,5.161149E-1,-1.634135E-1,-2.4849132E-1,2.9329948E0,1.8228778E0,-5.711745E-2,2.5920546E-2,1.2648863E-1,-6.728388E-2,6.401431E-2,1.1740245E0,-1.6070096E-2,3.133612E-1,1.0508462E-1,-4.467097E-2,1.1162732E-2,2.0265923E-1,-2.765266E-2,3.7594464E-1,6.717295E-2,2.0375049E-1,-5.3822316E-2,1.18919484E-1,1.7670587E-2,7.1407184E-2,3.0081223E-3],"categories":[],"categories_nodes":[],"categories_segments":[],"categories_sizes":[],"default_left":[1,1,1,1,1,0,1,1,0,0,0,0,0,1,0,1,1,0,0,0,0,0,0,0,0,0,1,0,1,0,1,1,0,0,0,0,0,1,0,0,0,0,0,0,0,0,0,0,0,0,0,0,0],"id":19,"left_children":[1,3,5,7,9,11,13,15,17,19,21,23,25,27,-1,29,31,-1,-1,33,-1,-1,-1,-1,-1,35,37,39,41,43,45,47,-1,-1,-1,-1,-1,49,-1,51,-1,-1,-1,-1,-1,-1,-1,-1,-1,-1,-1,-1,-1],"loss_changes":[7.376505E1,5.6277893E1,9.059685E0,5.2875183E1,1.1199558E1,3.3647156E0,1.7564306E0,4.9806244E1,1.3743481E1,1.2689743E1,1.482138E0,9.356052E-1,2.8992462E0,1.7953696E0,0E0,4.4825405E1,1.2267643E1,0E0,0E0,3.8974762E-1,0E0,0E0,0E0,0E0,0E0,1.7889159E0,2.3334885E0,2.0860052E0,4.5612857E-1,4.0974705E1,5.81876E0,8.713539E0,0E0,0E0,0E0,0E0,0E0,6.613312E-1,0E0,1.9738277E0,0E0,0E0,0E0,0E0,0E0,0E0,0E0,0E0,0E0,0E0,0E0,0E0,0E0],"parents":[2147483647,0,0,1,1,2,2,3,3,4,4,5,5,6,6,7,7,8,8,9,9,10,10,11,11,12,12,13,13,15,15,16,16,19,19,25,25,26,26,27,27,28,28,29,29,30,30,31,31,37,37,39,39],"right_children":[2,4,6,8,10,12,14,16,18,20,22,24,26,28,-1,30,32,-1,-1,34,-1,-1,-1,-1,-1,36,38,40,42,44,46,48,-1,-1,-1,-1,-1,50,-1,52,-1,-1,-1,-1,-1,-1,-1,-1,-1,-1,-1,-1,-1],"split_conditions":[2.626125E-2,3.6402903E-2,6.9641106E-2,1.2511767E-1,6.553181E-2,1.24586195E-1,7.670069E-2,8.967394E-2,1.9930644E-1,6.7337595E-2,6.1928544E-2,4.896958E-2,2.2770834E-1,9.154057E-2,-5.937137E-2,1.7783727E-1,8.555732E-2,8.251953E-3,3.7631887E-1,8.1233986E-2,3.6366054E-1,6.6191405E-2,-4.851544E-2,-5.0802138E-2,3.9415967E-2,1.463292E-1,2.7445128E-2,4.3053303E-2,1.5328695E-1,8.286165E-1,5.1129695E-2,9.340409E-2,-5.711745E-2,2.5920546E-2,1.2648863E-1,-6.728388E-2,6.401431E-2,4.4069972E-2,-1.6070096E-2,4.8495162E-2,1.0508462E-1,-4.467097E-2,1.1162732E-2,2.0265923E-1,-2.765266E-2,3.7594464E-1,6.717295E-2,2.0375049E-1,-5.3822316E-2,1.18919484E-1,1.7670587E-2,7.1407184E-2,3.0081223E-3],"split_indices":[2440,2231,1412,641,1175,6902,1614,7600,1175,5853,4836,1348,234,7613,0,1926,8883,0,0,9448,0,0,0,0,0,7207,603,8883,8347,4860,6952,7629,0,0,0,0,0,4124,0,4806,0,0,0,0,0,0,0,0,0,0,0,0,0],"split_type":[0,0,0,0,0,0,0,0,0,0,0,0,0,0,0,0,0,0,0,0,0,0,0,0,0,0,0,0,0,0,0,0,0,0,0,0,0,0,0,0,0,0,0,0,0,0,0,0,0,0,0,0,0],"sum_hessian":[7.583766E2,6.693725E2,8.900408E1,6.5683057E2,1.2541901E1,6.2481304E1,2.6522776E1,6.5214014E2,4.6904726E0,9.962973E0,2.5789275E0,2.6197858E0,5.986152E1,2.5491488E1,1.0312883E0,6.360903E2,1.6049835E1,1.3870938E0,3.3033788E0,6.1636257E0,3.799347E0,1.002175E0,1.5767525E0,1.173738E0,1.4460477E0,2.1519148E0,5.7709606E1,2.12775E1,4.213987E0,6.326254E2,3.4648836E0,1.4030724E1,2.0191116E0,1.0562841E0,5.107342E0,1.0831351E0,1.0687797E0,5.6600304E1,1.1093001E0,1.6577745E1,4.6997557E0,1.7683755E0,2.4456115E0,6.8330317E0,6.2579236E2,2.0522735E0,1.4126099E0,1.2987222E1,1.0435017E0,5.556274E1,1.0375632E0,6.2359796E0,1.0341765E1],"tree_param":{"num_deleted":"0","num_feature":"10000","num_nodes":"53","size_leaf_vector":"1"}},{"base_weights":[2.6457932E-2,-7.9660356E-2,8.550284E-1,-1.097828E-1,2.9702392E0,1.0203981E0,3.515634E-1,-1.4630012E-1,1.9501265E0,1.0473964E-1,3.4325388E-1,1.0568035E0,-2.9748058E-2,4.3891135E-1,-6.589361E-2,-1.627217E-1,4.266253E-1,2.4551232E0,8.8262296E-1,1.0960194E0,7.618136E-4,6.3952327E-1,-1.473545E-1,1.3210708E0,-2.0954438E-1,6.607913E-2,2.9795465E0,1.057768E-1,7.1118693E-3,-8.225731E-3,1.1259345E0,-1.7337678E-2,7.687078E-1,-1.04098156E-1,3.736424E-1,-5.5159617E-2,1.5530817E-1,-2.2625236E-2,3.6360422E-1,8.369593E-2,3.3603773E-1,1.0431252E-2,1.1528971E-1,9.0935476E-2,-4.7278847E-3,8.202364E-2,-2.5393916E-2],"categories":[],"categories_nodes":[],"categories_segments":[],"categories_sizes":[],"default_left":[1,1,1,1,0,1,1,1,0,0,0,1,0,1,0,0,0,0,0,0,0,0,0,0,1,0,0,0,0,0,0,0,1,0,0,0,0,0,0,0,0,0,0,0,0,0,0],"id":20,"left_children":[1,3,5,7,9,11,13,15,17,-1,-1,19,-1,21,-1,23,-1,25,27,29,-1,31,33,35,37,-1,39,-1,-1,-1,41,-1,43,-1,45,-1,-1,-1,-1,-1,-1,-1,-1,-1,-1,-1,-1],"loss_changes":[6.533695E1,6.0864037E1,6.6650925E0,4.9440807E1,2.1651497E0,3.3359299E0,2.2649632E0,4.7287865E1,4.006916E0,0E0,0E0,2.5222473E0,0E0,2.5880218E0,0E0,4.48518E1,0E0,4.818779E0,6.694193E-1,2.1821976E0,0E0,1.8119297E0,3.2841454E0,9.443638E0,4.0840855E1,0E0,1.509594E0,0E0,0E0,0E0,1.4741364E0,0E0,1.6470861E0,0E0,1.5155277E0,0E0,0E0,0E0,0E0,0E0,0E0,0E0,0E0,0E0,0E0,0E0,0E0],"parents":[2147483647,0,0,1,1,2,2,3,3,4,4,5,5,6,6,7,7,8,8,11,11,13,13,15,15,17,17,18,18,19,19,21,21,22,22,23,23,24,24,26,26,30,30,32,32,34,34],"right_children":[2,4,6,8,10,12,14,16,18,-1,-1,20,-1,22,-1,24,-1,26,28,30,-1,32,34,36,38,-1,40,-1,-1,-1,42,-1,44,-1,46,-1,-1,-1,-1,-1,-1,-1,-1,-1,-1,-1,-1],"split_conditions":[2.626125E-2,1.0794868E-1,9.856923E-2,4.4861954E-2,7.095916E-2,9.051275E-2,2.024981E-1,1.310785E-1,1.9250032E-1,1.0473964E-1,3.4325388E-1,1.5723094E-1,-2.9748058E-2,8.813389E-2,-6.589361E-2,9.0987855E-1,4.266253E-1,4.1312438E-2,1.1239686E-1,2.4219846E-2,7.618136E-4,1.3191491E-1,1.093258E-1,1.2306752E-1,1.03273034E-1,6.607913E-2,4.4108406E-2,1.057768E-1,7.1118693E-3,-8.225731E-3,1.1128382E-1,-1.7337678E-2,8.907995E-2,-1.04098156E-1,9.213051E-2,-5.5159617E-2,1.5530817E-1,-2.2625236E-2,3.6360422E-1,8.369593E-2,3.3603773E-1,1.0431252E-2,1.1528971E-1,9.0935476E-2,-4.7278847E-3,8.202364E-2,-2.5393916E-2],"split_indices":[2440,5019,7524,7354,9551,6917,3443,7340,6243,0,0,6869,0,93,0,2748,0,5662,5595,8614,0,279,2440,7613,9216,0,1014,0,0,0,983,0,110,0,93,0,0,0,0,0,0,0,0,0,0,0,0],"split_type":[0,0,0,0,0,0,0,0,0,0,0,0,0,0,0,0,0,0,0,0,0,0,0,0,0,0,0,0,0,0,0,0,0,0,0,0,0,0,0,0,0,0,0,0,0,0,0],"sum_hessian":[7.413116E2,6.579493E2,8.3362305E1,6.524692E2,5.480131E0,6.1978043E1,2.1384264E1,6.420167E2,1.0452461E1,1.6951432E0,3.7849877E0,6.050475E1,1.473292E0,2.0203512E1,1.1807504E0,6.405958E2,1.4208907E0,6.2133026E0,4.239159E0,5.828169E1,2.223061E0,1.4985012E1,5.2185016E0,1.876381E1,6.2183203E2,1.9163795E0,4.296923E0,3.237049E0,1.0021098E0,1.3997452E0,5.6881943E1,2.0079305E0,1.2977081E1,1.5543624E0,3.664139E0,1.9165992E0,1.684721E1,6.200791E2,1.7529022E0,1.1310809E0,3.165842E0,1.5878179E0,5.5294125E1,1.0971555E1,2.0055265E0,1.961403E0,1.7027359E0],"tree_param":{"num_deleted":"0","num_feature":"10000","num_nodes":"47","size_leaf_vector":"1"}},{"base_weights":[1.5908584E-2,-8.130134E-2,8.280939E-1,-1.0469759E-1,2.7454402E0,1.0136194E0,3.9080667E-1,-1.9612502E-1,6.198653E-1,-1.351128E-2,3.5726826E0,-3.4542333E-2,1.0673449E0,-6.0485464E-2,4.579487E-1,3.3263704E-1,-2.1641472E-1,7.4207896E-1,-8.99662E-2,8.537254E-2,4.206848E-1,1.1078941E0,-2.660118E-2,1.0137679E-1,2.802601E-1,1.9375149E0,-2.4548444E-1,1.5532186E0,5.448964E-1,1.1371247E0,-4.5339814E-3,-6.1767634E-2,3.749261E-1,-1.0542057E-2,2.616417E-1,-3.0876398E-2,7.8045525E-2,1.8165821E-1,-2.6502788E-2,7.111456E-2,-3.1645905E-2,2.1997308E-2,1.151394E-1,-2.321043E-2,4.8087638E-2],"categories":[],"categories_nodes":[],"categories_segments":[],"categories_sizes":[],"default_left":[1,1,1,1,1,0,0,0,1,0,0,0,1,0,0,0,0,0,0,0,0,1,0,0,0,0,1,1,1,0,0,0,0,0,0,0,0,0,0,0,0,0,0,0,0],"id":21,"left_children":[1,3,5,7,9,11,13,15,17,-1,19,-1,21,-1,23,-1,25,27,-1,-1,-1,29,-1,-1,31,33,35,37,39,41,-1,-1,43,-1,-1,-1,-1,-1,-1,-1,-1,-1,-1,-1,-1],"loss_changes":[5.7772682E1,4.3517982E1,5.9495125E0,4.3132202E1,1.3356625E1,4.332714E0,1.9433959E0,4.1978306E1,1.4221876E1,0E0,3.7084808E0,0E0,3.1316032E0,0E0,2.0784416E0,0E0,3.6473267E1,1.004607E1,0E0,0E0,0E0,1.7746506E0,0E0,0E0,1.8899078E0,1.1049982E1,3.7125477E1,6.5999775E0,8.2907295E0,3.9964294E-1,0E0,0E0,1.2866797E0,0E0,0E0,0E0,0E0,0E0,0E0,0E0,0E0,0E0,0E0,0E0,0E0],"parents":[2147483647,0,0,1,1,2,2,3,3,4,4,5,5,6,6,7,7,8,8,10,10,12,12,14,14,16,16,17,17,21,21,24,24,25,25,26,26,27,27,28,28,29,29,32,32],"right_children":[2,4,6,8,10,12,14,16,18,-1,20,-1,22,-1,24,-1,26,28,-1,-1,-1,30,-1,-1,32,34,36,38,40,42,-1,-1,44,-1,-1,-1,-1,-1,-1,-1,-1,-1,-1,-1,-1],"split_conditions":[2.626125E-2,1.0618968E-1,6.9641106E-2,1.4520149E-2,8.751472E-2,2.2770834E-1,1.4236175E-1,4.4855513E-2,2.0290276E-2,-1.351128E-2,2.6511773E-1,-3.4542333E-2,2.7445128E-2,-6.0485464E-2,6.594255E-2,3.3263704E-1,1.4098774E-1,7.799061E-2,-8.99662E-2,8.537254E-2,4.206848E-1,5.2962534E-2,-2.660118E-2,1.0137679E-1,4.1478246E-2,1.1581268E-1,5.648729E-2,6.645308E-2,8.555732E-2,9.7835794E-2,-4.5339814E-3,-6.1767634E-2,2.0160475E-1,-1.0542057E-2,2.616417E-1,-3.0876398E-2,7.8045525E-2,1.8165821E-1,-2.6502788E-2,7.111456E-2,-3.1645905E-2,2.1997308E-2,1.151394E-1,-2.321043E-2,4.8087638E-2],"split_indices":[2440,5226,1412,9536,8341,234,2230,2068,6896,0,6915,0,603,0,105,0,4740,8583,0,0,0,7916,0,0,8614,1153,2745,2307,8883,3316,0,0,8347,0,0,0,0,0,0,0,0,0,0,0,0],"split_type":[0,0,0,0,0,0,0,0,0,0,0,0,0,0,0,0,0,0,0,0,0,0,0,0,0,0,0,0,0,0,0,0,0,0,0,0,0,0,0,0,0,0,0,0,0],"sum_hessian":[7.2988727E2,6.526696E2,7.72177E1,6.48267E2,4.4025865E0,5.3290466E1,2.3927229E1,5.762797E2,7.1987305E1,1.168925E0,3.2336614E0,1.8200852E0,5.1470383E1,1.0056518E0,2.2921577E1,2.3671968E0,5.7391254E2,6.710201E1,4.885293E0,1.0553054E0,2.1783562E0,5.01154E1,1.3549833E0,4.4128017E0,1.8508776E1,6.7682214E0,5.671443E2,1.1777297E1,5.532471E1,4.8890163E1,1.2252336E0,1.2383021E0,1.7270473E1,1.8988798E0,4.869342E0,5.3485376E2,3.2290527E1,1.0288043E1,1.4892539E0,4.6520275E1,8.804436E0,1.0004864E0,4.788968E1,2.3894854E0,1.4880987E1],"tree_param":{"num_deleted":"0","num_feature":"10000","num_nodes":"45","size_leaf_vector":"1"}},{"base_weights":[2.203903E-2,7.7737045E-1,-6.898352E-2,9.6708703E-1,3.5723683E-1,8.850732E-1,-1.4167003E-1,-2.3176735E-2,1.0103117E0,4.8270902E-1,-2.4422128E-1,7.0999354E-1,4.0605244E-1,3.6226258E-1,-1.6215627E-1,-2.1215351E-2,1.0408825E0,6.7458695E-1,-2.2044791E-1,-6.532896E-2,1.1812447E-2,2.5126135E-1,1.9936959E0,1.2455072E0,-2.0691961E-1,-7.116645E-3,1.0772333E0,-3.007792E-2,7.600264E-1,-5.180405E-1,2.7609E-2,-3.2067414E-2,1.7974637E0,-2.8423203E-2,2.289764E0,1.5005639E0,-3.886371E-1,-2.4885993E-1,1.4831319E0,1.1145493E-1,2.7985174E-2,-2.120096E-2,8.473068E-2,2.4370577E-3,-9.111675E-2,1.6340636E-1,-2.1324415E-2,4.127459E-2,2.3838659E-1,8.5702606E-2,2.9456642E-1,-2.675888E-2,1.7029564E-1,-6.45131E-2,9.541388E-3,-3.145596E-2,7.6948576E-2,1.8262933E-1,-6.572399E-2],"categories":[],"categories_nodes":[],"categories_segments":[],"categories_sizes":[],"default_left":[0,1,0,0,1,1,0,0,0,1,1,1,0,0,0,0,0,0,0,0,0,1,0,1,1,0,1,0,0,0,0,0,0,0,0,0,0,1,1,0,0,0,0,0,0,0,0,0,0,0,0,0,0,0,0,0,0,0,0],"id":22,"left_children":[1,3,5,7,9,11,13,-1,15,17,19,21,-1,-1,23,-1,25,27,29,-1,-1,31,33,35,37,-1,39,-1,41,43,-1,45,47,-1,49,51,53,55,57,-1,-1,-1,-1,-1,-1,-1,-1,-1,-1,-1,-1,-1,-1,-1,-1,-1,-1,-1,-1],"loss_changes":[4.9034748E1,5.768078E0,4.428068E1,2.941986E0,2.0382383E0,2.2254166E1,4.6279934E1,0E0,2.1126862E0,3.034687E0,8.266263E-1,2.5446909E1,0E0,0E0,3.7451332E1,0E0,2.0799446E0,1.6495314E0,9.3199944E-1,0E0,0E0,1.4780308E1,8.377281E0,8.2248745E0,4.0979156E1,0E0,1.1178246E0,0E0,1.5337725E0,8.082252E-1,0E0,9.218715E0,3.25638E0,0E0,7.106888E0,6.2046204E0,4.6748886E-1,3.7703026E1,1.149588E1,0E0,0E0,0E0,0E0,0E0,0E0,0E0,0E0,0E0,0E0,0E0,0E0,0E0,0E0,0E0,0E0,0E0,0E0,0E0,0E0],"parents":[2147483647,0,0,1,1,2,2,3,3,4,4,5,5,6,6,8,8,9,9,10,10,11,11,14,14,16,16,17,17,18,18,21,21,22,22,23,23,24,24,26,26,28,28,29,29,31,31,32,32,34,34,35,35,36,36,37,37,38,38],"right_children":[2,4,6,8,10,12,14,-1,16,18,20,22,-1,-1,24,-1,26,28,30,-1,-1,32,34,36,38,-1,40,-1,42,44,-1,46,48,-1,50,52,54,56,58,-1,-1,-1,-1,-1,-1,-1,-1,-1,-1,-1,-1,-1,-1,-1,-1,-1,-1,-1,-1],"split_conditions":[1.0150163E0,6.9641106E-2,3.798282E-1,1.212647E-1,9.154057E-2,6.1879136E-2,3.1580606E-1,-2.3176735E-2,6.904883E-2,8.85305E-2,1.504606E-1,1.0764033E-1,4.0605244E-1,3.6226258E-1,3.064103E-1,-2.1215351E-2,1.5674509E-1,8.442905E-2,4.2791877E-2,-6.532896E-2,1.1812447E-2,5.015431E-2,1.1769223E-1,5.1365174E-2,9.313434E-2,-7.116645E-3,1.5106579E-2,-3.007792E-2,6.1424658E-2,9.8586015E-2,2.7609E-2,1.2661763E-1,6.903457E-2,-2.8423203E-2,6.0852937E-2,1.2502441E-1,1.4113241E-1,5.820722E-2,6.420417E-2,1.1145493E-1,2.7985174E-2,-2.120096E-2,8.473068E-2,2.4370577E-3,-9.111675E-2,1.6340636E-1,-2.1324415E-2,4.127459E-2,2.3838659E-1,8.5702606E-2,2.9456642E-1,-2.675888E-2,1.7029564E-1,-6.45131E-2,9.541388E-3,-3.145596E-2,7.6948576E-2,1.8262933E-1,-6.572399E-2],"split_indices":[2440,1412,5031,1437,7613,9765,3022,0,7053,93,8347,9822,0,0,5595,0,2231,7009,8883,0,0,7384,6379,4806,7600,0,4124,0,3002,1001,0,4084,9822,0,1175,4538,8809,8830,3946,0,0,0,0,0,0,0,0,0,0,0,0,0,0,0,0,0,0,0,0],"split_type":[0,0,0,0,0,0,0,0,0,0,0,0,0,0,0,0,0,0,0,0,0,0,0,0,0,0,0,0,0,0,0,0,0,0,0,0,0,0,0,0,0,0,0,0,0,0,0,0,0,0,0,0,0,0,0,0,0,0,0],"sum_hessian":[7.1143E2,7.570098E1,6.35729E2,5.125451E1,2.4446468E1,4.421412E1,5.915149E2,1.6318748E0,4.9622635E1,2.0390228E1,4.056239E0,4.306339E1,1.1507279E0,2.250002E0,5.892649E2,1.0657495E0,4.8556885E1,1.6050884E1,4.3393445E0,1.528125E0,2.528114E0,3.2606987E1,1.0456404E1,1.7334248E1,5.7193066E2,1.5066751E0,4.7050213E1,1.0897747E0,1.496111E1,2.686141E0,1.6532035E0,2.8384941E1,4.2220454E0,1.2073226E0,9.249081E0,1.5064699E1,2.2695482E0,5.589134E2,1.3017243E1,4.456681E1,2.4834018E0,1.1149466E0,1.3846163E1,1.5229214E0,1.1632197E0,1.9973954E0,2.6387547E1,1.7629395E0,2.459106E0,3.6288722E0,5.6202087E0,1.5141928E0,1.3550506E1,1.2659557E0,1.0035926E0,5.2568915E2,3.3224277E1,1.1345054E1,1.67219E0],"tree_param":{"num_deleted":"0","num_feature":"10000","num_nodes":"59","size_leaf_vector":"1"}},{"base_weights":[1.984387E-2,1.5785712E-1,-5.925641E-1,1.6463613E-3,6.1387664E-1,-6.817233E-1,1.4690338E-1,-2.7396789E-2,2.4185681E0,-6.208175E-1,6.9236463E-1,-7.8698856E-1,6.5306133E-1,-4.8812423E-2,3.325357E-1,2.9786304E-1,1.4244581E-2,6.624285E-2,-8.670566E-2,-2.7423275E-1,7.9096955E-1,-8.261325E-1,1.4514121E-1,1.399442E0,-3.541006E-1,1.5195556E0,-9.603229E-2,-8.5281676E-1,1.5176817E0,2.3885813E0,7.190593E-1,-8.679852E-1,1.2648481E-1,6.584247E-1,2.3245823E-1,-6.934054E-2,4.7688745E-2,1.716772E-1,-1.7245328E-2,1.260396E-1,-1.50867645E-2,-9.6787706E-2,-1.5277221E-2,3.1093245E-2,2.090333E-1,-2.2443186E-3,3.0425325E-1,1.3173254E-1,5.384056E-2,8.885561E-2,-8.991293E-2,9.416807E-4,1.0988257E-1],"categories":[],"categories_nodes":[],"categories_segments":[],"categories_sizes":[],"default_left":[1,1,1,1,0,1,0,1,1,0,0,1,0,0,0,0,0,0,0,1,0,1,0,0,1,1,0,1,0,1,0,0,0,1,0,0,0,0,0,0,0,0,0,0,0,0,0,0,0,0,0,0,0],"id":23,"left_children":[1,3,5,7,9,11,-1,13,15,17,19,21,23,25,-1,-1,-1,-1,-1,27,29,31,-1,33,35,37,39,41,43,45,47,49,-1,51,-1,-1,-1,-1,-1,-1,-1,-1,-1,-1,-1,-1,-1,-1,-1,-1,-1,-1,-1],"loss_changes":[5.9368004E1,4.0824806E1,2.474797E1,3.0101725E1,1.4600536E1,1.8009472E1,0E0,3.0591305E1,6.066683E0,3.5026467E0,1.3366066E1,1.1351486E1,7.748596E0,3.1405115E1,0E0,0E0,0E0,0E0,0E0,1.5304654E1,1.2694382E1,1.1119446E1,0E0,2.406968E0,1.7136481E0,4.4325542E0,3.0737638E1,7.2650385E-1,1.8779488E0,7.908535E0,1.2419556E1,6.973076E0,0E0,1.2999711E0,0E0,0E0,0E0,0E0,0E0,0E0,0E0,0E0,0E0,0E0,0E0,0E0,0E0,0E0,0E0,0E0,0E0,0E0,0E0],"parents":[2147483647,0,0,1,1,2,2,3,3,4,4,5,5,7,7,8,8,9,9,10,10,11,11,12,12,13,13,19,19,20,20,21,21,23,23,24,24,25,25,26,26,27,27,28,28,29,29,30,30,31,31,33,33],"right_children":[2,4,6,8,10,12,-1,14,16,18,20,22,24,26,-1,-1,-1,-1,-1,28,30,32,-1,34,36,38,40,42,44,46,48,50,-1,52,-1,-1,-1,-1,-1,-1,-1,-1,-1,-1,-1,-1,-1,-1,-1,-1,-1,-1,-1],"split_conditions":[1.6130034E-2,5.518816E-2,9.0075016E-2,1.3178118E-1,5.4728776E-2,5.2917417E-2,1.4690338E-1,6.569929E-2,1.2975252E-1,5.487309E-2,2.3152587E-1,5.180031E-2,9.881525E-2,1.4752085E0,3.325357E-1,2.9786304E-1,1.4244581E-2,6.624285E-2,-8.670566E-2,4.680264E-2,4.560198E-2,1.3380924E-1,1.4514121E-1,1.2449344E-1,6.7185834E-2,7.39979E-2,3.0220705E-1,3.1474423E-2,4.9585514E-2,4.1463494E-2,9.8280564E-2,1.6945052E-1,1.2648481E-1,5.061963E-2,2.3245823E-1,-6.934054E-2,4.7688745E-2,1.716772E-1,-1.7245328E-2,1.260396E-1,-1.50867645E-2,-9.6787706E-2,-1.5277221E-2,3.1093245E-2,2.090333E-1,-2.2443186E-3,3.0425325E-1,1.3173254E-1,5.384056E-2,8.885561E-2,-8.991293E-2,9.416807E-4,1.0988257E-1],"split_indices":[6563,8809,9289,8703,2828,9536,0,484,5957,4145,1007,8069,6337,5291,0,0,0,0,0,2232,8532,8347,0,9536,1175,3335,5595,6666,8584,4988,2781,2230,0,2860,0,0,0,0,0,0,0,0,0,0,0,0,0,0,0,0,0,0,0],"split_type":[0,0,0,0,0,0,0,0,0,0,0,0,0,0,0,0,0,0,0,0,0,0,0,0,0,0,0,0,0,0,0,0,0,0,0,0,0,0,0,0,0,0,0,0,0,0,0,0,0,0,0,0,0],"sum_hessian":[7.0030347E2,5.7211334E2,1.2819016E2,4.26886E2,1.4522737E2,1.2351763E2,4.6725206E0,4.227941E2,4.0918775E0,8.267151E0,1.3696022E2,1.14869095E2,8.648531E0,4.2108984E2,1.70426E0,3.0361583E0,1.055719E0,1.0588573E0,7.2082934E0,1.2513418E1,1.244468E2,1.1351494E2,1.3541602E0,4.7436495E0,3.9048815E0,1.1396145E1,4.096937E2,9.855342E0,2.6580765E0,3.972594E0,1.20474205E2,1.1186084E2,1.6540958E0,3.5843592E0,1.1592906E0,2.8902957E0,1.0145856E0,1.0193393E1,1.2027521E0,1.5064611E1,3.946291E2,8.135575E0,1.719767E0,1.3519917E0,1.3060849E0,1.0536432E0,2.9189508E0,2.6482105E1,9.3992096E1,1.4691595E0,1.1039168E2,1.8619025E0,1.7224567E0],"tree_param":{"num_deleted":"0","num_feature":"10000","num_nodes":"53","size_leaf_vector":"1"}},{"base_weights":[4.472397E-2,1.6126375E-1,-4.941225E-1,1.4423323E-1,4.8555133E-1,-6.112488E-1,1.4495324E-1,1.21388905E-1,3.139325E0,-7.334671E-1,1.0435666E0,1.8399395E-1,-8.5836786E-1,8.177566E-2,3.6455694E-1,1.3006122E-1,-7.73539E-1,-5.5051424E-2,1.3648092E0,1.2748614E-1,1.3036249E0,1.941495E-1,-9.8931074E-2,-8.0683756E-1,1.18536346E-1,1.6675363E0,8.53729E-3,2.0502666E-1,9.467038E-3,-5.945779E-2,1.4143993E-1,8.343568E-2,-6.327604E-2,8.5924946E-2,-8.462146E-2,1.8600099E-1,5.102385E-2],"categories":[],"categories_nodes":[],"categories_segments":[],"categories_sizes":[],"default_left":[1,1,1,1,0,1,0,1,0,0,0,1,0,0,0,0,1,0,0,0,0,1,0,0,0,1,0,0,0,0,0,0,0,0,0,0,0],"id":24,"left_children":[1,3,5,7,-1,9,-1,11,13,15,17,19,21,-1,-1,-1,23,-1,25,27,29,31,-1,33,-1,35,-1,-1,-1,-1,-1,-1,-1,-1,-1,-1,-1],"loss_changes":[4.3522053E1,4.4831116E1,2.8946335E1,3.8516346E1,0E0,2.4419811E1,0E0,3.4828445E1,2.0291138E0,9.93137E0,5.0818806E0,3.3499557E1,4.8952026E0,0E0,0E0,0E0,8.001862E0,0E0,2.6950302E0,3.1837803E1,6.193905E0,2.9693544E0,0E0,7.7338867E0,0E0,3.5850334E-1,0E0,0E0,0E0,0E0,0E0,0E0,0E0,0E0,0E0,0E0,0E0],"parents":[2147483647,0,0,1,1,2,2,3,3,5,5,7,7,8,8,9,9,10,10,11,11,12,12,16,16,18,18,19,19,20,20,21,21,23,23,25,25],"right_children":[2,4,6,8,-1,10,-1,12,14,16,18,20,22,-1,-1,-1,24,-1,26,28,30,32,-1,34,-1,36,-1,-1,-1,-1,-1,-1,-1,-1,-1,-1,-1],"split_conditions":[1.6130034E-2,4.359928E-1,9.0075016E-2,1.9562654E-1,4.8555133E-1,6.0178965E-2,1.4495324E-1,2.4241388E-2,8.375642E-2,1.3424043E-1,1.982222E-1,6.365616E-2,2.2327523E-1,8.177566E-2,3.6455694E-1,1.3006122E-1,1.5401036E-1,-5.5051424E-2,8.744797E-2,5.8749765E-1,9.2063904E-2,4.224569E-2,-9.8931074E-2,6.532007E-2,1.18536346E-1,6.391325E-2,8.53729E-3,2.0502666E-1,9.467038E-3,-5.945779E-2,1.4143993E-1,8.343568E-2,-6.327604E-2,8.5924946E-2,-8.462146E-2,1.8600099E-1,5.102385E-2],"split_indices":[6563,8189,9289,641,0,7461,0,2375,6337,6917,8585,7347,4116,0,0,0,3064,0,6563,2264,4087,2680,0,7229,0,8584,0,0,0,0,0,0,0,0,0,0,0],"split_type":[0,0,0,0,0,0,0,0,0,0,0,0,0,0,0,0,0,0,0,0,0,0,0,0,0,0,0,0,0,0,0,0,0,0,0,0,0],"sum_hessian":[6.907899E2,5.685308E2,1.2225907E2,5.675027E2,1.0281485E0,1.15956924E2,6.3021474E0,5.642396E2,3.2630682E0,1.0850028E2,7.4566455E0,5.311144E2,3.3125237E1,1.052372E0,2.2106962E0,1.4884493E0,1.0701183E2,1.130942E0,6.325703E0,5.0665723E2,2.4457144E1,3.611703E0,2.9513535E1,1.05801476E2,1.2103571E0,4.870062E0,1.4556413E0,7.470302E0,4.9918692E2,1.1077396E0,2.3349403E1,2.030585E0,1.581118E0,1.962093E0,1.0383938E2,3.65499E0,1.2150722E0],"tree_param":{"num_deleted":"0","num_feature":"10000","num_nodes":"37","size_leaf_vector":"1"}},{"base_weights":[-7.0425905E-3,-5.9381805E-2,1.0870582E0,-7.7891506E-2,2.5979066E0,-5.6674328E-2,1.1931391E0,-7.092918E-1,2.6657342E-3,4.6653125E-1,9.283873E-2,9.3870294E-1,2.1926968E0,-8.147744E-1,8.1464285E-1,-2.6299752E-2,1.8089812E0,-5.2347716E-2,6.562092E-2,1.0447795E0,-5.8554806E-2,6.520984E-2,2.570839E0,7.650363E-2,-8.6937934E-1,-2.208415E-2,1.1765927E-1,-6.806992E-2,1.1889462E0,2.310398E-2,2.1387868E0,1.1458864E0,-5.7201006E-2,3.10479E-1,5.919798E-2,-9.145906E-2,6.1085492E-2,-1.41506335E-2,7.0512585E-2,-1.579408E-3,1.6393344E-1,6.714799E-2,2.3205633E-1,-1.3573611E-2,1.2709314E-1],"categories":[],"categories_nodes":[],"categories_segments":[],"categories_sizes":[],"default_left":[1,1,0,0,0,0,0,1,1,0,1,1,0,0,0,1,0,0,0,1,0,0,1,0,1,0,0,1,0,0,0,0,0,0,0,0,0,0,0,0,0,0,0,0,0],"id":25,"left_children":[1,3,5,7,9,-1,11,13,15,-1,17,19,21,23,25,27,29,-1,-1,31,-1,-1,33,-1,35,-1,-1,37,39,-1,41,43,-1,-1,-1,-1,-1,-1,-1,-1,-1,-1,-1,-1,-1],"loss_changes":[3.8941914E1,3.2117107E1,6.1229134E0,3.2826687E1,2.2963446E1,0E0,5.4435463E0,1.2402241E1,3.0044247E1,0E0,1.406991E0,4.69611E0,1.3741169E0,6.599884E0,2.2190158E0,2.877407E1,4.2222786E0,0E0,0E0,4.5748367E0,0E0,0E0,2.2453995E0,0E0,5.0402794E0,0E0,0E0,3.1182783E1,1.0247133E1,0E0,4.0885544E-1,3.842184E0,0E0,0E0,0E0,0E0,0E0,0E0,0E0,0E0,0E0,0E0,0E0,0E0,0E0],"parents":[2147483647,0,0,1,1,2,2,3,3,4,4,6,6,7,7,8,8,10,10,11,11,12,12,13,13,14,14,15,15,16,16,19,19,22,22,24,24,27,27,28,28,30,30,31,31],"right_children":[2,4,6,8,10,-1,12,14,16,-1,18,20,22,24,26,28,30,-1,-1,32,-1,-1,34,-1,36,-1,-1,38,40,-1,42,44,-1,-1,-1,-1,-1,-1,-1,-1,-1,-1,-1,-1,-1],"split_conditions":[5.0419737E-2,1.5988712E-1,7.514064E-2,4.991129E-1,1.3274486E-1,-5.6674328E-2,2.58652E-1,5.648729E-2,1.1742165E-1,4.6653125E-1,7.192333E-2,2.0192202E-2,1.9247982E-1,7.385512E-2,5.6774344E-2,5.8416106E-2,1.699399E-1,-5.2347716E-2,6.562092E-2,5.7828616E-2,-5.8554806E-2,6.520984E-2,4.3917116E-2,7.650363E-2,6.4829245E-2,-2.208415E-2,1.1765927E-1,3.1364303E-2,2.413109E-1,2.310398E-2,1.0533332E-1,8.890301E-2,-5.7201006E-2,3.10479E-1,5.919798E-2,-9.145906E-2,6.1085492E-2,-1.41506335E-2,7.0512585E-2,-1.579408E-3,1.6393344E-1,6.714799E-2,2.3205633E-1,-1.3573611E-2,1.2709314E-1],"split_indices":[7347,7365,3568,7968,2487,0,8883,2745,4134,0,1578,4618,7207,7813,4024,8421,1001,0,0,4088,0,0,4806,0,7461,0,0,7461,9370,0,9822,4067,0,0,0,0,0,0,0,0,0,0,0,0,0],"split_type":[0,0,0,0,0,0,0,0,0,0,0,0,0,0,0,0,0,0,0,0,0,0,0,0,0,0,0,0,0,0,0,0,0,0,0,0,0,0,0,0,0,0,0,0,0],"sum_hessian":[6.7791016E2,6.478636E2,3.0046553E1,6.44346E2,3.517591E0,1.5493672E0,2.8497185E1,7.202396E1,5.723221E2,1.4546962E0,2.0628948E0,2.4260757E1,4.2364264E0,6.7796616E1,4.227347E0,5.642592E2,8.062838E0,1.018972E0,1.0439227E0,2.2976337E1,1.284421E0,1.3718433E0,2.8645833E0,1.8303787E0,6.596623E1,1.1959034E0,3.0314436E0,5.464217E2,1.78375E1,1.6878624E0,6.3749747E0,2.189818E1,1.0781571E0,1.8078071E0,1.0567762E0,6.438193E1,1.5843043E0,4.997715E2,4.6650204E1,5.116455E0,1.2721045E1,1.2201188E0,5.154856E0,1.9390271E0,1.9959152E1],"tree_param":{"num_deleted":"0","num_feature":"10000","num_nodes":"45","size_leaf_vector":"1"}},{"base_weights":[8.857618E-3,-1.0659389E-2,2.516872E0,6.6079426E-1,-8.6602144E-2,4.275447E-2,2.9385626E-1,8.981013E-1,2.014186E-1,-1.1926609E-1,1.6034615E0,9.6433884E-1,-3.121914E-2,6.1407503E-2,8.01725E-2,2.3668625E0,-1.4131191E-1,4.645919E-1,1.8513886E0,1.0282279E0,1.77423E-1,5.484788E-1,-7.2858565E-2,3.0286806E0,-9.690846E-3,-1.57103E-1,2.8925422E-1,8.094541E-2,-1.1597315E-2,2.017218E0,4.270378E-2,1.0674614E-1,-1.612208E-2,5.8616232E-2,-4.2250004E-2,1.887481E-2,7.8122355E-2,-2.327315E-2,7.7526934E-2,9.807689E-2,3.5163724E-1,-2.1420415E-2,7.000327E-2,6.1468344E-2,2.1635966E-1],"categories":[],"categories_nodes":[],"categories_segments":[],"categories_sizes":[],"default_left":[1,0,0,1,1,0,0,1,0,0,0,1,0,0,0,1,1,0,1,1,0,0,0,0,0,1,0,0,0,0,0,0,0,0,0,0,0,0,0,0,0,0,0,0,0],"id":26,"left_children":[1,3,5,7,9,-1,-1,11,13,15,17,19,-1,21,-1,23,25,27,29,31,33,35,37,39,-1,41,-1,-1,-1,43,-1,-1,-1,-1,-1,-1,-1,-1,-1,-1,-1,-1,-1,-1,-1],"loss_changes":[3.2967552E1,3.4158688E1,3.325676E0,7.2394524E0,3.3407127E1,0E0,0E0,3.8759842E0,2.0078702E0,3.2738174E1,2.3806553E0,1.9554901E0,0E0,1.4086617E0,0E0,8.858671E0,2.8574497E1,7.719934E-1,1.2857914E0,1.9977913E0,1.327025E0,2.4102008E-1,2.5247178E0,7.1765137E-1,0E0,2.8775524E1,0E0,0E0,0E0,2.8664398E-1,0E0,0E0,0E0,0E0,0E0,0E0,0E0,0E0,0E0,0E0,0E0,0E0,0E0,0E0,0E0],"parents":[2147483647,0,0,1,1,2,2,3,3,4,4,7,7,8,8,9,9,10,10,11,11,13,13,15,15,16,16,17,17,18,18,19,19,20,20,21,21,22,22,23,23,25,25,29,29],"right_children":[2,4,6,8,10,-1,-1,12,14,16,18,20,-1,22,-1,24,26,28,30,32,34,36,38,40,-1,42,-1,-1,-1,44,-1,-1,-1,-1,-1,-1,-1,-1,-1,-1,-1,-1,-1,-1,-1],"split_conditions":[1.9562654E-1,1.0150163E0,1.320659E-1,6.9641106E-2,4.8008304E-2,4.275447E-2,2.9385626E-1,1.3222742E-1,5.5344094E-2,2.4929284E-1,6.0644105E-2,4.4335842E-2,-3.121914E-2,7.211507E-2,8.01725E-2,9.764925E-3,7.2608665E-2,4.6878032E-2,9.768208E-2,2.7445128E-2,1.2902261E-1,9.771396E-2,2.1131039E-1,1.7789885E-1,-9.690846E-3,5.648729E-2,2.8925422E-1,8.094541E-2,-1.1597315E-2,1.008986E-1,4.270378E-2,1.0674614E-1,-1.612208E-2,5.8616232E-2,-4.2250004E-2,1.887481E-2,7.8122355E-2,-2.327315E-2,7.7526934E-2,9.807689E-2,3.5163724E-1,-2.1420415E-2,7.000327E-2,6.1468344E-2,2.1635966E-1],"split_indices":[641,2440,1348,1412,291,0,0,2577,8883,7403,8883,6150,0,126,0,1001,6050,6337,9551,603,1175,1001,2440,3568,0,2745,0,0,0,8532,0,0,0,0,0,0,0,0,0,0,0,0,0,0,0],"split_type":[0,0,0,0,0,0,0,0,0,0,0,0,0,0,0,0,0,0,0,0,0,0,0,0,0,0,0,0,0,0,0,0,0,0,0,0,0,0,0,0,0,0,0,0,0],"sum_hessian":[6.7196106E2,6.677604E2,4.2006655E0,6.7068436E1,6.0069196E2,1.0436476E0,3.157018E0,4.359357E1,2.3474869E1,5.902143E2,1.0477671E1,4.1524227E1,2.0693438E0,1.9929054E1,3.5458136E0,4.25287E0,5.859614E2,2.3869526E0,8.090718E0,3.812244E1,3.401786E0,3.6398635E0,1.6289192E1,3.1716225E0,1.0812476E0,5.838706E2,2.0908072E0,1.250117E0,1.1368358E0,6.87416E0,1.2165586E0,3.7004425E1,1.1180148E0,2.036926E0,1.3648602E0,2.1412735E0,1.4985899E0,1.4316173E1,1.9730188E0,1.1891587E0,1.9824638E0,5.481066E2,3.576398E1,1.1409875E0,5.7331724E0],"tree_param":{"num_deleted":"0","num_feature":"10000","num_nodes":"45","size_leaf_vector":"1"}},{"base_weights":[2.5908008E-2,1.4464643E-3,2.1960332E0,-6.151045E-2,8.2306504E-1,2.5788655E0,3.809547E-2,-5.573417E-1,3.697343E-2,1.3756793E0,4.6704578E-1,3.4523615E-1,1.3867007E-1,9.011166E-1,-6.6517144E-1,1.3933654E-2,2.445534E0,1.6262059E0,-3.7407126E-2,1.057533E-1,1.7709476E-1,2.570711E-4,1.4418873E-1,-7.303379E-1,1.8114802E-1,3.4796807E-1,-1.1038966E-3,3.466193E-2,3.0313513E-1,-5.552521E-2,1.816356E0,-4.181806E-1,3.9268824E-1,6.569707E-2,-8.1049584E-2,-4.2941715E-3,1.2378322E-1,2.0036629E-1,-2.8622989E-2,-7.0070766E-2,5.1912215E-2,4.7804225E-2,-2.6627893E-2],"categories":[],"categories_nodes":[],"categories_segments":[],"categories_sizes":[],"default_left":[1,1,1,0,1,1,0,0,1,1,0,0,0,0,1,0,0,0,0,0,1,0,0,0,0,0,1,0,0,0,1,1,1,0,0,0,0,0,0,0,0,0,0],"id":27,"left_children":[1,3,5,7,9,11,-1,13,15,17,19,-1,-1,21,23,25,27,29,-1,-1,31,-1,-1,33,-1,-1,35,-1,-1,-1,37,39,41,-1,-1,-1,-1,-1,-1,-1,-1,-1,-1],"loss_changes":[3.52894E1,3.410877E1,4.1664276E0,2.9929607E1,8.590759E0,1.4043198E0,0E0,1.657105E1,2.837467E1,8.443733E0,4.9587746E0,0E0,0E0,3.599978E0,1.667844E1,2.6483727E1,4.9065323E0,7.571865E0,0E0,0E0,2.905415E0,0E0,0E0,1.0920662E1,0E0,0E0,2.6327816E1,0E0,0E0,0E0,6.397541E0,1.9958732E0,1.0382464E0,0E0,0E0,0E0,0E0,0E0,0E0,0E0,0E0,0E0,0E0],"parents":[2147483647,0,0,1,1,2,2,3,3,4,4,5,5,7,7,8,8,9,9,10,10,13,13,14,14,15,15,16,16,17,17,20,20,23,23,26,26,30,30,31,31,32,32],"right_children":[2,4,6,8,10,12,-1,14,16,18,20,-1,-1,22,24,26,28,30,-1,-1,32,-1,-1,34,-1,-1,36,-1,-1,-1,38,40,42,-1,-1,-1,-1,-1,-1,-1,-1,-1,-1],"split_conditions":[1.0794868E-1,1.8001739E-2,7.255598E-2,1.7374891E-1,1.18849315E-2,1.433491E-1,3.809547E-2,1.1153206E-1,6.5278426E-2,6.909111E-2,8.481612E-2,3.4523615E-1,1.3867007E-1,6.5091535E-2,1.5273193E-1,9.289371E-2,1.9136158E-1,2.47458E-1,-3.7407126E-2,1.057533E-1,1.0598078E-1,2.570711E-4,1.4418873E-1,2.1764766E-1,1.8114802E-1,3.4796807E-1,8.643923E-2,3.466193E-2,3.0313513E-1,-5.552521E-2,7.714861E-2,2.3380948E-2,9.6564405E-2,6.569707E-2,-8.1049584E-2,-4.2941715E-3,1.2378322E-1,2.0036629E-1,-2.8622989E-2,-7.0070766E-2,5.1912215E-2,4.7804225E-2,-2.6627893E-2],"split_indices":[5019,5112,1001,6563,255,7613,0,6476,2362,6064,9838,0,0,6476,7384,8354,2898,6606,0,0,2440,0,0,9624,0,0,7765,0,0,0,6379,9722,182,0,0,0,0,0,0,0,0,0,0],"split_type":[0,0,0,0,0,0,0,0,0,0,0,0,0,0,0,0,0,0,0,0,0,0,0,0,0,0,0,0,0,0,0,0,0,0,0,0,0,0,0,0,0,0,0],"sum_hessian":[6.638362E2,6.574264E2,6.4098105E0,6.114954E2,4.5930992E1,4.9458437E0,1.463967E0,1.0055875E2,5.1093665E2,1.6874416E1,2.9056576E1,1.7602428E0,3.1856008E0,6.416405E0,9.414234E1,5.070917E2,3.8449464E0,1.4822726E1,2.051689E0,8.697262E0,2.0359314E1,2.7882295E0,3.6281755E0,9.241578E1,1.7265615E0,1.1953553E0,5.0589636E2,1.186291E0,2.6586552E0,1.0345049E0,1.3788222E1,5.1632867E0,1.5196028E1,4.654991E0,8.776079E1,4.9030453E2,1.5591828E1,1.2703583E1,1.084639E0,4.161366E0,1.0019207E0,1.3696518E1,1.4995103E0],"tree_param":{"num_deleted":"0","num_feature":"10000","num_nodes":"43","size_leaf_vector":"1"}},{"base_weights":[3.2408925E-4,7.491518E-2,-6.707182E-1,4.8414893E-2,1.8905057E0,-7.4979436E-1,1.0971619E0,2.8708303E-2,2.4229784E0,2.5568068E-1,2.5275686E0,-8.1731564E-1,5.3159845E-1,-1.4553181E-2,1.893937E-1,9.347491E-1,-2.1617245E-2,3.673481E-2,3.2524545E0,9.470077E-2,-5.727764E-2,9.103909E-2,3.146862E-1,8.358561E-2,-8.594391E-1,-1.3408284E-2,1.088809E-1,3.1462902E-1,7.4884677E-1,-1.0138491E-1,6.3965774E-1,8.805177E-2,4.109578E-1,-9.062605E-1,5.0109185E-2,9.228443E-2,-5.897614E-2,-1.4374644E-2,1.23775E-1,8.52259E-2,1.821359E-2,-9.7330205E-2,7.0932606E-4],"categories":[],"categories_nodes":[],"categories_segments":[],"categories_sizes":[],"default_left":[1,1,1,1,0,1,1,0,0,1,0,0,1,0,0,0,1,0,0,0,0,0,0,0,1,0,0,0,1,1,1,0,0,1,0,0,0,0,0,0,0,0,0],"id":28,"left_children":[1,3,5,7,9,11,13,15,17,19,21,23,25,-1,-1,27,29,-1,31,-1,-1,-1,-1,-1,33,-1,-1,-1,35,37,39,-1,-1,41,-1,-1,-1,-1,-1,-1,-1,-1,-1],"loss_changes":[3.2862545E1,2.833701E1,1.0004381E1,2.7229826E1,8.179146E0,5.925213E0,3.4618847E0,2.6448158E1,6.9721527E0,2.540525E0,3.1292915E0,4.943859E0,1.5490173E0,0E0,0E0,1.0192446E1,2.9080479E1,0E0,3.0606728E0,0E0,0E0,0E0,0E0,0E0,4.2548294E0,0E0,0E0,0E0,7.4077015E0,2.8072573E1,5.6175766E0,0E0,0E0,3.5605278E0,0E0,0E0,0E0,0E0,0E0,0E0,0E0,0E0,0E0],"parents":[2147483647,0,0,1,1,2,2,3,3,4,4,5,5,6,6,7,7,8,8,9,9,10,10,11,11,12,12,15,15,16,16,18,18,24,24,28,28,29,29,30,30,33,33],"right_children":[2,4,6,8,10,12,14,16,18,20,22,24,26,-1,-1,28,30,-1,32,-1,-1,-1,-1,-1,34,-1,-1,-1,36,38,40,-1,-1,42,-1,-1,-1,-1,-1,-1,-1,-1,-1],"split_conditions":[1.638682E-2,2.7635468E-2,5.556421E-2,8.639839E-2,8.7930106E-2,4.903021E-2,4.321732E-2,5.8870226E-2,8.004726E-2,1.2208071E-1,1.2701802E-1,7.6122575E-2,9.048436E-2,-1.4553181E-2,1.893937E-1,8.185385E-2,2.626125E-2,3.673481E-2,1.7466362E-1,9.470077E-2,-5.727764E-2,9.103909E-2,3.146862E-1,8.358561E-2,1.4109877E-1,-1.3408284E-2,1.088809E-1,3.1462902E-1,1.9959837E-2,8.967394E-2,7.059566E-2,8.805177E-2,4.109578E-1,7.4753985E-2,5.0109185E-2,9.228443E-2,-5.897614E-2,-1.4374644E-2,1.23775E-1,8.52259E-2,1.821359E-2,-9.7330205E-2,7.0932606E-4],"split_indices":[7968,7340,6751,8039,2215,3520,4090,623,7965,601,7222,4502,9551,0,0,4208,2440,0,3685,0,0,0,0,0,1007,0,0,0,7965,7600,1412,0,0,8955,0,0,0,0,0,0,0,0,0],"split_type":[0,0,0,0,0,0,0,0,0,0,0,0,0,0,0,0,0,0,0,0,0,0,0,0,0,0,0,0,0,0,0,0,0,0,0,0,0,0,0,0,0,0,0],"sum_hessian":[6.5454095E2,5.89862E2,6.467897E1,5.823882E2,7.4738483E0,6.246101E1,2.2179625E0,5.7859845E2,3.7897196E0,2.4887033E0,4.985145E0,5.9678497E1,2.7825117E0,1.1858287E0,1.0321337E0,2.9522013E1,5.490764E2,1.5043833E0,2.2853363E0,1.2786245E0,1.2100787E0,2.0643916E0,2.9207532E0,1.014651E0,5.8663845E1,1.613857E0,1.1686547E0,1.0543834E0,2.846763E1,4.9072803E2,5.83484E1,1.1447471E0,1.1405892E0,5.703493E1,1.628913E0,2.5467815E1,2.999814E0,4.7654587E2,1.4182161E1,3.924791E1,1.910049E1,5.3073616E1,3.9613178E0],"tree_param":{"num_deleted":"0","num_feature":"10000","num_nodes":"43","size_leaf_vector":"1"}},{"base_weights":[3.0258816E-2,-5.334841E-2,6.007259E-1,-9.302973E-2,1.1655082E0,-4.9650347E-1,7.2805274E-1,-1.1802819E-1,1.9895637E0,-6.447747E-2,1.4071039E0,8.792057E-2,-8.000321E-1,1.3738508E0,5.013631E-1,1.9784083E0,-1.4226131E-1,9.522625E-2,3.1332815E0,1.5881479E0,-3.451025E-2,4.50814E-3,-9.290256E-2,-3.5703503E-2,1.5024223E0,5.7991564E-1,-8.120891E-2,2.8686093E-3,2.561934E-1,-1.7679836E-1,1.2901534E0,-5.7671167E-2,7.2309695E-2,4.0539622E-1,4.579672E-2,1.7526762E0,6.888903E-3,1.5955716E0,3.374222E-3,-7.8662686E-2,6.5886873E-1,2.1322136E-1,-1.984299E-2,1.5547463E-1,-4.178261E-2,1.97134E-1,6.0925808E-2,8.564928E-2,1.9433102E-1,7.9039656E-2,-2.5399446E-2],"categories":[],"categories_nodes":[],"categories_segments":[],"categories_sizes":[],"default_left":[1,1,0,1,0,0,0,0,1,0,1,0,0,0,1,0,1,0,1,0,0,0,0,0,1,0,0,0,0,0,1,0,0,0,0,1,0,0,0,0,1,0,0,0,0,0,0,0,0,0,0],"id":29,"left_children":[1,3,5,7,9,11,13,15,17,-1,19,-1,21,23,25,27,29,31,33,35,-1,-1,-1,-1,37,39,-1,-1,-1,41,43,-1,-1,-1,-1,45,-1,47,-1,-1,49,-1,-1,-1,-1,-1,-1,-1,-1,-1,-1],"loss_changes":[3.0755877E1,2.7326195E1,1.1876509E1,2.8656864E1,8.699728E0,4.530271E0,1.0182274E1,2.7735466E1,1.3852407E1,0E0,5.634344E0,0E0,9.174533E-1,4.702221E0,6.3043604E0,7.028429E0,2.6703041E1,1.8894852E0,8.097332E0,3.5563278E0,0E0,0E0,0E0,0E0,2.3562546E0,6.337139E0,0E0,0E0,0E0,2.6567448E1,6.397999E0,0E0,0E0,0E0,0E0,2.1073265E0,0E0,2.5876007E0,0E0,0E0,6.3878403E0,0E0,0E0,0E0,0E0,0E0,0E0,0E0,0E0,0E0,0E0],"parents":[2147483647,0,0,1,1,2,2,3,3,4,4,5,5,6,6,7,7,8,8,10,10,12,12,13,13,14,14,15,15,16,16,17,17,18,18,19,19,24,24,25,25,29,29,30,30,35,35,37,37,40,40],"right_children":[2,4,6,8,10,12,14,16,18,-1,20,-1,22,24,26,28,30,32,34,36,-1,-1,-1,-1,38,40,-1,-1,-1,42,44,-1,-1,-1,-1,46,-1,48,-1,-1,50,-1,-1,-1,-1,-1,-1,-1,-1,-1,-1],"split_conditions":[1.3757347E-2,7.90162E-2,5.3450704E-2,1.3264279E-1,1.11481495E-1,2.5606291E-2,1.3023563E-1,4.05413E-1,9.131787E-2,-6.447747E-2,2.7162993E-2,8.792057E-2,8.081331E-2,1.05185024E-1,6.1392844E-2,6.3370325E-2,6.1865952E-2,1.5962255E-1,2.0301092E-1,1.3845165E-1,-3.451025E-2,4.50814E-3,-9.290256E-2,-3.5703503E-2,4.724038E-2,3.278215E-1,-8.120891E-2,2.8686093E-3,2.561934E-1,1.0414397E0,5.447016E-2,-5.7671167E-2,7.2309695E-2,4.0539622E-1,4.579672E-2,3.645819E-2,6.888903E-3,9.177544E-2,3.374222E-3,-7.8662686E-2,4.0356454E-2,2.1322136E-1,-1.984299E-2,1.5547463E-1,-4.178261E-2,1.97134E-1,6.0925808E-2,8.564928E-2,1.9433102E-1,7.9039656E-2,-2.5399446E-2],"split_indices":[9536,5785,3520,1138,1863,9707,1153,2058,6391,0,2307,0,110,6066,2578,1273,2851,1138,6366,8883,0,0,0,0,2307,5976,0,0,0,2831,9736,0,0,0,0,4067,0,8895,0,0,7916,0,0,0,0,0,0,0,0,0,0],"split_type":[0,0,0,0,0,0,0,0,0,0,0,0,0,0,0,0,0,0,0,0,0,0,0,0,0,0,0,0,0,0,0,0,0,0,0,0,0,0,0,0,0,0,0,0,0,0,0,0,0,0,0],"sum_hessian":[6.4317065E2,5.617478E2,8.142285E1,5.449306E2,1.6817188E1,8.164703E0,7.325815E1,5.3939923E2,5.5313654E0,1.7836252E0,1.5033563E1,1.1329806E0,7.0317225E0,1.7719107E1,5.5539043E1,5.242284E0,5.34157E2,2.4901671E0,3.0411983E0,1.3710569E1,1.3229933E0,1.0172999E0,6.0144224E0,1.102316E0,1.6616789E1,5.293187E1,2.6071737E0,1.449214E0,3.79307E0,5.22437E2,1.1719938E1,1.2422305E0,1.2479366E0,1.8791777E0,1.1620206E0,1.2232239E1,1.4783312E0,1.5544499E1,1.0722904E0,2.4015713E0,5.05303E1,3.943345E0,5.1849365E2,1.0225554E1,1.4943837E0,9.660682E0,2.5715566E0,6.081659E0,9.462841E0,4.428391E1,6.246389E0],"tree_param":{"num_deleted":"0","num_feature":"10000","num_nodes":"51","size_leaf_vector":"1"}},{"base_weights":[2.8593639E-2,-4.648393E-1,1.2505428E-1,-5.677164E-1,1.2269422E-1,1.772005E-1,-8.264461E-1,-6.6988295E-1,7.158807E-1,1.2848292E-1,1.1535054E0,-9.1729563E-1,7.979404E-2,1.3497892E-1,-7.242651E-1,2.1746905E-1,1.3936223E-1,1.1300214E-1,3.3745518E-1,1.3434007E0,-2.1503659E-1,-9.895792E-2,2.562189E-2,-7.9452115E-1,4.1028184E-1,-5.21273E-2,8.3331954E-1,5.9423696E-2,1.0548424E0,-5.8607917E-2,1.4926119E0,3.340685E-2,-6.2229168E-2,-8.390892E-2,7.6821886E-2,1.3386582E-1,-4.0970083E-2,1.0176896E-1,2.7405677E-2,3.9789057E-3,2.8118148E-1,7.137405E-2,2.4173394E-1,