{"learner":{"attributes":{"best_iteration":"47","best_score":"0.10257644876954146","scikit_learn":"{\"_estimator_type\": \"classifier\"}"},"feature_names":[],"feature_types":[],"gradient_booster":{"model":{"gbtree_model_param":{"num_parallel_tree":"1","num_trees":"58"},"iteration_indptr":[0,1,2,3,4,5,6,7,8,9,10,11,12,13,14,15,16,17,18,19,20,21,22,23,24,25,26,27,28,29,30,31,32,33,34,35,36,37,38,39,40,41,42,43,44,45,46,47,48,49,50,51,52,53,54,55,56,57,58],"tree_info":[0,0,0,0,0,0,0,0,0,0,0,0,0,0,0,0,0,0,0,0,0,0,0,0,0,0,0,0,0,0,0,0,0,0,0,0,0,0,0,0,0,0,0,0,0,0,0,0,0,0,0,0,0,0,0,0,0,0],"trees":[{"base_weights":[-4.8996653E-2,-4.2457426E-1,4.522768E-1,-7.852927E-1,6.0066164E-1,-8.641131E-1,4.7610022E-2,-2.9387748E-1,2.5075158E-1,-2.3888357E-3,-9.0290606E-1,-8.266573E-2,6.595389E-2,-9.4556995E-2,-2.3888357E-3],"categories":[],"categories_nodes":[],"categories_segments":[],"categories_sizes":[],"default_left":[1,1,0,1,0,0,0,0,0,0,1,0,0,0,0],"id":0,"left_children":[1,3,-1,5,7,9,-1,11,-1,-1,13,-1,-1,-1,-1],"loss_changes":[5.7017677E1,1.1775871E1,0E0,2.7025661E0,1.5273495E1,6.969662E-1,0E0,3.9464746E0,0E0,0E0,7.6662445E-1,0E0,0E0,0E0,0E0],"parents":[2147483647,0,0,1,1,3,3,4,4,5,5,7,7,10,10],"right_children":[2,4,-1,6,8,10,-1,12,-1,-1,14,-1,-1,-1,-1],"split_conditions":[6.0577087E-2,2.9873332E-2,4.522768E-1,5.5500295E-2,1.6588674E-1,6.1401978E-2,4.7610022E-2,1.0953373E-1,2.5075158E-1,-2.3888357E-3,2.2859538E-2,-8.266573E-2,6.595389E-2,-9.4556995E-2,-2.3888357E-3],"split_indices":[3548,8786,0,91,8626,2005,0,4776,0,0,2094,0,0,0,0],"split_type":[0,0,0,0,0,0,0,0,0,0,0,0,0,0,0],"sum_hessian":[3.1088379E1,2.956657E1,1.5218087E0,2.2044487E1,7.5220833E0,2.1044441E1,1.0000458E0,5.695913E0,1.8261706E0,1.0000458E0,2.0044395E1,3.7393017E0,1.9566113E0,1.904435E1,1.0000458E0],"tree_param":{"num_deleted":"0","num_feature":"10000","num_nodes":"15","size_leaf_vector":"1"}},{"base_weights":[-1.2582922E-2,8.013698E-1,-5.7662386E-1,-7.331487E-1,1.9201161E-1,-8.2935506E-1,9.471946E-2,-8.956198E-1,4.5811664E-2,-9.636663E-2,-5.4270357E-2,4.709842E-2,-5.4099858E-2],"categories":[],"categories_nodes":[],"categories_segments":[],"categories_sizes":[],"default_left":[0,0,1,1,0,1,0,1,0,0,0,0,0],"id":1,"left_children":[1,-1,3,5,-1,7,-1,9,-1,-1,11,-1,-1],"loss_changes":[1.447593E2,0E0,1.3075304E1,5.444248E0,0E0,2.7812138E0,0E0,1.4802208E0,0E0,0E0,1.0377892E0,0E0,0E0],"parents":[2147483647,0,0,2,2,3,3,5,5,7,7,10,10],"right_children":[2,-1,4,6,-1,8,-1,10,-1,-1,12,-1,-1],"split_conditions":[4.2275488E-1,8.013698E-1,3.796349E-2,7.796965E-2,1.9201161E-1,2.2923613E-2,9.471946E-2,4.3567467E-2,4.5811664E-2,-9.636663E-2,8.330244E-2,4.709842E-2,-5.4099858E-2],"split_indices":[2508,0,2391,4412,0,2090,0,9761,0,0,9761,0,0],"split_type":[0,0,0,0,0,0,0,0,0,0,0,0,0],"sum_hessian":[2.9955105E1,1.0996386E0,2.8855467E1,2.7817873E1,1.0375922E0,2.6790451E1,1.0274231E0,2.576853E1,1.0219203E0,2.3705873E1,2.0626578E0,1.0076237E0,1.0550342E0],"tree_param":{"num_deleted":"0","num_feature":"10000","num_nodes":"13","size_leaf_vector":"1"}},{"base_weights":[6.701607E-2,5.270762E-1,-4.182918E-1,-5.7546574E-1,1.9601695E-1,-7.037762E-1,1.1861908E-1,-8.0739945E-1,9.418636E-2,4.7344517E-2,-8.79314E-1,2.5894197E-3,-9.54301E-2],"categories":[],"categories_nodes":[],"categories_segments":[],"categories_sizes":[],"default_left":[0,0,1,1,0,1,0,0,0,0,0,0,0],"id":2,"left_children":[1,-1,3,5,-1,7,-1,9,-1,-1,11,-1,-1],"loss_changes":[7.912802E1,0E0,1.1889784E1,7.1133432E0,0E0,5.2825193E0,0E0,2.763834E0,0E0,0E0,1.6864471E0,0E0,0E0],"parents":[2147483647,0,0,2,2,3,3,5,5,7,7,10,10],"right_children":[2,-1,4,6,-1,8,-1,10,-1,-1,12,-1,-1],"split_conditions":[8.600195E-1,5.270762E-1,7.384569E-2,9.913151E-2,1.9601695E-1,6.9715865E-2,1.1861908E-1,1.1458216E-1,9.418636E-2,4.7344517E-2,5.6207005E-2,2.5894197E-3,-9.54301E-2],"split_indices":[2508,0,6266,4551,0,2094,0,4543,0,0,9761,0,0],"split_type":[0,0,0,0,0,0,0,0,0,0,0,0,0],"sum_hessian":[2.9459621E1,1.6719006E0,2.778772E1,2.6776333E1,1.0113876E0,2.5518215E1,1.2581185E0,2.4485756E1,1.0324578E0,1.0048743E0,2.3480883E1,1.8464217E0,2.163446E1],"tree_param":{"num_deleted":"0","num_feature":"10000","num_nodes":"13","size_leaf_vector":"1"}},{"base_weights":[7.832417E-2,-2.8230372E-1,3.4938762E-1,-4.8711067E-1,1.7408796E-1,1.5034827E0,-7.209842E-1,-8.694977E-3,2.4421552E-1,-7.906314E-1,4.633413E-2,-8.637753E-1,4.309625E-2,-9.4459265E-2,9.092545E-3],"categories":[],"categories_nodes":[],"categories_segments":[],"categories_sizes":[],"default_left":[1,1,0,0,0,0,1,0,0,1,0,1,0,0,0],"id":3,"left_children":[1,3,-1,5,-1,7,9,-1,-1,11,-1,13,-1,-1,-1],"loss_changes":[3.8881397E1,1.2761949E1,0E0,1.360293E1,0E0,4.916954E0,2.4069672E0,0E0,0E0,2.49302E0,0E0,1.8394146E0,0E0,0E0,0E0],"parents":[2147483647,0,0,1,1,3,3,5,5,6,6,9,9,11,11],"right_children":[2,4,-1,6,-1,8,10,-1,-1,12,-1,14,-1,-1,-1],"split_conditions":[4.613743E-2,2.7763648E-2,3.4938762E-1,8.416584E-2,1.7408796E-1,1.4843875E-1,6.566854E-2,-8.694977E-3,2.4421552E-1,7.035557E-2,4.633413E-2,4.989866E-2,4.309625E-2,-9.4459265E-2,9.092545E-3],"split_indices":[8837,7436,0,1967,0,8626,2145,0,0,2627,0,9452,0,0,0],"split_type":[0,0,0,0,0,0,0,0,0,0,0,0,0,0,0],"sum_hessian":[2.9765388E1,2.7752512E1,2.0128758E0,2.589082E1,1.8616935E0,2.1513329E0,2.3739487E1,1.1352315E0,1.0161014E0,2.2734924E1,1.004562E0,2.172692E1,1.008006E0,2.0040997E1,1.6859226E0],"tree_param":{"num_deleted":"0","num_feature":"10000","num_nodes":"15","size_leaf_vector":"1"}},{"base_weights":[1.6291763E-1,3.129703E-1,-3.269903E-1,-5.311007E-1,2.3643258E-1,1.0368726E0,-7.362483E-1,2.0770524E-1,-5.5493325E-2,-8.5620564E-1,8.736134E-2,3.558284E-2,-9.4137645E-1,-9.865083E-2,-4.1147745E-3],"categories":[],"categories_nodes":[],"categories_segments":[],"categories_sizes":[],"default_left":[0,0,1,0,0,0,1,0,0,0,0,0,1,0,0],"id":4,"left_children":[1,-1,3,5,-1,7,9,-1,-1,11,-1,-1,13,-1,-1],"loss_changes":[4.4554283E1,0E0,1.5873623E1,8.982401E0,0E0,6.7350082E0,5.224365E0,0E0,0E0,2.6140232E0,0E0,0E0,8.0864334E-1,0E0,0E0],"parents":[2147483647,0,0,2,2,3,3,5,5,6,6,9,9,12,12],"right_children":[2,-1,4,6,-1,8,10,-1,-1,12,-1,-1,14,-1,-1],"split_conditions":[8.600195E-1,3.129703E-1,8.33979E-2,8.416584E-2,2.3643258E-1,8.445623E-2,9.913151E-2,2.0770524E-1,-5.5493325E-2,3.8451076E-2,8.736134E-2,3.558284E-2,5.215149E-2,-9.865083E-2,-4.1147745E-3],"split_indices":[2508,0,6266,1967,0,4063,4551,0,0,1326,0,0,4212,0,0],"split_type":[0,0,0,0,0,0,0,0,0,0,0,0,0,0,0],"sum_hessian":[2.8950016E1,3.339332E0,2.5610683E1,2.4551361E1,1.0593224E0,2.3714848E0,2.2179876E1,1.2498916E0,1.121593E0,2.107746E1,1.102417E0,1.1752392E0,1.990222E1,1.8860815E1,1.0414047E0],"tree_param":{"num_deleted":"0","num_feature":"10000","num_nodes":"15","size_leaf_vector":"1"}},{"base_weights":[1.0707671E-1,-5.338176E-1,1.1912829E0,1.4549862E-1,-7.208006E-1,-7.670262E-2,1.9126235E0,-8.6441034E-1,8.9662686E-2,2.4917486E0,-5.282266E-3,-2.1389653E-3,-9.1432744E-1,2.7949488E0,4.0841397E-2,-9.70423E-2,-3.1309277E-3,3.1215394E-1,6.9771685E-2],"categories":[],"categories_nodes":[],"categories_segments":[],"categories_sizes":[],"default_left":[1,0,0,0,1,0,1,0,0,1,0,0,1,1,0,0,0,0,0],"id":5,"left_children":[1,3,5,-1,7,-1,9,11,-1,13,-1,-1,15,17,-1,-1,-1,-1,-1],"loss_changes":[2.152342E1,8.331091E0,1.7679598E1,0E0,5.0881577E0,0E0,1.0004433E1,7.1953773E-1,0E0,3.1035805E0,0E0,0E0,7.897806E-1,1.7231064E0,0E0,0E0,0E0,0E0,0E0],"parents":[2147483647,0,0,1,1,2,2,4,4,6,6,7,7,9,9,12,12,13,13],"right_children":[2,4,6,-1,8,-1,10,12,-1,14,-1,-1,16,18,-1,-1,-1,-1,-1],"split_conditions":[2.9873332E-2,5.7561267E-2,3.2148188E-1,1.4549862E-1,7.8431055E-2,-7.670262E-2,2.5917513E-2,6.0550917E-2,8.9662686E-2,2.2091765E-2,-5.282266E-3,-2.1389653E-3,5.0059404E-2,6.584481E-2,4.0841397E-2,-9.70423E-2,-3.1309277E-3,3.1215394E-1,6.9771685E-2],"split_indices":[8786,2728,6602,0,1305,0,4776,3590,0,2135,0,0,4212,8588,0,0,0,0,0],"split_type":[0,0,0,0,0,0,0,0,0,0,0,0,0,0,0,0,0,0,0],"sum_hessian":[2.9059933E1,1.8582886E1,1.0477046E1,1.0141989E0,1.7568687E1,2.8032894E0,7.6737566E0,1.6563587E1,1.0050997E0,5.720434E0,1.9533222E0,1.0057958E0,1.5557792E1,4.6954966E0,1.024938E0,1.4535416E1,1.0223761E0,3.640216E0,1.0552802E0],"tree_param":{"num_deleted":"0","num_feature":"10000","num_nodes":"19","size_leaf_vector":"1"}},{"base_weights":[5.621115E-2,2.1234265E-1,-3.199335E-1,1.909066E-1,-4.9544647E-1,-6.442691E-1,1.4338E-1,-7.16727E-1,4.5831013E-2,-7.921298E-1,2.5839468E-2,-8.76469E-2,1.2286427E-2],"categories":[],"categories_nodes":[],"categories_segments":[],"categories_sizes":[],"default_left":[0,0,0,0,1,1,0,1,0,1,0,0,0],"id":6,"left_children":[1,-1,3,-1,5,7,-1,9,-1,11,-1,-1,-1],"loss_changes":[2.2739347E1,0E0,1.0676191E1,0E0,7.7715707E0,2.1525688E0,0E0,1.8086271E0,0E0,1.6892519E0,0E0,0E0,0E0],"parents":[2147483647,0,0,2,2,4,4,5,5,7,7,9,9],"right_children":[2,-1,4,-1,6,8,-1,10,-1,12,-1,-1,-1],"split_conditions":[4.3000475E-1,2.1234265E-1,3.3480334E-1,1.909066E-1,5.1397715E-2,6.175404E-2,1.4338E-1,9.913151E-2,4.5831013E-2,4.3567467E-2,2.5839468E-2,-8.76469E-2,1.2286427E-2],"split_indices":[2508,0,6281,0,7226,2094,0,4551,0,9761,0,0,0],"split_type":[0,0,0,0,0,0,0,0,0,0,0,0,0],"sum_hessian":[2.7370352E1,3.4984324E0,2.3871918E1,1.0215286E0,2.285039E1,2.1832293E1,1.0180979E0,2.0814392E1,1.0179002E0,1.9494602E1,1.3197898E0,1.7887897E1,1.6067048E0],"tree_param":{"num_deleted":"0","num_feature":"10000","num_nodes":"13","size_leaf_vector":"1"}},{"base_weights":[1.5323474E-1,2.3191924E-1,-3.2976946E-1,1.3406305E-1,-5.367513E-1,-7.0040244E-1,1.4037427E-1,-8.2723457E-1,5.5059668E-2,-8.7007594E-1,-2.7113152E-3,-9.176094E-2,-2.4274471E-3],"categories":[],"categories_nodes":[],"categories_segments":[],"categories_sizes":[],"default_left":[0,0,0,0,1,1,0,1,0,1,0,0,0],"id":7,"left_children":[1,-1,3,-1,5,7,-1,9,-1,11,-1,-1,-1],"loss_changes":[3.0082493E1,0E0,8.944668E0,0E0,7.931779E0,3.7630806E0,0E0,6.389036E-1,0E0,7.1395874E-1,0E0,0E0,0E0],"parents":[2147483647,0,0,2,2,4,4,5,5,7,7,9,9],"right_children":[2,-1,4,-1,6,8,-1,10,-1,12,-1,-1,-1],"split_conditions":[8.600195E-1,2.3191924E-1,5.856849E-2,1.3406305E-1,5.385808E-2,2.7763648E-2,1.4037427E-1,3.145449E-2,5.5059668E-2,3.214093E-2,-2.7113152E-3,-9.176094E-2,-2.4274471E-3],"split_indices":[2508,0,2728,0,7226,7436,0,9823,0,0,0,0,0],"split_type":[0,0,0,0,0,0,0,0,0,0,0,0,0],"sum_hessian":[2.7023924E1,4.2342935E0,2.278963E1,1.9087167E0,2.0880915E1,1.9846245E1,1.0346698E0,1.8326918E1,1.5193274E0,1.7312513E1,1.0144032E0,1.6310951E1,1.0015637E0],"tree_param":{"num_deleted":"0","num_feature":"10000","num_nodes":"13","size_leaf_vector":"1"}},{"base_weights":[7.3586814E-2,1.7155427E0,-2.3786043E-1,5.059603E-2,1.9289133E-1,2.3404466E-1,-4.5325568E-1,-6.625749E-1,1.1335645E-1,-7.8409374E-1,4.138125E-2,-8.588239E-1,-7.0490413E-3,-3.4371905E-3,-9.07899E-2],"categories":[],"categories_nodes":[],"categories_segments":[],"categories_sizes":[],"default_left":[0,0,0,0,0,0,1,1,0,1,0,0,0,0,0],"id":8,"left_children":[1,3,5,-1,-1,-1,7,9,-1,11,-1,13,-1,-1,-1],"loss_changes":[1.4390953E1,1.8063259E-1,1.4312687E1,0E0,0E0,0E0,8.344052E0,3.0486698E0,0E0,9.558716E-1,0E0,6.6322994E-1,0E0,0E0,0E0],"parents":[2147483647,0,0,1,1,2,2,6,6,7,7,9,9,11,11],"right_children":[2,4,6,-1,-1,-1,8,10,-1,12,-1,14,-1,-1,-1],"split_conditions":[1.6578768E-1,6.5121934E-2,3.3240318E-1,5.059603E-2,1.9289133E-1,2.3404466E-1,6.113034E-2,4.989866E-2,1.1335645E-1,7.779366E-2,4.138125E-2,2.4645886E-1,-7.0490413E-3,-3.4371905E-3,-9.07899E-2],"split_indices":[8837,3548,2332,0,0,0,6214,9452,0,1976,0,3179,0,0,0],"split_type":[0,0,0,0,0,0,0,0,0,0,0,0,0,0,0],"sum_hessian":[2.634331E1,3.4813378E0,2.2861973E1,1.0275435E0,2.4537942E0,1.002007E0,2.1859966E1,1.9827013E1,2.032952E0,1.8059711E1,1.7673019E0,1.6163527E1,1.8961848E0,1.0036013E0,1.5159925E1],"tree_param":{"num_deleted":"0","num_feature":"10000","num_nodes":"15","size_leaf_vector":"1"}},{"base_weights":[-4.5068134E-2,1.636074E-1,-4.3824458E-1,-5.957565E-1,1.3265261E-1,-7.705105E-1,1.0773193E-1,4.564124E-2,-8.6470455E-1,-9.133141E-1,-2.4554913E-3,-9.669416E-2,-2.9166718E-3],"categories":[],"categories_nodes":[],"categories_segments":[],"categories_sizes":[],"default_left":[0,0,1,1,0,0,0,0,1,1,0,0,0],"id":9,"left_children":[1,-1,3,5,-1,7,-1,-1,9,11,-1,-1,-1],"loss_changes":[1.7573584E1,0E0,6.754771E0,6.791353E0,0E0,2.5955286E0,0E0,0E0,7.1396637E-1,7.7867985E-1,0E0,0E0,0E0],"parents":[2147483647,0,0,2,2,3,3,5,5,8,8,9,9],"right_children":[2,-1,4,6,-1,8,-1,-1,10,12,-1,-1,-1],"split_conditions":[8.600195E-1,1.636074E-1,9.017642E-2,3.487269E-2,1.3265261E-1,1.1638882E-1,1.0773193E-1,4.564124E-2,5.8849607E-2,2.6880046E-2,-2.4554913E-3,-9.669416E-2,-2.9166718E-3],"split_indices":[2508,0,6266,5807,0,9516,0,0,4212,7436,0,0,0],"split_type":[0,0,0,0,0,0,0,0,0,0,0,0,0],"sum_hessian":[2.45022E1,4.0450826E0,2.0457117E1,1.9388998E1,1.068118E0,1.8043777E1,1.3452214E0,1.0123241E0,1.7031452E1,1.6017616E1,1.0138361E0,1.5013348E1,1.0042686E0],"tree_param":{"num_deleted":"0","num_feature":"10000","num_nodes":"13","size_leaf_vector":"1"}},{"base_weights":[-4.468984E-3,1.9742654E-1,-1.8528585E-1,-5.185295E-1,8.062725E-1,8.3856836E-2,-6.969189E-1,2.7541065E-1,1.5304981E-1,-7.8899217E-1,3.3200894E-2,-5.826598E-2,7.375497E-1,3.300529E-2,-8.920008E-1,1.3152795E-2,9.949835E-2,-9.544303E-2,-3.5452538E-3],"categories":[],"categories_nodes":[],"categories_segments":[],"categories_sizes":[],"default_left":[0,0,1,0,1,0,1,1,0,0,0,0,1,0,1,0,0,0,0],"id":10,"left_children":[1,-1,3,5,7,-1,9,11,-1,13,-1,-1,15,-1,17,-1,-1,-1,-1],"loss_changes":[9.306888E0,0E0,8.286181E0,5.0463223E0,2.031765E0,0E0,1.8568964E0,2.373421E0,0E0,2.109806E0,0E0,0E0,4.3499267E-1,0E0,7.517748E-1,0E0,0E0,0E0,0E0],"parents":[2147483647,0,0,2,2,3,3,4,4,6,6,7,7,9,9,12,12,14,14],"right_children":[2,-1,4,6,8,-1,10,12,-1,14,-1,-1,16,-1,18,-1,-1,-1,-1],"split_conditions":[6.648164E-1,1.9742654E-1,6.5608315E-2,1.2158001E-1,6.765562E-2,8.3856836E-2,9.407989E-2,4.443823E-2,1.5304981E-1,9.059529E-2,3.3200894E-2,-5.826598E-2,4.300603E-2,3.300529E-2,4.7138564E-2,1.3152795E-2,9.949835E-2,-9.544303E-2,-3.5452538E-3],"split_indices":[2332,0,8786,9452,6214,0,1976,4869,0,9829,0,0,9812,0,4212,0,0,0,0],"split_type":[0,0,0,0,0,0,0,0,0,0,0,0,0,0,0,0,0,0,0],"sum_hessian":[2.3989853E1,1.1781714E0,2.2811682E1,1.7430637E1,5.381045E0,1.5951046E0,1.5835532E1,3.9015024E0,1.4795423E0,1.474892E1,1.0866121E0,1.274431E0,2.6270714E0,1.0574185E0,1.3691502E1,1.2337154E0,1.393356E0,1.2654876E1,1.036626E0],"tree_param":{"num_deleted":"0","num_feature":"10000","num_nodes":"19","size_leaf_vector":"1"}},{"base_weights":[3.0126303E-1,1.172471E-1,2.1879898E-1,1.8180434E-1,-1.3363771E-1,1.4135443E-1,-3.6250886E-1,1.3506638E-1,-5.478377E-1,9.7228914E-2,-6.942859E-1,-8.395136E-2,8.047342E-2],"categories":[],"categories_nodes":[],"categories_segments":[],"categories_sizes":[],"default_left":[1,0,0,0,0,0,0,0,0,0,1,0,0],"id":11,"left_children":[1,3,-1,-1,5,-1,7,-1,9,-1,11,-1,-1],"loss_changes":[8.178879E0,1.0139903E1,0E0,0E0,7.9995985E0,0E0,6.840744E0,0E0,4.693511E0,0E0,4.386924E0,0E0,0E0],"parents":[2147483647,0,0,1,1,4,4,6,6,8,8,10,10],"right_children":[2,4,-1,-1,6,-1,8,-1,10,-1,12,-1,-1],"split_conditions":[6.9851905E-2,2.5407395E-1,2.1879898E-1,1.8180434E-1,1.0978472E-1,1.4135443E-1,2.6940548E-1,1.3506638E-1,6.4978495E-2,9.7228914E-2,6.852715E-2,-8.395136E-2,8.047342E-2],"split_indices":[7584,748,0,0,8837,0,6374,0,4713,0,9833,0,0],"split_type":[0,0,0,0,0,0,0,0,0,0,0,0,0],"sum_hessian":[2.3296404E1,2.2193932E1,1.1024718E0,2.0500076E0,2.0143923E1,1.9288218E0,1.8215101E1,1.1643122E0,1.7050789E1,1.0027853E0,1.6048004E1,1.5031669E1,1.0163357E0],"tree_param":{"num_deleted":"0","num_feature":"10000","num_nodes":"13","size_leaf_vector":"1"}},{"base_weights":[5.132074E-3,1.4201621E0,-3.7077087E-1,4.4110097E-2,1.600913E-1,6.958442E-2,-5.246482E-1,-6.738271E-1,9.403476E-2,6.0786992E-2,-8.8682246E-1,-2.4063152E-3,-9.4973944E-2],"categories":[],"categories_nodes":[],"categories_segments":[],"categories_sizes":[],"default_left":[0,0,0,0,0,0,1,0,0,0,0,0,0],"id":12,"left_children":[1,3,5,-1,-1,-1,7,9,-1,-1,11,-1,-1],"loss_changes":[1.2841198E1,1.9040966E-1,3.4974878E0,0E0,0E0,0E0,4.4033656E0,4.9718475E0,0E0,0E0,7.550297E-1,0E0,0E0],"parents":[2147483647,0,0,1,1,2,2,6,6,7,7,10,10],"right_children":[2,4,6,-1,-1,-1,8,10,-1,-1,12,-1,-1],"split_conditions":[8.600195E-1,1.2811695E-1,8.971686E-2,4.4110097E-2,1.600913E-1,6.958442E-2,9.653125E-2,5.856849E-2,9.403476E-2,6.0786992E-2,9.731411E-2,-2.4063152E-3,-9.4973944E-2],"split_indices":[2508,308,1316,0,0,0,4551,2728,0,0,1827,0,0],"split_type":[0,0,0,0,0,0,0,0,0,0,0,0,0],"sum_hessian":[2.2151567E1,4.066361E0,1.8085207E1,1.1698879E0,2.8964732E0,1.8360919E0,1.6249115E1,1.523754E1,1.0115739E0,1.9071819E0,1.33303585E1,1.0000101E0,1.2330349E1],"tree_param":{"num_deleted":"0","num_feature":"10000","num_nodes":"13","size_leaf_vector":"1"}},{"base_weights":[2.064501E-2,9.251144E-1,-3.262602E-1,1.3012147E0,9.814456E-2,-4.9323598E-1,1.1002847E-1,1.9605344E-2,1.6558833E-1,-2.1140007E-2,3.646406E-2,7.269355E-2,-6.9535416E-1,-8.5770744E-1,2.7258633E-2,-9.330253E-2,-1.9693228E-3],"categories":[],"categories_nodes":[],"categories_segments":[],"categories_sizes":[],"default_left":[0,0,1,0,0,0,0,0,0,0,0,0,1,1,0,0,0],"id":13,"left_children":[1,3,5,7,9,11,-1,-1,-1,-1,-1,-1,13,15,-1,-1,-1],"loss_changes":[7.109784E0,1.8241906E0,4.454371E0,1.3342543E0,3.2814875E-1,4.301339E0,0E0,0E0,0E0,0E0,0E0,0E0,2.3891606E0,7.381859E-1,0E0,0E0,0E0],"parents":[2147483647,0,0,1,1,2,2,3,3,4,4,5,5,12,12,13,13],"right_children":[2,4,6,8,10,12,-1,-1,-1,-1,-1,-1,14,16,-1,-1,-1],"split_conditions":[8.539645E-2,4.6488356E-2,8.339394E-2,9.204575E-2,6.60359E-2,1.0666767E-1,1.1002847E-1,1.9605344E-2,1.6558833E-1,-2.1140007E-2,3.646406E-2,7.269355E-2,8.131247E-2,3.7709862E-2,2.7258633E-2,-9.330253E-2,-1.9693228E-3],"split_indices":[3060,9812,6214,287,1967,9452,0,0,0,0,0,0,9812,4212,0,0,0],"split_type":[0,0,0,0,0,0,0,0,0,0,0,0,0,0,0,0,0],"sum_hessian":[2.0697618E1,5.2757206E0,1.5421898E1,3.2322445E0,2.043476E0,1.4391617E1,1.0302813E0,1.1625313E0,2.069713E0,1.0410277E0,1.0024483E0,1.6761634E0,1.2715453E1,1.0986555E1,1.7288983E0,9.976522E0,1.0100323E0],"tree_param":{"num_deleted":"0","num_feature":"10000","num_nodes":"17","size_leaf_vector":"1"}},{"base_weights":[2.3243059E-1,1.4783889E-1,-1.528147E-1,-3.8892442E-1,1.868002E-1,-6.438059E-1,1.666647E-1,-7.514139E-1,4.3932613E-2,-8.751208E-1,4.5156267E-2,-9.4323955E-2,-1.950391E-3],"categories":[],"categories_nodes":[],"categories_segments":[],"categories_sizes":[],"default_left":[0,0,1,1,0,1,0,1,0,1,0,0,0],"id":14,"left_children":[1,-1,3,5,-1,7,-1,9,-1,11,-1,-1,-1],"loss_changes":[1.0659216E1,0E0,9.080617E0,9.720353E0,0E0,2.1256785E0,0E0,2.5354834E0,0E0,7.6152515E-1,0E0,0E0,0E0],"parents":[2147483647,0,0,2,2,3,3,5,5,7,7,9,9],"right_children":[2,-1,4,6,-1,8,-1,10,-1,12,-1,-1,-1],"split_conditions":[8.600195E-1,1.4783889E-1,6.326655E-2,1.2068578E-1,1.868002E-1,9.913151E-2,1.666647E-1,3.728042E-2,4.3932613E-2,4.146148E-2,4.5156267E-2,-9.4323955E-2,-1.950391E-3],"split_indices":[2508,0,7584,6266,0,4551,0,1827,0,716,0,0,0],"split_type":[0,0,0,0,0,0,0,0,0,0,0,0,0],"sum_hessian":[2.0736053E1,4.2271385E0,1.6508915E1,1.5504884E1,1.0040303E0,1.4405471E1,1.0994134E0,1.338222E1,1.0232507E0,1.2381516E1,1.0007037E0,1.1373613E1,1.0079026E0],"tree_param":{"num_deleted":"0","num_feature":"10000","num_nodes":"13","size_leaf_vector":"1"}},{"base_weights":[2.1214351E-1,2.3041134E-1,-6.617046E-3,1.1618791E0,-3.4029528E-1,1.3325952E-1,3.052913E-2,7.4518585E-1,-5.609321E-1,1.3382071E-1,-1.4984141E-2,-7.1658945E-1,4.3430913E-2,-8.5254365E-1,4.3797996E-2,-9.290826E-2,-2.3454304E-3],"categories":[],"categories_nodes":[],"categories_segments":[],"categories_sizes":[],"default_left":[0,0,0,1,0,0,0,0,1,0,0,1,0,1,0,0,0],"id":15,"left_children":[1,-1,3,5,7,-1,-1,9,11,-1,-1,13,-1,15,-1,-1,-1],"loss_changes":[9.7246275E0,0E0,8.273245E0,2.826047E-1,4.3673353E0,0E0,0E0,1.9069823E0,2.522665E0,0E0,0E0,2.3703103E0,0E0,7.219906E-1,0E0,0E0,0E0],"parents":[2147483647,0,0,2,2,3,3,4,4,7,7,8,8,11,11,13,13],"right_children":[2,-1,4,6,8,-1,-1,10,12,-1,-1,14,-1,16,-1,-1,-1],"split_conditions":[2.1043797E-1,2.3041134E-1,4.3000475E-1,6.1598342E-2,8.416584E-2,1.3325952E-1,3.052913E-2,5.18404E-2,4.2604126E-2,1.3382071E-1,-1.4984141E-2,6.7044444E-2,4.3430913E-2,3.86587E-2,4.3797996E-2,-9.290826E-2,-2.3454304E-3],"split_indices":[5628,0,2508,112,1967,0,0,4063,716,0,0,5976,0,4212,0,0,0],"split_type":[0,0,0,0,0,0,0,0,0,0,0,0,0,0,0,0,0],"sum_hessian":[2.0216175E1,1.0114329E0,1.9204742E1,3.7146182E0,1.5490125E1,2.6339712E0,1.0806469E0,2.21507E0,1.3275055E1,1.034488E0,1.180582E0,1.172174E1,1.5533153E0,1.072091E1,1.0008295E0,9.704422E0,1.0164883E0],"tree_param":{"num_deleted":"0","num_feature":"10000","num_nodes":"17","size_leaf_vector":"1"}},{"base_weights":[1.3868523E-1,1.1503916E0,-2.0354019E-1,2.2282831E-2,1.3166124E-1,-4.5253828E-1,1.5934066E-1,8.658638E-2,-6.174181E-1,4.3696176E-2,-7.352408E-1,4.0057704E-2,-8.686938E-1,-9.4232515E-2,-3.973257E-3],"categories":[],"categories_nodes":[],"categories_segments":[],"categories_sizes":[],"default_left":[0,0,1,0,0,0,0,0,0,0,0,0,1,0,0],"id":16,"left_children":[1,3,5,-1,-1,7,-1,-1,9,-1,11,-1,13,-1,-1],"loss_changes":[7.246339E0,5.1908016E-1,7.872607E0,0E0,0E0,3.755475E0,0E0,0E0,2.0298853E0,0E0,2.2796917E0,0E0,6.7789745E-1,0E0,0E0],"parents":[2147483647,0,0,1,1,2,2,5,5,8,8,10,10,12,12],"right_children":[2,4,6,-1,-1,8,-1,-1,10,-1,12,-1,14,-1,-1],"split_conditions":[8.600195E-1,1.2811695E-1,6.9851905E-2,2.2282831E-2,1.3166124E-1,1.550601E-1,1.5934066E-1,8.658638E-2,5.2015996E-1,4.3696176E-2,4.918488E-2,4.0057704E-2,5.176062E-2,-9.4232515E-2,-3.973257E-3],"split_indices":[2508,308,7584,0,0,343,0,0,9545,0,2728,0,8590,0,0],"split_type":[0,0,0,0,0,0,0,0,0,0,0,0,0,0,0],"sum_hessian":[1.9252882E1,4.269535E0,1.4983346E1,1.0045261E0,3.2650092E0,1.3816934E1,1.1664127E0,1.063284E0,1.2753649E1,1.0096631E0,1.1743986E1,1.0243258E0,1.071966E1,9.719579E0,1.0000814E0],"tree_param":{"num_deleted":"0","num_feature":"10000","num_nodes":"15","size_leaf_vector":"1"}},{"base_weights":[2.0979817E-1,-3.4813997E-1,7.9507273E-1,-5.619012E-1,8.409934E-2,1.1513885E0,-3.4400716E-1,-7.754006E-1,4.0960208E-2,-6.131014E-3,1.3483024E0,3.0031898E-3,-5.393995E-2,-8.78489E-2,-4.0157116E-3,1.612209E0,1.62326E-2,4.3688685E-2,1.8259458E-1],"categories":[],"categories_nodes":[],"categories_segments":[],"categories_sizes":[],"default_left":[1,1,1,1,0,0,0,1,0,0,1,0,0,0,0,0,0,0,0],"id":17,"left_children":[1,3,5,7,-1,9,11,13,-1,-1,15,-1,-1,-1,-1,17,-1,-1,-1],"loss_changes":[6.583395E0,3.1626215E0,4.3452697E0,2.302532E0,0E0,1.907485E0,2.4191311E-1,5.8558226E-1,0E0,0E0,1.8095531E0,0E0,0E0,0E0,0E0,5.339823E-1,0E0,0E0,0E0],"parents":[2147483647,0,0,1,1,2,2,3,3,5,5,6,6,7,7,10,10,15,15],"right_children":[2,4,6,8,-1,10,12,14,-1,-1,16,-1,-1,-1,-1,18,-1,-1,-1],"split_conditions":[2.9873332E-2,3.6418788E-2,2.0958584E-2,6.869091E-2,8.409934E-2,3.2148188E-1,8.731535E-2,3.0496223E-2,4.0960208E-2,-6.131014E-3,6.0898464E-2,3.0031898E-3,-5.393995E-2,-8.78489E-2,-4.0157116E-3,1.490302E-1,1.62326E-2,4.3688685E-2,1.8259458E-1],"split_indices":[8786,5431,4776,4063,0,6602,1254,4212,0,0,6699,0,0,0,0,2484,0,0,0],"split_type":[0,0,0,0,0,0,0,0,0,0,0,0,0,0,0,0,0,0,0],"sum_hessian":[1.831299E1,9.582872E0,8.730118E0,8.569814E0,1.0130584E0,6.6417155E0,2.088402E0,7.191296E0,1.3785176E0,1.0240045E0,5.617711E0,1.0070014E0,1.0814006E0,6.136123E0,1.0551728E0,4.3012023E0,1.3165087E0,1.1302251E0,3.170977E0],"tree_param":{"num_deleted":"0","num_feature":"10000","num_nodes":"19","size_leaf_vector":"1"}},{"base_weights":[2.6478404E-1,6.0290504E-2,1.94155E-1,1.1236306E0,-3.7892553E-1,1.2528327E-1,2.820054E-2,-5.991628E-1,1.2595025E-1,-7.738283E-1,4.4645187E-2,-9.301917E-2,4.457333E-2],"categories":[],"categories_nodes":[],"categories_segments":[],"categories_sizes":[],"default_left":[1,0,0,1,1,0,0,1,0,1,0,0,0],"id":18,"left_children":[1,3,-1,5,7,-1,-1,9,-1,11,-1,-1,-1],"loss_changes":[6.838298E0,9.351644E0,0E0,2.8160238E-1,5.9049406E0,0E0,0E0,2.7670703E0,0E0,2.6509576E0,0E0,0E0,0E0],"parents":[2147483647,0,0,1,1,3,3,4,4,7,7,9,9],"right_children":[2,4,-1,6,8,-1,-1,10,-1,12,-1,-1,-1],"split_conditions":[3.0695993E-2,8.600195E-1,1.94155E-1,1.2124163E-1,6.326655E-2,1.2528327E-1,2.820054E-2,4.3567467E-2,1.2595025E-1,8.4821E-2,4.4645187E-2,-9.301917E-2,4.457333E-2],"split_indices":[5628,2508,0,308,7584,0,0,9761,0,6466,0,0,0],"split_type":[0,0,0,0,0,0,0,0,0,0,0,0,0],"sum_hessian":[1.928464E1,1.811174E1,1.1728992E0,4.8387885E0,1.3272951E1,3.7712572E0,1.0675315E0,1.22593565E1,1.0135951E0,1.0727331E1,1.5320253E0,9.718561E0,1.0087699E0],"tree_param":{"num_deleted":"0","num_feature":"10000","num_nodes":"13","size_leaf_vector":"1"}},{"base_weights":[2.220269E-1,1.3524888E-1,1.8171396E-2,1.2906785E-1,-2.0804387E-1,1.10712826E-1,-4.0359542E-1,-6.1026484E-1,8.7681375E-2,-7.4612397E-1,4.7494415E-2,1.6637823E-2,-8.610596E-2],"categories":[],"categories_nodes":[],"categories_segments":[],"categories_sizes":[],"default_left":[0,0,0,0,0,0,1,1,0,0,0,0,0],"id":19,"left_children":[1,-1,3,-1,5,-1,7,9,-1,11,-1,-1,-1],"loss_changes":[4.260995E0,0E0,5.0956326E0,0E0,4.330062E0,0E0,4.2073536E0,2.2029753E0,0E0,1.3527579E0,0E0,0E0,0E0],"parents":[2147483647,0,0,2,2,4,4,6,6,7,7,9,9],"right_children":[2,-1,4,-1,6,-1,8,10,-1,12,-1,-1,-1],"split_conditions":[1.0978472E-1,1.3524888E-1,6.648164E-1,1.2906785E-1,2.5407395E-1,1.10712826E-1,1.18489966E-1,4.2801045E-2,8.7681375E-2,7.9734795E-2,4.7494415E-2,1.6637823E-2,-8.610596E-2],"split_indices":[8837,0,2332,0,748,0,2508,2728,0,9829,0,0,0],"split_type":[0,0,0,0,0,0,0,0,0,0,0,0,0],"sum_hessian":[1.7596462E1,1.8275278E0,1.5768935E1,1.6698961E0,1.4099039E1,1.2216079E0,1.2877431E1,1.1538411E1,1.3390192E0,1.0532314E1,1.0060977E0,1.1281414E0,9.404173E0],"tree_param":{"num_deleted":"0","num_feature":"10000","num_nodes":"13","size_leaf_vector":"1"}},{"base_weights":[1.3023451E-1,-5.5384744E-2,1.579868E-1,8.707435E-1,-3.4318346E-1,2.3773426E-2,9.970176E-2,5.5276155E-1,-5.897112E-1,1.0168009E-1,-1.7624145E-2,-7.450083E-1,4.7180902E-2,-1.6535514E-3,-8.246422E-1,-9.136363E-2,-6.2010265E-3],"categories":[],"categories_nodes":[],"categories_segments":[],"categories_sizes":[],"default_left":[1,0,0,0,0,0,0,0,1,0,0,0,0,0,1,0,0],"id":20,"left_children":[1,3,-1,5,7,-1,-1,9,11,-1,-1,13,-1,-1,15,-1,-1],"loss_changes":[4.8323407E0,4.7228575E0,0E0,1.00114584E-1,3.2813487E0,0E0,0E0,1.3305365E0,2.1610498E0,0E0,0E0,5.643687E-1,0E0,0E0,5.5155087E-1,0E0,0E0],"parents":[2147483647,0,0,1,1,3,3,4,4,7,7,8,8,11,11,14,14],"right_children":[2,4,-1,6,8,-1,-1,10,12,-1,-1,14,-1,-1,16,-1,-1],"split_conditions":[4.3928605E-2,8.600195E-1,1.579868E-1,6.4078234E-2,8.416584E-2,2.3773426E-2,9.970176E-2,5.18404E-2,2.7358634E-2,1.0168009E-1,-1.7624145E-2,3.2010157E-2,4.7180902E-2,-1.6535514E-3,5.465685E-2,-9.136363E-2,-6.2010265E-3],"split_indices":[6203,2508,0,3548,1967,0,0,4063,9833,0,0,2412,0,0,6466,0,0],"split_type":[0,0,0,0,0,0,0,0,0,0,0,0,0,0,0,0,0],"sum_hessian":[1.6633574E1,1.55981E1,1.0354748E0,3.2177951E0,1.2380304E1,1.0145525E0,2.2032428E0,2.4034317E0,9.976873E0,1.2273754E0,1.1760561E0,8.963683E0,1.01319E0,1.0023211E0,7.961362E0,6.9520936E0,1.009268E0],"tree_param":{"num_deleted":"0","num_feature":"10000","num_nodes":"17","size_leaf_vector":"1"}},{"base_weights":[3.7793204E-1,6.0537094E-1,-5.975909E-1,-4.0390715E-2,7.638554E-1,-6.803002E-2,-1.7788302E-2,4.8389864E-1,1.7501004E-1,2.2287156E-1,1.4366391E-1,1.261501E-1,-1.0416239E-1,7.547819E-2,-5.6132503E-2],"categories":[],"categories_nodes":[],"categories_segments":[],"categories_sizes":[],"default_left":[1,0,1,0,1,0,0,1,0,0,0,0,0,0,0],"id":21,"left_children":[1,3,5,-1,7,-1,-1,9,-1,11,-1,-1,13,-1,-1],"loss_changes":[4.4473524E0,2.7765422E0,1.731062E-2,0E0,2.9306188E0,0E0,0E0,2.6736906E0,0E0,3.7431514E0,0E0,0E0,3.9619396E0,0E0,0E0],"parents":[2147483647,0,0,1,1,2,2,4,4,7,7,9,9,12,12],"right_children":[2,4,6,-1,8,-1,-1,10,-1,12,-1,-1,14,-1,-1],"split_conditions":[2.2067096E-2,1.0497599E-1,2.004039E-2,-4.0390715E-2,3.3172235E-2,-6.803002E-2,-1.7788302E-2,6.9851905E-2,1.7501004E-1,2.5407395E-1,1.4366391E-1,1.261501E-1,4.3000475E-1,7.547819E-2,-5.6132503E-2],"split_indices":[7950,5690,1179,0,2958,0,0,7584,0,748,0,0,2508,0,0],"split_type":[0,0,0,0,0,0,0,0,0,0,0,0,0,0,0],"sum_hessian":[1.7414177E1,1.4429452E1,2.9847238E0,1.7481475E0,1.2681305E1,1.9746938E0,1.0100302E0,1.1038539E1,1.642766E0,9.633207E0,1.4053314E0,1.6225953E0,8.0106125E0,2.5564287E0,5.4541836E0],"tree_param":{"num_deleted":"0","num_feature":"10000","num_nodes":"15","size_leaf_vector":"1"}},{"base_weights":[2.021284E-1,1.0278117E-3,1.5627587E-1,-4.2114285E-1,4.6894774E-1,-5.9504914E-1,4.479125E-2,-4.373443E-2,7.764165E-1,-6.807403E-1,-1.5560061E-3,1.0183926E-1,6.5543293E-3,-1.8780068E-2,-8.1127584E-2],"categories":[],"categories_nodes":[],"categories_segments":[],"categories_sizes":[],"default_left":[1,1,0,1,0,1,0,0,1,0,0,0,0,0,0],"id":22,"left_children":[1,3,-1,5,7,9,-1,-1,11,13,-1,-1,-1,-1,-1],"loss_changes":[4.5481696E0,3.2569056E0,0E0,1.5766463E0,2.518329E0,3.6941385E-1,0E0,0E0,9.9948025E-1,2.7511716E-1,0E0,0E0,0E0,0E0,0E0],"parents":[2147483647,0,0,1,1,3,3,4,4,5,5,8,8,9,9],"right_children":[2,4,-1,6,8,10,-1,-1,12,14,-1,-1,-1,-1,-1],"split_conditions":[6.459258E-2,2.9873332E-2,1.5627587E-1,6.0577087E-2,6.4078234E-2,2.7705625E-2,4.479125E-2,-4.373443E-2,5.442319E-2,5.649223E-2,-1.5560061E-3,1.0183926E-1,6.5543293E-3,-1.8780068E-2,-8.1127584E-2],"split_indices":[3168,8786,0,3548,3548,4212,0,0,8626,1167,0,0,0,0,0],"split_type":[0,0,0,0,0,0,0,0,0,0,0,0,0,0,0],"sum_hessian":[1.5627868E1,1.4487393E1,1.1404752E0,7.6685643E0,6.8188286E0,6.652606E0,1.0159581E0,1.6203368E0,5.198492E0,5.6433744E0,1.0092316E0,3.5555983E0,1.6428936E0,1.6921234E0,3.9512513E0],"tree_param":{"num_deleted":"0","num_feature":"10000","num_nodes":"15","size_leaf_vector":"1"}},{"base_weights":[3.116806E-1,5.032323E-1,-7.046523E-2,7.0230544E-1,-4.9713414E-2,1.7694801E-1,1.1439106E0,7.2104096E-1,-2.7921608E-1,1.3662119E-1,2.0927198E-2,8.507741E-2,2.0185446E-2,4.0110085E-2,-7.150414E-2],"categories":[],"categories_nodes":[],"categories_segments":[],"categories_sizes":[],"default_left":[1,1,0,0,0,0,1,1,0,0,0,0,0,0,0],"id":23,"left_children":[1,3,-1,5,-1,7,9,11,13,-1,-1,-1,-1,-1,-1],"loss_changes":[3.833034E0,3.4592593E0,0E0,2.9156103E0,0E0,2.0183227E0,1.1931944E0,7.194555E-2,1.6812519E0,0E0,0E0,0E0,0E0,0E0,0E0],"parents":[2147483647,0,0,1,1,3,3,5,5,6,6,7,7,8,8],"right_children":[2,4,-1,6,-1,8,10,12,14,-1,-1,-1,-1,-1,-1],"split_conditions":[3.3952776E-2,2.0694274E-2,-7.046523E-2,2.6854607E-1,-4.9713414E-2,3.72288E-1,2.2584692E-2,5.3620405E-2,5.5171322E-2,1.3662119E-1,2.0927198E-2,8.507741E-2,2.0185446E-2,4.0110085E-2,-7.150414E-2],"split_indices":[6602,7950,0,8626,0,2508,105,9874,4869,0,0,0,0,0,0],"split_type":[0,0,0,0,0,0,0,0,0,0,0,0,0,0,0],"sum_hessian":[1.6867393E1,1.4617279E1,2.2501137E0,1.2439724E1,2.1775556E0,6.320823E0,6.1189003E0,2.6177828E0,3.7030404E0,4.5701485E0,1.5487521E0,1.5834469E0,1.034336E0,1.4770546E0,2.2259858E0],"tree_param":{"num_deleted":"0","num_feature":"10000","num_nodes":"15","size_leaf_vector":"1"}},{"base_weights":[1.01377666E-1,7.11966E-1,-2.0187083E-1,9.9677585E-2,-2.449773E-3,6.9456905E-2,-3.815541E-1,5.761236E-2,-5.817396E-1,-8.1954196E-2,5.2932918E-2],"categories":[],"categories_nodes":[],"categories_segments":[],"categories_sizes":[],"default_left":[0,1,0,0,0,0,0,0,1,0,0],"id":24,"left_children":[1,3,5,-1,-1,-1,7,-1,9,-1,-1],"loss_changes":[3.083408E0,1.1758235E0,2.0991936E0,0E0,0E0,0E0,2.277437E0,0E0,2.779285E0,0E0,0E0],"parents":[2147483647,0,0,1,1,2,2,6,6,8,8],"right_children":[2,4,6,-1,-1,-1,8,-1,10,-1,-1],"split_conditions":[7.8362435E-2,3.1150691E-2,2.0884804E-1,9.9677585E-2,-2.449773E-3,6.9456905E-2,1.2445078E-1,5.761236E-2,7.4253954E-2,-8.1954196E-2,5.2932918E-2],"split_indices":[3060,8588,7488,0,0,0,7111,0,4551,0,0],"split_type":[0,0,0,0,0,0,0,0,0,0,0],"sum_hessian":[1.4876449E1,4.489361E0,1.0387088E1,2.9824913E0,1.5068697E0,1.2558972E0,9.131191E0,1.2540289E0,7.877162E0,6.704566E0,1.172596E0],"tree_param":{"num_deleted":"0","num_feature":"10000","num_nodes":"11","size_leaf_vector":"1"}},{"base_weights":[3.247783E-1,-7.1436994E-2,5.4757273E-1,-3.2181668E-1,7.604764E-1,-6.20237E-2,2.1304E-2,9.705475E-1,-3.8552016E-2,1.1422852E0,6.53173E-4,1.236932E0,3.8044363E-2,3.375377E-2,1.357532E-1],"categories":[],"categories_nodes":[],"categories_segments":[],"categories_sizes":[],"default_left":[0,0,0,1,1,0,0,1,0,1,0,0,0,0,0],"id":25,"left_children":[1,-1,3,5,7,-1,-1,9,-1,11,-1,13,-1,-1,-1],"loss_changes":[4.241384E0,0E0,2.884284E0,6.920382E-1,3.2034779E0,0E0,0E0,1.6839132E0,0E0,1.5426254E-1,0E0,3.2966995E-1,0E0,0E0,0E0],"parents":[2147483647,0,0,2,2,3,3,4,4,7,7,9,9,11,11],"right_children":[2,-1,4,6,8,-1,-1,10,-1,12,-1,14,-1,-1,-1],"split_conditions":[6.429738E-1,-7.1436994E-2,2.9305023E-1,1.9250387E-2,5.9513196E-2,-6.20237E-2,2.1304E-2,4.80214E-2,-3.8552016E-2,2.1914274E-2,6.53173E-4,1.2016859E-1,3.8044363E-2,3.375377E-2,1.357532E-1],"split_indices":[6602,0,1488,1254,2465,0,0,8626,0,6366,0,2824,0,0,0],"split_type":[0,0,0,0,0,0,0,0,0,0,0,0,0,0,0],"sum_hessian":[1.5630416E1,2.3699925E0,1.3260424E1,2.5078971E0,1.0752526E1,1.5072842E0,1.000613E0,9.216212E0,1.536314E0,7.6656637E0,1.5505483E0,6.2638683E0,1.4017957E0,1.1897706E0,5.0740976E0],"tree_param":{"num_deleted":"0","num_feature":"10000","num_nodes":"15","size_leaf_vector":"1"}},{"base_weights":[2.6308724E-1,-2.0653315E-1,6.72649E-1,-4.4456068E-1,5.9257366E-2,1.268999E-1,1.2060844E0,2.8354708E-2,-6.1079186E-1,-4.1081882E-1,7.300375E-2,2.6122674E-2,1.422682E-1,-8.186437E-2,2.182231E-2,-6.337566E-2,8.538168E-3],"categories":[],"categories_nodes":[],"categories_segments":[],"categories_sizes":[],"default_left":[1,1,0,0,0,1,1,0,1,1,0,0,0,0,0,0,0],"id":26,"left_children":[1,3,5,7,-1,9,11,-1,13,15,-1,-1,-1,-1,-1,-1,-1],"loss_changes":[3.3325853E0,1.8802401E0,2.4973907E0,1.0350325E0,0E0,2.121858E0,5.465312E-1,0E0,1.232197E0,4.5343983E-1,0E0,0E0,0E0,0E0,0E0,0E0,0E0],"parents":[2147483647,0,0,1,1,2,2,3,3,5,5,6,6,8,8,9,9],"right_children":[2,4,6,8,-1,10,12,-1,14,16,-1,-1,-1,-1,-1,-1,-1],"split_conditions":[2.9873332E-2,3.0705463E-2,1.63026E-1,6.615509E-2,5.9257366E-2,2.6174443E-2,5.593128E-2,2.8354708E-2,4.904157E-2,3.5960816E-2,7.300375E-2,2.6122674E-2,1.422682E-1,-8.186437E-2,2.182231E-2,-6.337566E-2,8.538168E-3],"split_indices":[8786,3548,8626,723,0,9233,8869,0,4063,6985,0,0,0,0,0,0,0],"split_type":[0,0,0,0,0,0,0,0,0,0,0,0,0,0,0,0,0],"sum_hessian":[1.5604371E1,7.5001326E0,8.1042385E0,6.120666E0,1.3794663E0,4.617767E0,3.4864714E0,1.0064749E0,5.114191E0,2.6098533E0,2.0079136E0,1.0615866E0,2.4248848E0,4.0989957E0,1.0151957E0,1.6095018E0,1.0003514E0],"tree_param":{"num_deleted":"0","num_feature":"10000","num_nodes":"17","size_leaf_vector":"1"}},{"base_weights":[2.3685628E-1,4.3179396E-1,-5.8215197E-2,5.732164E-1,-5.644867E-2,-3.333607E-2,7.0234346E-1,8.695087E-1,-1.4157737E-2,-1.1670899E-2,1.1193677E0,-5.4732203E-2,5.6454476E-2,1.255795E-1,1.3647099E-2],"categories":[],"categories_nodes":[],"categories_segments":[],"categories_sizes":[],"default_left":[1,1,0,0,0,0,1,0,0,1,1,0,0,0,0],"id":27,"left_children":[1,3,-1,5,-1,-1,7,9,-1,11,13,-1,-1,-1,-1],"loss_changes":[2.915385E0,2.3034723E0,0E0,1.7327332E0,0E0,0E0,1.7493205E0,2.1622758E0,0E0,1.2800397E0,8.498049E-1,0E0,0E0,0E0,0E0],"parents":[2147483647,0,0,1,1,3,3,6,6,7,7,9,9,10,10],"right_children":[2,4,-1,6,-1,-1,8,10,-1,12,14,-1,-1,-1,-1],"split_conditions":[2.0694274E-2,3.3952776E-2,-5.8215197E-2,6.964082E-1,-5.644867E-2,-3.333607E-2,4.7396038E-2,1.3440937E-1,-1.4157737E-2,1.0864469E-1,4.9296953E-2,-5.4732203E-2,5.6454476E-2,1.255795E-1,1.3647099E-2],"split_indices":[7950,6602,0,5388,0,0,287,1488,0,8786,1326,0,0,0,0],"split_type":[0,0,0,0,0,0,0,0,0,0,0,0,0,0,0],"sum_hessian":[1.5686016E1,1.3052166E1,2.6338499E0,1.1801573E1,1.2505938E0,1.2741761E0,1.0527396E1,8.76157E0,1.7658263E0,2.1461208E0,6.6154494E0,1.1381956E0,1.007925E0,5.565328E0,1.0501211E0],"tree_param":{"num_deleted":"0","num_feature":"10000","num_nodes":"15","size_leaf_vector":"1"}},{"base_weights":[8.1703275E-2,-6.4757854E-2,3.2656595E-1,-1.5695931E-1,7.6533306E-1,-4.5221874E-1,7.5237244E-2,5.360284E-3,9.040322E-1,-7.7942014E-2,3.4710612E-2,9.899754E-2,2.6239816E-2],"categories":[],"categories_nodes":[],"categories_segments":[],"categories_sizes":[],"default_left":[0,0,1,1,0,1,0,0,1,0,0,0,0],"id":28,"left_children":[1,-1,3,5,7,9,-1,-1,11,-1,-1,-1,-1],"loss_changes":[2.9639785E0,0E0,2.7092915E0,2.121861E0,5.9994745E-1,1.7440162E0,0E0,0E0,3.989029E-2,0E0,0E0,0E0,0E0],"parents":[2147483647,0,0,2,2,3,3,4,4,5,5,8,8],"right_children":[2,-1,4,6,8,10,-1,-1,12,-1,-1,-1,-1],"split_conditions":[9.584351E-2,-6.4757854E-2,2.9873332E-2,1.3646129E-1,3.2607794E-1,5.08372E-2,7.5237244E-2,5.360284E-3,2.117556E-2,-7.7942014E-2,3.4710612E-2,9.899754E-2,2.6239816E-2],"split_indices":[2412,0,8786,2958,4212,4063,0,0,5127,0,0,0,0],"split_type":[0,0,0,0,0,0,0,0,0,0,0,0,0],"sum_hessian":[1.44137945E1,3.2096722E0,1.1204123E1,5.635749E0,5.5683737E0,4.6338363E0,1.0019126E0,1.1342863E0,4.4340873E0,3.3056002E0,1.3282362E0,3.431553E0,1.0025343E0],"tree_param":{"num_deleted":"0","num_feature":"10000","num_nodes":"13","size_leaf_vector":"1"}},{"base_weights":[1.7927048E-1,3.1630033E-1,-6.3228406E-2,-4.5720827E-2,4.6738243E-1,5.937788E-1,-4.4477787E-2,-2.9925678E-2,7.132133E-1,3.304112E-1,1.0160946E0,2.0053869E-3,8.991526E-2,3.458416E-2,1.1415942E-1],"categories":[],"categories_nodes":[],"categories_segments":[],"categories_sizes":[],"default_left":[1,0,0,0,1,0,0,0,1,1,1,0,0,0,0],"id":29,"left_children":[1,3,-1,-1,5,7,-1,-1,9,11,13,-1,-1,-1,-1],"loss_changes":[1.9862572E0,1.897541E0,0E0,0E0,1.7108936E0,1.4346609E0,0E0,0E0,8.694711E-1,1.0540102E0,5.2795887E-2,0E0,0E0,0E0,0E0],"parents":[2147483647,0,0,1,1,4,4,5,5,8,8,9,9,10,10],"right_children":[2,4,-1,-1,6,8,-1,-1,10,12,14,-1,-1,-1,-1],"split_conditions":[3.3952776E-2,1.0497599E-1,-6.3228406E-2,-4.5720827E-2,6.584481E-2,4.6602193E-2,-4.4477787E-2,-2.9925678E-2,2.9873332E-2,4.989866E-2,3.0204143E-2,2.0053869E-3,8.991526E-2,3.458416E-2,1.1415942E-1],"split_indices":[6602,5690,0,0,8588,6366,0,0,8786,9452,4869,0,0,0,0],"split_type":[0,0,0,0,0,0,0,0,0,0,0,0,0,0,0],"sum_hessian":[1.5062503E1,1.3408714E1,1.6537888E0,1.859948E0,1.1548766E1,1.0449798E1,1.0989683E0,1.0550871E0,9.394711E0,5.073441E0,4.3212695E0,3.9520833E0,1.1213579E0,1.2738367E0,3.0474327E0],"tree_param":{"num_deleted":"0","num_feature":"10000","num_nodes":"15","size_leaf_vector":"1"}},{"base_weights":[9.119117E-2,-5.7067122E-2,9.9737145E-2,-2.266075E-1,8.572658E-2,7.802797E-2,-4.0565434E-1,-5.588556E-1,5.7345983E-2,-6.7922527E-1,2.5898924E-2,-8.393592E-2,1.8429449E-2],"categories":[],"categories_nodes":[],"categories_segments":[],"categories_sizes":[],"default_left":[1,1,0,0,0,0,1,1,0,1,0,0,0],"id":30,"left_children":[1,3,-1,5,-1,-1,7,9,-1,11,-1,-1,-1],"loss_changes":[2.0658708E0,2.3329716E0,0E0,2.5573149E0,0E0,0E0,2.0021334E0,1.1800897E0,0E0,1.4224124E0,0E0,0E0,0E0],"parents":[2147483647,0,0,1,1,3,3,6,6,7,7,9,9],"right_children":[2,4,-1,6,-1,-1,8,10,-1,12,-1,-1,-1],"split_conditions":[6.9851905E-2,1.0458161E-1,9.9737145E-2,1.550601E-1,8.572658E-2,7.802797E-2,3.2438833E-2,3.2786883E-2,5.7345983E-2,6.449055E-2,2.5898924E-2,-8.393592E-2,1.8429449E-2],"split_indices":[7584,748,0,343,0,0,6994,4958,0,9233,0,0,0],"split_type":[0,0,0,0,0,0,0,0,0,0,0,0,0],"sum_hessian":[1.3953274E1,1.2796663E1,1.1566112E0,1.1429505E1,1.3671576E0,1.2186041E0,1.0210901E1,9.200525E0,1.0103759E0,8.167878E0,1.032647E0,6.913749E0,1.2541289E0],"tree_param":{"num_deleted":"0","num_feature":"10000","num_nodes":"13","size_leaf_vector":"1"}},{"base_weights":[8.320972E-2,-8.658463E-2,9.921508E-2,-2.958879E-1,9.002282E-2,5.3348756E-1,-5.2518654E-1,6.519496E-2,1.4940857E-2,4.7135476E-2,-7.266849E-1,2.311906E-2,-8.8489905E-2],"categories":[],"categories_nodes":[],"categories_segments":[],"categories_sizes":[],"default_left":[1,1,0,0,0,1,0,0,0,0,0,0,0],"id":31,"left_children":[1,3,-1,5,-1,7,9,-1,-1,-1,11,-1,-1],"loss_changes":[2.4097447E0,3.0767992E0,0E0,2.558206E0,0E0,4.320836E-2,2.3280647E0,0E0,0E0,0E0,1.5106983E0,0E0,0E0],"parents":[2147483647,0,0,1,1,3,3,5,5,6,6,10,10],"right_children":[2,4,-1,6,-1,8,10,-1,-1,-1,12,-1,-1],"split_conditions":[6.9851905E-2,6.459258E-2,9.921508E-2,4.3000475E-1,9.002282E-2,1.1964563E-1,2.1721809E-1,6.519496E-2,1.4940857E-2,4.7135476E-2,4.5527775E-2,2.311906E-2,-8.8489905E-2],"split_indices":[7584,3168,0,2508,0,308,9545,0,0,0,716,0,0],"split_type":[0,0,0,0,0,0,0,0,0,0,0,0,0],"sum_hessian":[1.4057305E1,1.2607001E1,1.4503042E0,1.0978596E1,1.628405E0,2.0905287E0,8.888067E0,1.0647048E0,1.0258238E0,1.2696363E0,7.618431E0,1.0145842E0,6.6038465E0],"tree_param":{"num_deleted":"0","num_feature":"10000","num_nodes":"13","size_leaf_vector":"1"}},{"base_weights":[1.3682842E-1,1.1560782E-1,-3.5237964E-2,6.851894E-1,-3.0748463E-1,1.3528923E-2,8.3247E-2,-7.810788E-2,2.5211476E-2,9.170116E-2,-3.6726552E-1,-7.541267E-2,3.053672E-2],"categories":[],"categories_nodes":[],"categories_segments":[],"categories_sizes":[],"default_left":[0,0,0,0,0,0,0,0,0,0,1,0,0],"id":32,"left_children":[1,-1,3,5,7,-1,-1,-1,9,-1,11,-1,-1],"loss_changes":[2.561583E0,0E0,2.8130097E0,2.071718E-1,1.6456609E0,0E0,0E0,0E0,2.7974114E0,0E0,1.6863847E0,0E0,0E0],"parents":[2147483647,0,0,2,2,3,3,4,4,8,8,10,10],"right_children":[2,-1,4,6,8,-1,-1,-1,10,-1,12,-1,-1],"split_conditions":[2.0155992E-1,1.1560782E-1,4.3000475E-1,3.946872E-2,1.6588674E-1,1.3528923E-2,8.3247E-2,-7.810788E-2,1.2744153E-1,9.170116E-2,2.6922233E-2,-7.541267E-2,3.053672E-2],"split_indices":[5628,0,2508,8626,8626,0,0,0,6466,0,1167,0,0],"split_type":[0,0,0,0,0,0,0,0,0,0,0,0,0],"sum_hessian":[1.337373E1,1.1056322E0,1.2268098E1,2.9486072E0,9.31949E0,1.0282015E0,1.9204057E0,3.2893562E0,6.0301347E0,1.4343903E0,4.595744E0,2.840747E0,1.7549973E0],"tree_param":{"num_deleted":"0","num_feature":"10000","num_nodes":"13","size_leaf_vector":"1"}},{"base_weights":[2.520567E-1,3.9275452E-1,-5.9870597E-2,-3.687906E-2,5.467663E-1,-3.078599E-2,6.9148064E-1,8.7086E-1,-2.005368E-2,9.538813E-1,1.7817758E-2,1.2365985E-1,5.713588E-2],"categories":[],"categories_nodes":[],"categories_segments":[],"categories_sizes":[],"default_left":[1,0,0,0,0,0,1,1,0,0,0,0,0],"id":33,"left_children":[1,3,-1,-1,5,-1,7,9,-1,11,-1,-1,-1],"loss_changes":[1.9661065E0,1.7278404E0,0E0,0E0,1.6013236E0,0E0,1.7601371E0,3.152275E-1,0E0,8.338499E-2,0E0,0E0,0E0],"parents":[2147483647,0,0,1,1,4,4,6,6,7,7,9,9],"right_children":[2,4,-1,-1,6,-1,8,10,-1,12,-1,-1,-1],"split_conditions":[3.3952776E-2,2.9305023E-1,-5.9870597E-2,-3.687906E-2,3.5888582E-1,-3.078599E-2,4.7396038E-2,4.4115163E-2,-2.005368E-2,1.2891544E-1,1.7817758E-2,1.2365985E-1,5.713588E-2],"split_indices":[6602,1488,0,0,7950,0,287,1779,0,4551,0,0,0],"split_type":[0,0,0,0,0,0,0,0,0,0,0,0,0],"sum_hessian":[1.3460781E1,1.2012519E1,1.4482622E0,1.7861155E0,1.0226403E1,1.3176309E0,8.908772E0,7.436963E0,1.4718095E0,6.3042808E0,1.132682E0,2.3411918E0,3.9630892E0],"tree_param":{"num_deleted":"0","num_feature":"10000","num_nodes":"13","size_leaf_vector":"1"}},{"base_weights":[1.7834961E-1,3.2834905E-1,-6.2436294E-2,-3.5580795E-2,4.439311E-1,-3.3425283E-2,5.5273634E-1,6.7702895E-1,-1.0816319E-2,2.368087E-1,9.493443E-1,-7.85519E-3,6.705716E-2,2.1162072E-2,1.0824776E-1],"categories":[],"categories_nodes":[],"categories_segments":[],"categories_sizes":[],"default_left":[1,0,0,0,0,0,1,1,0,1,0,0,0,0,0],"id":34,"left_children":[1,3,-1,-1,5,-1,7,9,-1,11,13,-1,-1,-1,-1],"loss_changes":[1.9280614E0,1.1632171E0,0E0,0E0,1.1432409E0,0E0,9.2001295E-1,8.3184433E-1,0E0,6.95734E-1,2.7313852E-1,0E0,0E0,0E0,0E0],"parents":[2147483647,0,0,1,1,4,4,6,6,7,7,9,9,10,10],"right_children":[2,4,-1,-1,6,-1,8,10,-1,12,14,-1,-1,-1,-1],"split_conditions":[2.0694274E-2,4.422044E-2,-6.2436294E-2,-3.5580795E-2,8.9989305E-2,-3.3425283E-2,8.5604966E-2,2.9873332E-2,-1.0816319E-2,4.234694E-2,1.1256818E-1,-7.85519E-3,6.705716E-2,2.1162072E-2,1.0824776E-1],"split_indices":[7950,2412,0,0,4641,0,4063,8786,0,4063,1488,0,0,0,0],"split_type":[0,0,0,0,0,0,0,0,0,0,0,0,0,0,0],"sum_hessian":[1.3310303E1,1.1712575E1,1.5977278E0,1.3923762E0,1.0320199E1,1.0117873E0,9.308412E0,7.814388E0,1.4940238E0,3.7010107E0,4.113377E0,2.6171548E0,1.083856E0,1.0247164E0,3.0886605E0],"tree_param":{"num_deleted":"0","num_feature":"10000","num_nodes":"15","size_leaf_vector":"1"}},{"base_weights":[2.0591435E-1,3.996116E-2,1.0983533E-1,6.102268E-1,-1.46756E-1,1.28915E-2,7.5216435E-2,-6.442673E-1,1.577956E-1,-7.254105E-2,-1.8099217E-2,-2.2676311E-1,6.131258E-1,4.4285953E-2,-5.0822593E-2,1.6209621E-2,8.115231E-2],"categories":[],"categories_nodes":[],"categories_segments":[],"categories_sizes":[],"default_left":[1,0,0,0,0,0,0,1,1,0,0,0,1,0,0,0,0],"id":35,"left_children":[1,3,-1,5,7,-1,-1,9,11,-1,-1,13,15,-1,-1,-1,-1],"loss_changes":[2.2176363E0,1.5710332E0,0E0,1.5073228E-1,1.8119463E0,0E0,0E0,3.722155E-2,1.5056797E0,0E0,0E0,1.1601453E0,2.1239269E-1,0E0,0E0,0E0,0E0],"parents":[2147483647,0,0,1,1,3,3,4,4,7,7,8,8,11,11,12,12],"right_children":[2,4,-1,6,8,-1,-1,10,12,-1,-1,14,16,-1,-1,-1,-1],"split_conditions":[3.0695993E-2,8.600195E-1,1.0983533E-1,4.1350674E-2,1.6588674E-1,1.28915E-2,7.5216435E-2,3.143029E-2,2.9873332E-2,-7.254105E-2,-1.8099217E-2,1.2353851E-1,5.915292E-2,4.4285953E-2,-5.0822593E-2,1.6209621E-2,8.115231E-2],"split_indices":[5628,2508,0,8626,8626,0,0,2135,8786,0,0,9452,8869,0,0,0,0],"split_type":[0,0,0,0,0,0,0,0,0,0,0,0,0,0,0,0,0],"sum_hessian":[1.4269956E1,1.2913423E1,1.3565336E0,2.62575E0,1.0287672E1,1.0325643E0,1.5931857E0,3.482783E0,6.804889E0,2.4821937E0,1.0005895E0,3.9612842E0,2.8436048E0,1.0025992E0,2.958685E0,1.4238045E0,1.4198004E0],"tree_param":{"num_deleted":"0","num_feature":"10000","num_nodes":"17","size_leaf_vector":"1"}},{"base_weights":[2.0125532E-1,9.9398844E-2,5.011494E-2,4.3656635E-1,-2.559219E-1,-3.886185E-2,7.1096766E-1,3.946243E-1,-6.19999E-2,9.583132E-3,8.8989146E-2,6.610774E-2,-1.4693849E-3],"categories":[],"categories_nodes":[],"categories_segments":[],"categories_sizes":[],"default_left":[0,0,0,0,0,0,0,0,0,0,0,0,0],"id":36,"left_children":[1,-1,3,5,7,-1,9,11,-1,-1,-1,-1,-1],"loss_changes":[1.616935E0,0E0,1.6180724E0,1.634521E0,2.0774713E0,0E0,4.4906473E-1,3.7920004E-1,0E0,0E0,0E0,0E0,0E0],"parents":[2147483647,0,0,2,2,3,3,4,4,6,6,7,7],"right_children":[2,-1,4,6,8,-1,10,12,-1,-1,-1,-1,-1],"split_conditions":[2.1043797E-1,9.9398844E-2,8.5604966E-2,3.7684288E-2,1.6092966E-1,-3.886185E-2,6.623175E-2,5.6207005E-2,-6.19999E-2,9.583132E-3,8.8989146E-2,6.610774E-2,-1.4693849E-3],"split_indices":[5628,0,4063,6985,2958,0,8869,9761,0,0,0,0,0],"split_type":[0,0,0,0,0,0,0,0,0,0,0,0,0],"sum_hessian":[1.2911138E1,1.1744646E0,1.1736672E1,4.998388E0,6.738285E0,1.1434729E0,3.8549147E0,2.387791E0,4.3504944E0,1.2146323E0,2.6402824E0,1.0737463E0,1.3140445E0],"tree_param":{"num_deleted":"0","num_feature":"10000","num_nodes":"13","size_leaf_vector":"1"}},{"base_weights":[1.445046E-1,-4.4132856E-1,2.9430595E-1,-6.210615E-2,-2.5688766E-3,-1.6536692E-2,5.7922566E-1,6.882507E-2,-3.1065E-1,-2.700421E-3,7.298352E-1,-5.4024477E-2,3.2968726E-2,8.8972874E-2,3.2536667E-2],"categories":[],"categories_nodes":[],"categories_segments":[],"categories_sizes":[],"default_left":[0,1,1,0,0,0,0,0,1,0,0,0,0,0,0],"id":37,"left_children":[1,3,5,-1,-1,7,9,-1,11,-1,13,-1,-1,-1,-1],"loss_changes":[1.3258953E0,2.2125381E-1,1.0239253E0,0E0,0E0,1.5507301E0,5.678508E-1,0E0,9.4843096E-1,0E0,2.3813963E-2,0E0,0E0,0E0,0E0],"parents":[2147483647,0,0,1,1,2,2,5,5,6,6,8,8,10,10],"right_children":[2,4,6,-1,-1,8,10,-1,12,-1,14,-1,-1,-1,-1],"split_conditions":[6.015332E-2,1.711037E-2,3.2359727E-2,-6.210615E-2,-2.5688766E-3,5.7508506E-2,1.4513506E-1,6.882507E-2,5.5473212E-2,-2.700421E-3,4.4293895E-2,-5.4024477E-2,3.2968726E-2,8.8972874E-2,3.2536667E-2],"split_indices":[9874,4551,8786,0,0,2728,2135,0,4063,0,8786,0,0,0,0],"split_type":[0,0,0,0,0,0,0,0,0,0,0,0,0,0,0],"sum_hessian":[1.2628406E1,2.1752992E0,1.0453107E1,1.1735827E0,1.0017165E0,5.449621E0,5.003485E0,1.2099988E0,4.2396226E0,1.1590012E0,3.844484E0,3.2357478E0,1.0038745E0,1.8954371E0,1.949047E0],"tree_param":{"num_deleted":"0","num_feature":"10000","num_nodes":"15","size_leaf_vector":"1"}},{"base_weights":[9.329008E-2,-3.140394E-2,7.7173054E-2,1.0198896E-1,-5.9705287E-2,-2.6540056E-1,3.5068753E-1,-5.446551E-2,1.0115496E-2,5.154799E-1,-2.713797E-2,6.265866E-3,5.9976923E-1,6.834867E-2,1.5629044E-2],"categories":[],"categories_nodes":[],"categories_segments":[],"categories_sizes":[],"default_left":[1,1,0,0,0,1,1,0,0,0,0,0,1,0,0],"id":38,"left_children":[1,3,-1,5,-1,7,9,-1,-1,11,-1,-1,13,-1,-1],"loss_changes":[1.1296968E0,9.662893E-1,0E0,1.0582733E0,0E0,5.4986465E-1,8.2981837E-1,0E0,0E0,1.7866349E-1,0E0,0E0,6.618261E-2,0E0,0E0],"parents":[2147483647,0,0,1,1,3,3,5,5,6,6,9,9,12,12],"right_children":[2,4,-1,6,-1,8,10,-1,-1,12,-1,-1,14,-1,-1],"split_conditions":[5.1874526E-2,2.0694274E-2,7.7173054E-2,1.6501707E-1,-5.9705287E-2,6.5608315E-2,8.6018845E-2,-5.446551E-2,1.0115496E-2,1.8733644E-1,-2.713797E-2,6.265866E-3,3.728445E-2,6.834867E-2,1.5629044E-2],"split_indices":[5628,7950,0,8626,0,8786,2958,0,0,3548,0,0,6366,0,0],"split_type":[0,0,0,0,0,0,0,0,0,0,0,0,0,0,0],"sum_hessian":[1.206731E1,1.0999388E1,1.067922E0,9.563737E0,1.4356512E0,3.8335197E0,5.7302175E0,1.9000916E0,1.9334282E0,4.6655946E0,1.064623E0,1.0057664E0,3.659828E0,2.6234033E0,1.0364246E0],"tree_param":{"num_deleted":"0","num_feature":"10000","num_nodes":"15","size_leaf_vector":"1"}},{"base_weights":[2.4276717E-1,3.9123172E-1,-5.863982E-2,5.0379294E-1,-2.8110323E-2,-2.6051065E-2,6.195846E-1,-1.4644841E-2,7.4920905E-1,4.070471E-1,1.03230335E-1,8.900916E-2,-6.0127373E-3],"categories":[],"categories_nodes":[],"categories_segments":[],"categories_sizes":[],"default_left":[1,1,0,0,0,0,0,0,1,0,0,0,0],"id":39,"left_children":[1,3,-1,5,-1,-1,7,-1,9,11,-1,-1,-1],"loss_changes":[1.8250325E0,1.0189768E0,0E0,1.0719638E0,0E0,0E0,1.0263374E0,0E0,3.603959E-1,1.2494763E0,0E0,0E0,0E0],"parents":[2147483647,0,0,1,1,3,3,6,6,8,8,9,9],"right_children":[2,4,-1,6,-1,-1,8,-1,10,12,-1,-1,-1],"split_conditions":[2.0694274E-2,1.8259477E-2,-5.863982E-2,9.508409E-2,-2.8110323E-2,-2.6051065E-2,7.60411E-2,-1.4644841E-2,2.6922233E-2,1.2744153E-1,1.03230335E-1,8.900916E-2,-6.0127373E-3],"split_indices":[7950,4212,0,5690,0,0,1871,0,1167,6466,0,0,0],"split_type":[0,0,0,0,0,0,0,0,0,0,0,0,0],"sum_hessian":[1.1961766E1,1.0593186E1,1.3685799E0,9.288759E0,1.3044273E0,1.0576603E0,8.231098E0,1.1724657E0,7.058633E0,4.299677E0,2.758956E0,1.6688597E0,2.6308172E0],"tree_param":{"num_deleted":"0","num_feature":"10000","num_nodes":"13","size_leaf_vector":"1"}},{"base_weights":[2.1609254E-1,7.1856916E-2,9.578479E-2,-4.6329174E-2,2.2902465E-1,-8.309223E-2,4.8252773E-1,-3.290298E-2,4.9201973E-2,-7.373739E-4,6.0295564E-1,-1.7593E-2,1.7934386E-2,6.7396665E-1,1.8113835E-2,8.130689E-2,2.0442087E-2],"categories":[],"categories_nodes":[],"categories_segments":[],"categories_sizes":[],"default_left":[1,0,0,0,1,0,0,0,0,0,1,0,0,0,0,0,0],"id":40,"left_children":[1,3,-1,-1,5,7,9,-1,11,-1,13,-1,-1,15,-1,-1,-1],"loss_changes":[1.3475087E0,1.1292204E0,0E0,0E0,8.3701515E-1,1.9081727E-1,3.410144E-1,0E0,1.5929134E-1,0E0,1.5442252E-2,0E0,0E0,6.645048E-2,0E0,0E0,0E0],"parents":[2147483647,0,0,1,1,4,4,5,5,6,6,8,8,10,10,13,13],"right_children":[2,4,-1,-1,6,8,10,-1,12,-1,14,-1,-1,16,-1,-1,-1],"split_conditions":[5.389657E-2,1.2421439E-1,9.578479E-2,-4.6329174E-2,2.9873332E-2,9.6351266E-2,8.3772756E-2,-3.290298E-2,3.4561414E-1,-7.373739E-4,3.9520204E-2,-1.7593E-2,1.7934386E-2,1.5125838E-1,1.8113835E-2,8.130689E-2,2.0442087E-2],"split_indices":[91,4212,0,0,8786,9812,6366,0,105,0,1779,0,0,4551,0,0,0],"split_type":[0,0,0,0,0,0,0,0,0,0,0,0,0,0,0,0,0],"sum_hessian":[1.2238331E1,1.1164289E1,1.0740415E0,2.0923123E0,9.071978E0,4.367217E0,4.7047606E0,1.0073769E0,3.3598402E0,1.1135603E0,3.5912E0,1.1018763E0,2.257964E0,2.562111E0,1.0290891E0,1.4121553E0,1.1499557E0],"tree_param":{"num_deleted":"0","num_feature":"10000","num_nodes":"17","size_leaf_vector":"1"}},{"base_weights":[1.6391826E-1,2.7453485E-1,-5.4874975E-2,3.7912926E-1,-3.4990735E-2,-2.2481183E-2,6.253033E-1,4.299638E-2,-3.8513842E-1,9.043279E-3,7.154176E-2,6.9410414E-3,-6.005162E-2],"categories":[],"categories_nodes":[],"categories_segments":[],"categories_sizes":[],"default_left":[1,1,0,0,0,0,0,0,0,0,0,0,0],"id":41,"left_children":[1,3,-1,5,-1,7,9,-1,11,-1,-1,-1,-1],"loss_changes":[1.238583E0,9.564411E-1,0E0,1.1295829E0,0E0,1.0275514E0,2.741456E-1,0E0,3.7879217E-1,0E0,0E0,0E0,0E0],"parents":[2147483647,0,0,1,1,3,3,5,5,6,6,8,8],"right_children":[2,4,-1,6,-1,8,10,-1,12,-1,-1,-1,-1],"split_conditions":[3.3952776E-2,5.0989155E-2,-5.4874975E-2,1.6588674E-1,-3.4990735E-2,4.2275488E-1,4.1382617E-1,4.299638E-2,6.372166E-2,9.043279E-3,7.154176E-2,6.9410414E-3,-6.005162E-2],"split_indices":[6602,2465,0,8626,0,2508,8588,0,1167,0,0,0,0],"split_type":[0,0,0,0,0,0,0,0,0,0,0,0,0],"sum_hessian":[1.2800482E1,1.1612785E1,1.1876969E0,1.02831955E1,1.3295897E0,4.253187E0,6.0300083E0,1.8097639E0,2.443423E0,1.1583271E0,4.871681E0,1.0034328E0,1.4399903E0],"tree_param":{"num_deleted":"0","num_feature":"10000","num_nodes":"13","size_leaf_vector":"1"}},{"base_weights":[2.4982081E-1,-4.119297E-2,3.9014822E-1,4.9623188E-1,-2.9851485E-2,-2.1729661E-2,6.0457975E-1,7.312983E-1,-4.291821E-3,7.900298E-1,1.673602E-2,9.027505E-2,3.418653E-2],"categories":[],"categories_nodes":[],"categories_segments":[],"categories_sizes":[],"default_left":[0,0,1,0,0,0,1,1,0,1,0,0,0],"id":42,"left_children":[1,-1,3,5,-1,-1,7,9,-1,11,-1,-1,-1],"loss_changes":[1.4216168E0,0E0,1.0040755E0,9.452841E-1,0E0,0E0,8.030238E-1,1.3011885E-1,0E0,4.0192604E-2,0E0,0E0,0E0],"parents":[2147483647,0,0,2,2,3,3,6,6,7,7,9,9],"right_children":[2,-1,4,6,-1,-1,8,10,-1,12,-1,-1,-1],"split_conditions":[2.9305023E-1,-4.119297E-2,5.9513196E-2,9.971723E-2,-2.9851485E-2,-2.1729661E-2,4.80214E-2,4.8646666E-2,-4.291821E-3,1.8608924E-2,1.673602E-2,9.027505E-2,3.418653E-2],"split_indices":[1488,0,2465,4641,0,0,8626,105,0,8869,0,0,0],"split_type":[0,0,0,0,0,0,0,0,0,0,0,0,0],"sum_hessian":[1.2578285E1,1.8620087E0,1.0716276E1,9.527986E0,1.1882911E0,1.1235125E0,8.404473E0,6.920646E0,1.4838265E0,5.904776E0,1.0158706E0,3.9076176E0,1.9971582E0],"tree_param":{"num_deleted":"0","num_feature":"10000","num_nodes":"13","size_leaf_vector":"1"}},{"base_weights":[9.335214E-2,-4.1143534E-1,3.0142048E-1,-7.36342E-2,-7.3433307E-4,4.8077795E-1,-1.7591457E-1,1.0159098E-1,2.2096026E-1,-5.119375E-2,1.8559705E-2,7.512822E-2,-1.2095119E-1,7.7583394E-3,-1.9819586E-1,-2.4126781E-2,-4.341399E-3],"categories":[],"categories_nodes":[],"categories_segments":[],"categories_sizes":[],"default_left":[0,0,1,0,0,0,1,0,0,0,0,0,0,0,1,0,0],"id":43,"left_children":[1,3,5,-1,-1,7,9,-1,11,-1,-1,-1,13,-1,15,-1,-1],"loss_changes":[1.4656701E0,5.396268E-1,9.0840787E-1,0E0,0E0,7.852627E-1,5.032093E-1,0E0,1.2090405E0,0E0,0E0,0E0,8.608576E-2,0E0,1.3530016E-2,0E0,0E0],"parents":[2147483647,0,0,1,1,2,2,5,5,6,6,8,8,12,12,14,14],"right_children":[2,4,6,-1,-1,8,10,-1,12,-1,-1,-1,14,-1,16,-1,-1],"split_conditions":[5.915292E-2,5.2786496E-2,6.850533E-2,-7.36342E-2,-7.3433307E-4,4.3681446E-2,4.6602193E-2,1.0159098E-1,1.2891544E-1,-5.119375E-2,1.8559705E-2,7.512822E-2,1.0659719E-1,7.7583394E-3,5.4692116E-2,-2.4126781E-2,-4.341399E-3],"split_indices":[8869,287,8869,0,0,5864,6366,0,4551,0,0,0,4063,0,2958,0,0],"split_type":[0,0,0,0,0,0,0,0,0,0,0,0,0,0,0,0,0],"sum_hessian":[1.1773982E1,3.1513045E0,8.622677E0,1.2910407E0,1.8602638E0,6.2623878E0,2.3602896E0,1.0956508E0,5.1667366E0,1.007615E0,1.3526747E0,1.5560008E0,3.610736E0,1.0101244E0,2.6006114E0,1.5973488E0,1.0032626E0],"tree_param":{"num_deleted":"0","num_feature":"10000","num_nodes":"17","size_leaf_vector":"1"}},{"base_weights":[-2.0360164E-2,6.4390145E-2,-1.8673687E-1,-3.3617735E-1,5.9388477E-2,-4.9773034E-1,4.092267E-2,3.4750294E-2,-6.7769814E-1,-8.377834E-2,1.4479465E-2],"categories":[],"categories_nodes":[],"categories_segments":[],"categories_sizes":[],"default_left":[0,0,1,1,0,0,0,0,1,0,0],"id":44,"left_children":[1,-1,3,5,-1,7,-1,-1,9,-1,-1],"loss_changes":[1.4506198E0,0E0,1.4130819E0,1.3319159E0,0E0,1.4754369E0,0E0,0E0,1.0508046E0,0E0,0E0],"parents":[2147483647,0,0,2,2,3,3,5,5,8,8],"right_children":[2,-1,4,6,-1,8,-1,-1,10,-1,-1],"split_conditions":[7.1644075E-2,6.4390145E-2,1.0458161E-1,9.647076E-2,5.9388477E-2,1.0978472E-1,4.092267E-2,3.4750294E-2,2.6872175E-2,-8.377834E-2,1.4479465E-2],"split_indices":[6313,0,748,9812,0,8837,0,0,4212,0,0],"split_type":[0,0,0,0,0,0,0,0,0,0,0],"sum_hessian":[1.1037712E1,1.6359627E0,9.40175E0,8.36896E0,1.0327888E0,7.15131E0,1.2176509E0,1.091952E0,6.0593576E0,5.0565834E0,1.0027744E0],"tree_param":{"num_deleted":"0","num_feature":"10000","num_nodes":"11","size_leaf_vector":"1"}},{"base_weights":[1.3302563E-1,-1.6661683E-2,9.4073825E-2,6.160518E-1,-2.769695E-1,1.3401377E-2,7.466766E-2,3.1372257E-2,-4.453119E-1,-6.6190463E-1,2.255817E-2,-7.932875E-2,-1.7926928E-3],"categories":[],"categories_nodes":[],"categories_segments":[],"categories_sizes":[],"default_left":[1,0,0,0,0,0,0,0,1,1,0,0,0],"id":45,"left_children":[1,3,-1,5,7,-1,-1,-1,9,11,-1,-1,-1],"loss_changes":[1.5519601E0,2.098044E0,0E0,1.3425374E-1,1.032784E0,0E0,0E0,0E0,1.2249964E0,4.8075008E-1,0E0,0E0,0E0],"parents":[2147483647,0,0,1,1,3,3,4,4,8,8,9,9],"right_children":[2,4,-1,6,8,-1,-1,-1,10,12,-1,-1,-1],"split_conditions":[3.0796733E-2,8.600195E-1,9.4073825E-2,1.3848233E-1,8.47422E-2,1.3401377E-2,7.466766E-2,3.1372257E-2,2.6860815E-2,2.4672093E-2,2.255817E-2,-7.932875E-2,-1.7926928E-3],"split_indices":[6203,2508,0,308,2958,0,0,0,4893,4212,0,0,0],"split_type":[0,0,0,0,0,0,0,0,0,0,0,0,0],"sum_hessian":[1.1706623E1,1.0702568E1,1.0040549E0,2.721344E0,7.9812245E0,1.0121613E0,1.7091829E0,1.5785823E0,6.4026423E0,4.8501935E0,1.5524486E0,3.8357723E0,1.0144212E0],"tree_param":{"num_deleted":"0","num_feature":"10000","num_nodes":"13","size_leaf_vector":"1"}},{"base_weights":[6.8945E-2,-9.5543765E-2,8.62677E-2,5.892999E-2,-2.562593E-1,-4.2117095E-1,5.6319237E-2,-6.15993E-1,5.3296156E-2,7.577972E-3,-7.312604E-1,-8.393993E-2,-2.1250213E-2],"categories":[],"categories_nodes":[],"categories_segments":[],"categories_sizes":[],"default_left":[1,0,0,0,1,1,0,0,0,0,1,0,0],"id":46,"left_children":[1,3,-1,-1,5,7,-1,9,-1,-1,11,-1,-1],"loss_changes":[1.7095962E0,1.3863729E0,0E0,0E0,1.5598568E0,1.9492155E0,0E0,6.698196E-1,0E0,0E0,1.9740343E-1,0E0,0E0],"parents":[2147483647,0,0,1,1,4,4,5,5,7,7,10,10],"right_children":[2,4,-1,-1,6,8,-1,10,-1,-1,12,-1,-1],"split_conditions":[5.389657E-2,1.07832834E-1,8.62677E-2,5.892999E-2,3.487269E-2,4.974501E-2,5.6319237E-2,7.279795E-2,5.3296156E-2,7.577972E-3,4.6602193E-2,-8.393993E-2,-2.1250213E-2],"split_indices":[91,8837,0,0,5807,748,0,2958,0,0,6366,0,0],"split_type":[0,0,0,0,0,0,0,0,0,0,0,0,0],"sum_hessian":[1.1463027E1,1.02239065E1,1.2391204E0,1.436394E0,8.787513E0,7.719937E0,1.0675759E0,6.70521E0,1.0147265E0,1.0066166E0,5.6985936E0,4.204121E0,1.4944725E0],"tree_param":{"num_deleted":"0","num_feature":"10000","num_nodes":"13","size_leaf_vector":"1"}},{"base_weights":[2.7566874E-1,1.0122056E-1,9.768253E-2,7.947401E-2,-1.6519453E-1,-5.3620344E-1,7.95731E-2,-1.6356068E-2,-6.1826047E-2,5.477589E-2,-2.0051646E-1,3.3102106E-2,-4.453622E-2],"categories":[],"categories_nodes":[],"categories_segments":[],"categories_sizes":[],"default_left":[1,0,0,0,0,0,0,0,0,0,0,0,0],"id":47,"left_children":[1,3,-1,-1,5,7,9,-1,-1,-1,11,-1,-1],"loss_changes":[1.3764641E0,2.1219845E0,0E0,0E0,8.2472676E-1,7.502675E-3,9.044439E-1,0E0,0E0,0E0,7.361196E-1,0E0,0E0],"parents":[2147483647,0,0,1,1,4,4,5,5,6,6,10,10],"right_children":[2,4,-1,-1,6,8,10,-1,-1,-1,12,-1,-1],"split_conditions":[1.0064216E-1,8.600195E-1,9.768253E-2,7.947401E-2,1.6588674E-1,5.1169083E-2,1.2744153E-1,-1.6356068E-2,-6.1826047E-2,5.477589E-2,8.742607E-2,3.3102106E-2,-4.453622E-2],"split_indices":[6266,2508,0,0,8626,8626,6466,0,0,0,716,0,0],"split_type":[0,0,0,0,0,0,0,0,0,0,0,0,0],"sum_hessian":[1.106175E1,9.774269E0,1.2874815E0,2.162322E0,7.611947E0,2.5524232E0,5.0595236E0,1.0007962E0,1.551627E0,1.536133E0,3.5233905E0,1.0001656E0,2.5232248E0],"tree_param":{"num_deleted":"0","num_feature":"10000","num_nodes":"13","size_leaf_vector":"1"}},{"base_weights":[2.0906244E-1,3.3554852E-1,-5.4343052E-2,-2.7506584E-2,4.4205335E-1,-1.6228367E-2,5.358726E-1,6.300639E-1,-2.9668396E-3,2.5997106E-3,7.185498E-1,8.0520146E-2,1.2661378E-2],"categories":[],"categories_nodes":[],"categories_segments":[],"categories_sizes":[],"default_left":[1,0,0,0,0,0,1,0,0,0,1,0,0],"id":48,"left_children":[1,3,-1,-1,5,-1,7,9,-1,-1,11,-1,-1],"loss_changes":[1.3606164E0,8.5102355E-1,0E0,0E0,6.502054E-1,0E0,4.8913884E-1,3.8838267E-1,0E0,0E0,2.3683643E-1,0E0,0E0],"parents":[2147483647,0,0,1,1,4,4,6,6,7,7,10,10],"right_children":[2,4,-1,-1,6,-1,8,10,-1,-1,12,-1,-1],"split_conditions":[2.0694274E-2,6.9891535E-2,-5.4343052E-2,-2.7506584E-2,2.9305023E-1,-1.6228367E-2,4.9296953E-2,6.964082E-1,-2.9668396E-3,2.5997106E-3,6.6851E-2,8.0520146E-2,1.2661378E-2],"split_indices":[7950,6699,0,0,1488,0,1326,5388,0,0,8786,0,0],"split_type":[0,0,0,0,0,0,0,0,0,0,0,0,0],"sum_hessian":[1.1379393E1,1.0216236E1,1.1631566E0,1.2822381E0,8.933998E0,1.1024989E0,7.831499E0,6.6155787E0,1.2159206E0,1.0105633E0,5.6050153E0,4.57501E0,1.0300056E0],"tree_param":{"num_deleted":"0","num_feature":"10000","num_nodes":"13","size_leaf_vector":"1"}},{"base_weights":[6.864719E-2,-6.731119E-2,2.3340559E-1,8.24552E-2,7.143526E-2,4.4121817E-1,-2.7366993E-1,-5.1594884E-3,6.168519E-1,-4.0014043E-2,1.071189E-2,1.3170781E-2,7.5521044E-2],"categories":[],"categories_nodes":[],"categories_segments":[],"categories_sizes":[],"default_left":[0,0,0,0,0,0,1,0,0,0,0,0,0],"id":49,"left_children":[1,-1,3,-1,5,7,9,-1,11,-1,-1,-1,-1],"loss_changes":[1.5492961E0,0E0,9.046861E-1,0E0,1.2685397E0,4.4077092E-1,2.9663637E-1,0E0,1.3952541E-1,0E0,0E0,0E0,0E0],"parents":[2147483647,0,0,2,2,4,4,5,5,6,6,8,8],"right_children":[2,-1,4,-1,6,8,10,-1,12,-1,-1,-1,-1],"split_conditions":[3.1559688E-1,-6.731119E-2,5.7508506E-2,8.24552E-2,8.5604966E-2,4.234694E-2,8.804161E-2,-5.1594884E-3,1.0389179E-1,-4.0014043E-2,1.071189E-2,1.3170781E-2,7.5521044E-2],"split_indices":[1174,0,2728,0,4063,4063,4063,0,9874,0,0,0,0],"split_type":[0,0,0,0,0,0,0,0,0,0,0,0,0],"sum_hessian":[1.0391672E1,1.3278968E0,9.063775E0,1.06953E0,7.994245E0,3.724698E0,4.269547E0,1.1642236E0,2.5604744E0,3.1669087E0,1.102638E0,1.0013264E0,1.5591481E0],"tree_param":{"num_deleted":"0","num_feature":"10000","num_nodes":"13","size_leaf_vector":"1"}},{"base_weights":[7.506969E-2,-4.2683518E-1,2.3749869E-1,-5.603096E-2,-7.608592E-3,4.0441266E-1,-3.2773748E-2,-2.0119745E-2,5.3876173E-1,6.6715056E-1,-1.4856841E-3,7.852291E-2,1.5694974E-2],"categories":[],"categories_nodes":[],"categories_segments":[],"categories_sizes":[],"default_left":[0,1,1,0,0,0,0,0,1,1,0,0,0],"id":50,"left_children":[1,3,5,-1,-1,7,-1,-1,9,11,-1,-1,-1],"loss_changes":[1.00237E0,1.0061073E-1,9.809224E-1,0E0,0E0,7.0965934E-1,0E0,0E0,4.5913017E-1,1.8713808E-1,0E0,0E0,0E0],"parents":[2147483647,0,0,1,1,2,2,5,5,8,8,9,9],"right_children":[2,4,6,-1,-1,8,-1,-1,10,12,-1,-1,-1],"split_conditions":[9.584351E-2,2.4988342E-2,2.1090342E-2,-5.603096E-2,-7.608592E-3,9.704824E-2,-3.2773748E-2,-2.0119745E-2,5.29981E-2,1.3346087E-2,-1.4856841E-3,7.852291E-2,1.5694974E-2],"split_indices":[2412,287,105,0,0,9874,0,0,8626,8869,0,0,0],"split_type":[0,0,0,0,0,0,0,0,0,0,0,0,0],"sum_hessian":[1.0051938E1,2.0596874E0,7.992251E0,1.0591667E0,1.0005207E0,6.3898544E0,1.6023966E0,1.0698193E0,5.320035E0,4.1520634E0,1.1679715E0,2.9339786E0,1.2180849E0],"tree_param":{"num_deleted":"0","num_feature":"10000","num_nodes":"13","size_leaf_vector":"1"}},{"base_weights":[2.0146637E-1,7.5696416E-2,1.841974E-2,-1.4703259E-1,7.567352E-2,-5.8969237E-2,1.0229388E-2,3.698489E-1,-1.9834663E-1,6.0963698E-2,-5.427333E-3,2.4296397E-2,-3.9429326E-2],"categories":[],"categories_nodes":[],"categories_segments":[],"categories_sizes":[],"default_left":[0,0,1,0,0,0,0,1,0,0,0,0,0],"id":51,"left_children":[1,-1,3,5,-1,-1,7,9,11,-1,-1,-1,-1],"loss_changes":[1.205174E0,0E0,1.3380625E0,6.35453E-1,0E0,0E0,6.475024E-1,3.543465E-1,5.710156E-1,0E0,0E0,0E0,0E0],"parents":[2147483647,0,0,2,2,3,3,6,6,7,7,8,8],"right_children":[2,-1,4,6,-1,-1,8,10,12,-1,-1,-1,-1],"split_conditions":[8.600195E-1,7.5696416E-2,2.9520363E-2,1.2421439E-1,7.567352E-2,-5.8969237E-2,1.2891544E-1,3.2864466E-2,5.1581897E-2,6.0963698E-2,-5.427333E-3,2.4296397E-2,-3.9429326E-2],"split_indices":[2508,0,6203,4212,0,0,4551,1326,1167,0,0,0,0],"split_type":[0,0,0,0,0,0,0,0,0,0,0,0,0],"sum_hessian":[1.0989509E1,1.9466331E0,9.042876E0,8.041643E0,1.0012329E0,1.3872049E0,6.654438E0,2.1589105E0,4.4955277E0,1.0997378E0,1.0591727E0,1.3085237E0,3.187004E0],"tree_param":{"num_deleted":"0","num_feature":"10000","num_nodes":"13","size_leaf_vector":"1"}},{"base_weights":[1.4928906E-1,-5.6044694E-2,2.6792905E-1,-2.4851026E-2,3.9134735E-1,4.7301692E-1,-8.724476E-3,5.4718323E-2,-1.6279072E-3],"categories":[],"categories_nodes":[],"categories_segments":[],"categories_sizes":[],"default_left":[0,0,0,0,1,1,0,0,0],"id":52,"left_children":[1,-1,3,-1,5,7,-1,-1,-1],"loss_changes":[1.1647367E0,0E0,7.9837555E-1,0E0,4.0347004E-1,3.0182028E-1,0E0,0E0,0E0],"parents":[2147483647,0,0,2,2,4,4,5,5],"right_children":[2,-1,4,-1,6,8,-1,-1,-1],"split_conditions":[4.4358443E-2,-5.6044694E-2,5.818001E-2,-2.4851026E-2,5.1776513E-2,4.628305E-2,-8.724476E-3,5.4718323E-2,-1.6279072E-3],"split_indices":[7906,0,9874,0,1326,8626,0,0,0],"split_type":[0,0,0,0,0,0,0,0,0],"sum_hessian":[1.1049166E1,1.0491201E0,1.0000046E1,1.7333494E0,8.266696E0,7.0716076E0,1.1950886E0,6.0380654E0,1.0335423E0],"tree_param":{"num_deleted":"0","num_feature":"10000","num_nodes":"9","size_leaf_vector":"1"}},{"base_weights":[1.6616182E-1,8.50687E-2,2.8658044E-2,-1.10099494E-1,7.1140155E-2,6.3827604E-2,-2.6449713E-1,5.2524637E-2,-4.538729E-1,2.4567014E-2,-6.220194E-1,-7.5175636E-2,5.394629E-3],"categories":[],"categories_nodes":[],"categories_segments":[],"categories_sizes":[],"default_left":[0,0,1,0,0,0,0,0,0,0,1,0,0],"id":53,"left_children":[1,-1,3,5,-1,-1,7,-1,9,-1,11,-1,-1],"loss_changes":[1.1224673E0,0E0,1.1375719E0,1.3426081E0,0E0,0E0,1.6035826E0,0E0,1.0819451E0,0E0,6.238725E-1,0E0,0E0],"parents":[2147483647,0,0,2,2,3,3,6,6,8,8,10,10],"right_children":[2,-1,4,6,-1,-1,8,-1,10,-1,12,-1,-1],"split_conditions":[1.0814233E0,8.50687E-2,6.0782015E-2,5.6709766E-2,7.1140155E-2,6.3827604E-2,1.07832834E-1,5.2524637E-2,8.600195E-1,2.4567014E-2,2.7657203E-2,-7.5175636E-2,5.394629E-3],"split_indices":[7584,0,91,4713,0,0,8837,0,2508,0,9545,0,0],"split_type":[0,0,0,0,0,0,0,0,0,0,0,0,0],"sum_hessian":[1.1184316E1,1.0032521E0,1.0181064E1,9.158478E0,1.0225859E0,1.0303463E0,8.128131E0,1.229064E0,6.899067E0,1.2476014E0,5.651466E0,4.6473804E0,1.0040852E0],"tree_param":{"num_deleted":"0","num_feature":"10000","num_nodes":"13","size_leaf_vector":"1"}},{"base_weights":[-6.356554E-3,-1.5382838E-1,6.91968E-2,-3.1172022E-1,5.920458E-2,-5.0014055E-1,5.3251427E-2,2.1435805E-2,-7.147846E-2],"categories":[],"categories_nodes":[],"categories_segments":[],"categories_sizes":[],"default_left":[1,1,0,1,0,0,0,0,0],"id":54,"left_children":[1,3,-1,5,-1,7,-1,-1,-1],"loss_changes":[1.254284E0,1.3646578E0,0E0,1.6860518E0,0E0,1.3513314E0,0E0,0E0,0E0],"parents":[2147483647,0,0,1,1,3,3,5,5],"right_children":[2,4,-1,6,-1,8,-1,-1,-1],"split_conditions":[5.389657E-2,1.0962661E-1,6.91968E-2,6.1375055E-2,5.920458E-2,7.529594E-2,5.3251427E-2,2.1435805E-2,-7.147846E-2],"split_indices":[91,2508,0,0,0,1967,0,0,0],"split_type":[0,0,0,0,0,0,0,0,0],"sum_hessian":[1.0145894E1,9.020638E0,1.125256E0,7.9250765E0,1.0955617E0,6.812264E0,1.1128126E0,1.5740299E0,5.238234E0],"tree_param":{"num_deleted":"0","num_feature":"10000","num_nodes":"9","size_leaf_vector":"1"}},{"base_weights":[1.4612435E-1,-7.262608E-3,7.3926285E-2,5.7928037E-2,-1.8797766E-1,-3.509136E-1,4.932713E-2,2.311222E-2,-5.1958686E-1,-6.0078908E-2,-6.2300144E-3],"categories":[],"categories_nodes":[],"categories_segments":[],"categories_sizes":[],"default_left":[1,0,0,0,1,0,0,0,1,0,0],"id":55,"left_children":[1,3,-1,-1,5,7,-1,-1,9,-1,-1],"loss_changes":[1.0173153E0,1.1505969E0,0E0,0E0,1.0908347E0,8.3248174E-1,0E0,0E0,1.829127E-1,0E0,0E0],"parents":[2147483647,0,0,1,1,4,4,5,5,8,8],"right_children":[2,4,-1,-1,6,8,-1,-1,10,-1,-1],"split_conditions":[3.7819266E-2,1.6002817E-1,7.3926285E-2,5.7928037E-2,5.3543545E-2,4.4293895E-2,4.932713E-2,2.311222E-2,4.9895428E-2,-6.0078908E-2,-6.2300144E-3],"split_indices":[9516,91,0,0,748,8786,0,0,105,0,0],"split_type":[0,0,0,0,0,0,0,0,0,0,0],"sum_hessian":[1.0122768E1,8.827669E0,1.2950997E0,1.5597454E0,7.267924E0,6.25645E0,1.0114735E0,1.3225453E0,4.933905E0,3.9233987E0,1.0105062E0],"tree_param":{"num_deleted":"0","num_feature":"10000","num_nodes":"11","size_leaf_vector":"1"}},{"base_weights":[1.337022E-1,1.1845601E-2,6.1874457E-2,-5.2230114E-1,2.6508504E-1,-6.1294314E-2,-1.4702523E-2,3.8199472E-1,-7.3770657E-3,4.765533E-1,6.158253E-4,6.355428E-2,2.4975751E-1,4.3406438E-2,-4.09459E-4],"categories":[],"categories_nodes":[],"categories_segments":[],"categories_sizes":[],"default_left":[1,0,0,1,1,0,0,1,0,0,0,0,0,0,0],"id":56,"left_children":[1,3,-1,5,7,-1,-1,9,-1,11,-1,-1,13,-1,-1],"loss_changes":[6.5111023E-1,1.4806831E0,0E0,2.9890835E-2,3.211274E-1,0E0,0E0,1.9820547E-1,0E0,3.8530827E-3,0E0,0E0,1.6579406E-1,0E0,0E0],"parents":[2147483647,0,0,1,1,3,3,4,4,7,7,9,9,12,12],"right_children":[2,4,-1,6,8,-1,-1,10,-1,12,-1,-1,14,-1,-1],"split_conditions":[1.0962661E-1,1.721773E-1,6.1874457E-2,2.4186844E-2,2.1090342E-2,-6.1294314E-2,-1.4702523E-2,4.1356187E-2,-7.3770657E-3,1.2891544E-1,6.158253E-4,6.355428E-2,1.2445078E-1,4.3406438E-2,-4.09459E-4],"split_indices":[2508,8626,0,287,105,0,0,4869,0,4551,0,0,7111,0,0],"split_type":[0,0,0,0,0,0,0,0,0,0,0,0,0,0,0],"sum_hessian":[1.0140054E1,8.922809E0,1.217245E0,2.5280423E0,6.394767E0,1.5261192E0,1.001923E0,4.6597753E0,1.7349914E0,3.5089586E0,1.1508168E0,1.0033302E0,2.5056283E0,1.0403683E0,1.4652599E0],"tree_param":{"num_deleted":"0","num_feature":"10000","num_nodes":"15","size_leaf_vector":"1"}},{"base_weights":[2.516717E-2,-6.2162675E-2,2.0988517E-1,-2.8176188E-2,3.250056E-1,-1.6808158E-2,4.2876732E-1,5.2609664E-1,2.5032216E-3,5.5287136E-3,6.505667E-2],"categories":[],"categories_nodes":[],"categories_segments":[],"categories_sizes":[],"default_left":[0,0,0,0,0,0,1,0,0,0,0],"id":57,"left_children":[1,-1,3,-1,5,-1,7,9,-1,-1,-1],"loss_changes":[1.3462065E0,0E0,5.818758E-1,0E0,4.5495462E-1,0E0,2.4084246E-1,2.663337E-1,0E0,0E0,0E0],"parents":[2147483647,0,0,2,2,4,4,6,6,7,7],"right_children":[2,-1,4,-1,6,-1,8,10,-1,-1,-1],"split_conditions":[7.583333E-2,-6.2162675E-2,4.830955E-2,-2.8176188E-2,1.5240362E-1,-1.6808158E-2,2.1790195E-2,2.6854607E-1,2.5032216E-3,5.5287136E-3,6.505667E-2],"split_indices":[2412,0,4869,0,4408,0,105,8626,0,0,0],"split_type":[0,0,0,0,0,0,0,0,0,0,0],"sum_hessian":[9.1757E0,1.5129167E0,7.662783E0,1.179202E0,6.4835815E0,1.0194E0,5.4641814E0,4.1585875E0,1.3055941E0,1.1715107E0,2.9870765E0],"tree_param":{"num_deleted":"0","num_feature":"10000","num_nodes":"11","size_leaf_vector":"1"}}]},"name":"gbtree"},"learner_model_param":{"base_score":"4.5555554E-2","boost_from_average":"1","num_class":"0","num_feature":"10000","num_target":"1"},"objective":{"name":"binary:logistic","reg_loss_param":{"scale_pos_weight":"1"}}},"version":[3,0,0]}