{"learner":{"attributes":{"best_iteration":"396","best_score":"0.09577811016065861","scikit_learn":"{\"_estimator_type\": \"classifier\"}"},"feature_names":[],"feature_types":[],"gradient_booster":{"model":{"gbtree_model_param":{"num_parallel_tree":"1","num_trees":"400"},"iteration_indptr":[0,1,2,3,4,5,6,7,8,9,10,11,12,13,14,15,16,17,18,19,20,21,22,23,24,25,26,27,28,29,30,31,32,33,34,35,36,37,38,39,40,41,42,43,44,45,46,47,48,49,50,51,52,53,54,55,56,57,58,59,60,61,62,63,64,65,66,67,68,69,70,71,72,73,74,75,76,77,78,79,80,81,82,83,84,85,86,87,88,89,90,91,92,93,94,95,96,97,98,99,100,101,102,103,104,105,106,107,108,109,110,111,112,113,114,115,116,117,118,119,120,121,122,123,124,125,126,127,128,129,130,131,132,133,134,135,136,137,138,139,140,141,142,143,144,145,146,147,148,149,150,151,152,153,154,155,156,157,158,159,160,161,162,163,164,165,166,167,168,169,170,171,172,173,174,175,176,177,178,179,180,181,182,183,184,185,186,187,188,189,190,191,192,193,194,195,196,197,198,199,200,201,202,203,204,205,206,207,208,209,210,211,212,213,214,215,216,217,218,219,220,221,222,223,224,225,226,227,228,229,230,231,232,233,234,235,236,237,238,239,240,241,242,243,244,245,246,247,248,249,250,251,252,253,254,255,256,257,258,259,260,261,262,263,264,265,266,267,268,269,270,271,272,273,274,275,276,277,278,279,280,281,282,283,284,285,286,287,288,289,290,291,292,293,294,295,296,297,298,299,300,301,302,303,304,305,306,307,308,309,310,311,312,313,314,315,316,317,318,319,320,321,322,323,324,325,326,327,328,329,330,331,332,333,334,335,336,337,338,339,340,341,342,343,344,345,346,347,348,349,350,351,352,353,354,355,356,357,358,359,360,361,362,363,364,365,366,367,368,369,370,371,372,373,374,375,376,377,378,379,380,381,382,383,384,385,386,387,388,389,390,391,392,393,394,395,396,397,398,399,400],"tree_info":[0,0,0,0,0,0,0,0,0,0,0,0,0,0,0,0,0,0,0,0,0,0,0,0,0,0,0,0,0,0,0,0,0,0,0,0,0,0,0,0,0,0,0,0,0,0,0,0,0,0,0,0,0,0,0,0,0,0,0,0,0,0,0,0,0,0,0,0,0,0,0,0,0,0,0,0,0,0,0,0,0,0,0,0,0,0,0,0,0,0,0,0,0,0,0,0,0,0,0,0,0,0,0,0,0,0,0,0,0,0,0,0,0,0,0,0,0,0,0,0,0,0,0,0,0,0,0,0,0,0,0,0,0,0,0,0,0,0,0,0,0,0,0,0,0,0,0,0,0,0,0,0,0,0,0,0,0,0,0,0,0,0,0,0,0,0,0,0,0,0,0,0,0,0,0,0,0,0,0,0,0,0,0,0,0,0,0,0,0,0,0,0,0,0,0,0,0,0,0,0,0,0,0,0,0,0,0,0,0,0,0,0,0,0,0,0,0,0,0,0,0,0,0,0,0,0,0,0,0,0,0,0,0,0,0,0,0,0,0,0,0,0,0,0,0,0,0,0,0,0,0,0,0,0,0,0,0,0,0,0,0,0,0,0,0,0,0,0,0,0,0,0,0,0,0,0,0,0,0,0,0,0,0,0,0,0,0,0,0,0,0,0,0,0,0,0,0,0,0,0,0,0,0,0,0,0,0,0,0,0,0,0,0,0,0,0,0,0,0,0,0,0,0,0,0,0,0,0,0,0,0,0,0,0,0,0,0,0,0,0,0,0,0,0,0,0,0,0,0,0,0,0,0,0,0,0,0,0,0,0,0,0,0,0,0,0,0,0,0,0,0,0,0,0,0,0,0,0,0,0,0,0,0,0,0,0,0,0,0,0,0,0,0,0,0,0,0,0,0,0],"trees":[{"base_weights":[-2.477377E-2,1.1042018E1,-4.5572984E-1,9.7385935E-2,5.6330216E-1,8.50896E0,-5.431919E-1,4.5885224E-2,4.581709E-1,-5.754217E-1,5.87668E0,-5.996491E-1,4.643994E0,-3.0330945E-2,7.7127395E0,-3.1775508E-2,1.2897253E-1,2.8649166E-1,-3.174919E-3,4.474185E-1,1.0768147E-1],"categories":[],"categories_nodes":[],"categories_segments":[],"categories_sizes":[],"default_left":[0,0,0,0,0,0,1,0,0,1,0,1,1,0,0,0,0,0,0,0,0],"id":0,"left_children":[1,3,5,-1,-1,7,9,-1,-1,11,13,15,17,-1,19,-1,-1,-1,-1,-1,-1],"loss_changes":[5.959317E3,7.347461E1,9.475656E2,0E0,0E0,4.9617798E1,2.5000854E2,0E0,0E0,1.5287204E2,7.661577E1,1.3642896E2,2.8979736E1,0E0,1.3579041E1,0E0,0E0,0E0,0E0,0E0,0E0],"parents":[2147483647,0,0,1,1,2,2,5,5,6,6,9,9,10,10,11,11,12,12,14,14],"right_children":[2,4,6,-1,-1,8,10,-1,-1,12,14,16,18,-1,20,-1,-1,-1,-1,-1,-1],"split_conditions":[1.5662395E0,4.398087E-2,1.3474914E-1,9.7385935E-2,5.6330216E-1,9.6176736E-2,3.392261E-1,4.5885224E-2,4.581709E-1,3.5531253E-2,2.1262486E-1,6.291293E-2,6.02318E-2,-3.0330945E-2,1.5815821E-1,-3.1775508E-2,1.2897253E-1,2.8649166E-1,-3.174919E-3,4.474185E-1,1.0768147E-1],"split_indices":[225,306,876,0,0,657,753,0,0,872,429,480,277,0,388,0,0,0,0,0,0],"split_type":[0,0,0,0,0,0,0,0,0,0,0,0,0,0,0,0,0,0,0,0,0],"sum_hessian":[1.2474607E3,4.5834167E1,1.2016266E3,1.3349758E0,4.449919E1,1.0679807E1,1.1909468E3,1.0383145E0,9.641492E0,1.1859034E3,5.043242E0,1.1813053E3,4.59825E0,1.2608105E0,3.7824314E0,1.1689197E3,1.2385609E1,3.5599356E0,1.0383145E0,2.5957863E0,1.1866452E0],"tree_param":{"num_deleted":"0","num_feature":"1000","num_nodes":"21","size_leaf_vector":"1"}},{"base_weights":[4.120553E-3,6.8438716E0,-4.0910894E-1,8.854573E-2,6.924372E0,5.9215117E0,-4.9308997E-1,6.9737206E0,9.3024276E-2,1.526376E-2,6.3675065E0,-5.645075E-1,3.1583827E0,7.0245776E0,9.3024276E-2,3.5123512E-1,8.858399E-2,-6.007359E-1,3.8192363E0,6.063522E0,1.3913156E0,1.081175E-1,3.5381517E-1,-3.1036654E-2,3.0132946E-1,2.7780551E-2,2.9879487E-1,1.7315727E-2,3.472224E-1,8.435556E-3,2.71167E-1],"categories":[],"categories_nodes":[],"categories_segments":[],"categories_sizes":[],"default_left":[0,0,0,0,1,0,1,1,0,0,1,1,0,0,0,0,0,1,1,0,1,0,0,0,0,0,0,0,0,0,0],"id":1,"left_children":[1,3,5,-1,7,9,11,13,-1,-1,15,17,19,21,-1,-1,-1,23,25,27,29,-1,-1,-1,-1,-1,-1,-1,-1,-1,-1],"loss_changes":[3.5554592E3,1.7005615E1,6.33614E2,0E0,4.569824E0,3.7151306E1,3.0733337E2,4.916992E0,0E0,0E0,3.1075867E1,1.8494165E2,1.0772858E2,1.8320312E0,0E0,0E0,0E0,1.550203E2,6.3984802E1,3.9198395E1,7.484249E1,0E0,0E0,0E0,0E0,0E0,0E0,0E0,0E0,0E0,0E0],"parents":[2147483647,0,0,1,1,2,2,4,4,5,5,6,6,7,7,10,10,11,11,12,12,13,13,17,17,18,18,19,19,20,20],"right_children":[2,4,6,-1,8,10,12,14,-1,-1,16,18,20,22,-1,-1,-1,24,26,28,30,-1,-1,-1,-1,-1,-1,-1,-1,-1,-1],"split_conditions":[1.5662395E0,6.0851242E-2,1.3474914E-1,8.854573E-2,1.5280363E-1,6.1619855E-2,7.569597E-2,1.829185E-1,9.3024276E-2,1.526376E-2,1.1786102E-1,2.1891373E-1,2.3819998E-1,1.3208233E-1,9.3024276E-2,3.5123512E-1,8.858399E-2,2.2997242E-1,6.03834E-2,2.5568026E-1,7.99284E-2,1.081175E-1,3.5381517E-1,-3.1036654E-2,3.0132946E-1,2.7780551E-2,2.9879487E-1,1.7315727E-2,3.472224E-1,8.435556E-3,2.71167E-1],"split_indices":[225,319,876,0,26,942,254,253,0,0,30,753,606,430,0,0,0,548,367,253,168,0,0,0,0,0,0,0,0,0,0],"split_type":[0,0,0,0,0,0,0,0,0,0,0,0,0,0,0,0,0,0,0,0,0,0,0,0,0,0,0,0,0,0,0],"sum_hessian":[1.2559613E3,7.0670204E1,1.1852911E3,1.4631777E0,6.920703E1,1.4607992E1,1.1706831E3,6.81656E1,1.0414295E0,1.1986274E0,1.3409365E1,1.1490547E3,2.1628443E1,6.712417E1,1.0414295E0,1.1269367E1,2.139998E0,1.1404923E3,8.562369E0,7.2604785E0,1.4367964E1,1.1571438E0,6.5967026E1,1.137965E3,2.5273383E0,3.9072475E0,4.655122E0,1.1553546E0,6.105124E0,1.1824377E1,2.5435863E0],"tree_param":{"num_deleted":"0","num_feature":"1000","num_nodes":"31","size_leaf_vector":"1"}},{"base_weights":[-1.3208597E-2,5.0908027E0,-4.1576815E-1,3.4152895E-2,5.146299E0,3.4056103E0,-5.099265E-1,5.182808E0,8.684357E-2,-5.7724166E-1,4.3190722E0,-5.798907E-1,2.759369E0,5.3424916E0,3.6325371E0,-4.348832E-2,2.2575637E-2,4.683337E0,-3.2059915E-2,4.1221194E0,-6.0224634E-1,4.680619E0,1.3139848E0,2.6951534E-1,9.565395E-2,1.9253953E-1,6.4607605E-2,4.9118556E-2,2.552093E-1,-3.3088103E-2,3.135973E-1,-3.1004736E-2,2.4467015E-1,-5.837227E-3,2.6523715E-1,2.1105103E-2,1.8296877E-1],"categories":[],"categories_nodes":[],"categories_segments":[],"categories_sizes":[],"default_left":[0,0,0,0,1,0,1,1,0,1,0,0,0,1,1,0,0,0,0,0,1,0,1,0,0,0,0,0,0,0,0,0,0,0,0,0,0],"id":2,"left_children":[1,3,5,-1,7,9,11,13,-1,15,17,19,21,23,25,-1,-1,27,-1,29,31,33,35,-1,-1,-1,-1,-1,-1,-1,-1,-1,-1,-1,-1,-1,-1],"loss_changes":[2.5634941E3,1.8795898E1,4.1782764E2,0E0,2.191162E0,1.0413922E2,2.5994702E2,2.493164E0,0E0,2.2267296E0,4.4279236E1,1.1880725E2,6.004721E1,2.491211E0,8.399658E-1,0E0,0E0,2.8320282E1,0E0,5.9316902E1,1.1115338E2,3.0093979E1,2.9820347E1,0E0,0E0,0E0,0E0,0E0,0E0,0E0,0E0,0E0,0E0,0E0,0E0,0E0,0E0],"parents":[2147483647,0,0,1,1,2,2,4,4,5,5,6,6,7,7,9,9,10,10,11,11,12,12,13,13,14,14,17,17,19,19,20,20,21,21,22,22],"right_children":[2,4,6,-1,8,10,12,14,-1,16,18,20,22,24,26,-1,-1,28,-1,30,32,34,36,-1,-1,-1,-1,-1,-1,-1,-1,-1,-1,-1,-1,-1,-1],"split_conditions":[1.5662395E0,2.5863735E-2,1.3022217E-1,3.4152895E-2,2.1460764E-1,1.0821859E-1,7.569597E-2,1.8102518E-1,8.684357E-2,1.0548966E-1,5.0071114E-1,1.3291368E0,2.3819998E-1,1.1452599E-1,1.3749708E-1,-4.348832E-2,2.2575637E-2,2.4991003E-1,-3.2059915E-2,9.360574E-2,2.2997242E-1,7.806075E-2,5.465705E-2,2.6951534E-1,9.565395E-2,1.9253953E-1,6.4607605E-2,4.9118556E-2,2.552093E-1,-3.3088103E-2,3.135973E-1,-3.1004736E-2,2.4467015E-1,-5.837227E-3,2.6523715E-1,2.1105103E-2,1.8296877E-1],"split_indices":[225,284,186,0,679,842,254,82,0,867,867,473,606,28,11,0,0,845,0,155,548,136,168,0,0,0,0,0,0,0,0,0,0,0,0,0,0],"split_type":[0,0,0,0,0,0,0,0,0,0,0,0,0,0,0,0,0,0,0,0,0,0,0,0,0,0,0,0,0,0,0,0,0,0,0,0,0],"sum_hessian":[1.2456135E3,9.020957E1,1.155404E3,1.287145E0,8.8922424E1,2.6938696E1,1.1284653E3,8.7465675E1,1.4567513E0,5.0943813E0,2.1844315E1,1.1056271E3,2.2838243E1,7.707999E1,1.038569E1,4.0868397E0,1.007542E0,2.0401901E1,1.4424136E0,4.3640237E0,1.1012631E3,8.844087E0,1.3994157E1,7.545615E1,1.6238433E0,8.909469E0,1.4762212E0,2.423529E0,1.7978373E1,1.5676976E0,2.7963262E0,1.0985823E3,2.6807222E0,1.1117226E0,7.732364E0,1.099359E1,3.0005662E0],"tree_param":{"num_deleted":"0","num_feature":"1000","num_nodes":"37","size_leaf_vector":"1"}},{"base_weights":[1.0992836E-2,4.1745524E0,-3.838823E-1,3.986955E-2,4.2035794E0,-4.7490767E-1,2.94148E0,4.2265167E0,4.4594925E-2,-5.4589087E-1,2.5501175E0,3.6165495E0,-4.3967195E-2,4.2681546E0,9.311758E-2,2.3181832E0,-6.080066E-1,-6.275999E-1,3.0769722E0,3.9745035E0,-3.50477E-2,6.1137237E-2,2.1448092E-1,7.3551955E-3,1.9217268E-1,-3.1416427E-2,2.408885E-1,-3.0112623E-3,-3.8878944E-2,1.7619145E-1,-3.70973E-2,6.681187E-2,2.1740292E-1],"categories":[],"categories_nodes":[],"categories_segments":[],"categories_sizes":[],"default_left":[0,0,1,0,1,1,1,1,0,0,0,1,0,0,0,1,1,0,1,0,0,0,0,0,0,0,0,0,0,0,0,0,0],"id":3,"left_children":[1,3,5,-1,7,9,11,13,-1,15,17,19,-1,21,-1,23,25,27,29,31,-1,-1,-1,-1,-1,-1,-1,-1,-1,-1,-1,-1,-1],"loss_changes":[2.0513613E3,7.2435303E0,3.4636407E2,0E0,4.352783E0,2.397721E2,8.185956E1,2.4783936E0,0E0,1.9452948E2,4.483957E1,4.3152374E1,0E0,1.5084229E0,0E0,7.642943E1,1.2026645E2,3.3401144E-1,4.042012E1,1.810846E1,0E0,0E0,0E0,0E0,0E0,0E0,0E0,0E0,0E0,0E0,0E0,0E0,0E0],"parents":[2147483647,0,0,1,1,2,2,4,4,5,5,6,6,7,7,9,9,10,10,11,11,13,13,15,15,16,16,17,17,18,18,19,19],"right_children":[2,4,6,-1,8,10,12,14,-1,16,18,20,-1,22,-1,24,26,28,30,32,-1,-1,-1,-1,-1,-1,-1,-1,-1,-1,-1,-1,-1],"split_conditions":[1.5662395E0,2.1655828E-2,4.5279708E-2,3.986955E-2,1.5280363E-1,8.753998E-2,5.952041E-2,1.883089E-1,4.4594925E-2,2.0932338E-1,1.915312E-1,5.5143412E-2,-4.3967195E-2,1.309906E-1,9.311758E-2,2.1104062E-2,3.019172E-1,1.553515E-1,3.4564355E-1,1.482037E-1,-3.50477E-2,6.1137237E-2,2.1448092E-1,7.3551955E-3,1.9217268E-1,-3.1416427E-2,2.408885E-1,-3.0112623E-3,-3.8878944E-2,1.7619145E-1,-3.70973E-2,6.681187E-2,2.1740292E-1],"split_indices":[225,303,612,0,26,254,275,82,0,952,754,352,0,28,0,688,964,126,196,572,0,0,0,0,0,0,0,0,0,0,0,0,0],"split_type":[0,0,0,0,0,0,0,0,0,0,0,0,0,0,0,0,0,0,0,0,0,0,0,0,0,0,0,0,0,0,0,0,0],"sum_hessian":[1.2457465E3,1.07083824E2,1.1386627E3,1.1551657E0,1.0592866E2,1.1091588E3,2.9503891E1,1.04925674E2,1.0029819E0,1.0845294E3,2.4629303E1,2.5119244E1,4.384646E0,1.0231829E2,2.60739E0,2.2250856E1,1.0622786E3,3.475522E0,2.1153782E1,2.3269472E1,1.8497725E0,1.121784E0,1.011965E2,9.634085E0,1.2616772E1,1.0591957E3,3.0829542E0,1.0196639E0,2.455858E0,1.9007015E1,2.146766E0,3.453797E0,1.9815674E1],"tree_param":{"num_deleted":"0","num_feature":"1000","num_nodes":"33","size_leaf_vector":"1"}},{"base_weights":[-1.3641165E-2,3.550468E0,-3.9259622E-1,-9.024759E-3,3.586946E0,2.7227209E0,-4.8342898E-1,3.6188E0,3.882246E-2,-4.8093358E-1,3.2225394E0,-5.5665356E-1,2.1865354E0,3.6374173E0,4.011891E-2,-4.0909562E-2,2.2786431E-2,-1.5737085E-2,3.4650662E0,-5.7851845E-1,4.8274717E0,1.2168566E0,3.6972857E0,1.8276644E-1,6.461102E-2,-2.9088836E-3,1.8045862E-1,1.24076866E-1,-3.0119056E-2,2.794883E-1,6.590573E-2,2.8305668E-2,1.9535385E-1,-2.9195657E-2,2.1170235E-1],"categories":[],"categories_nodes":[],"categories_segments":[],"categories_sizes":[],"default_left":[0,0,0,0,1,0,1,1,0,0,0,1,1,1,0,0,0,0,1,0,0,1,0,0,0,0,0,0,0,0,0,0,0,0,0],"id":4,"left_children":[1,3,5,-1,7,9,11,13,-1,15,17,19,21,23,-1,-1,-1,-1,25,27,29,31,33,-1,-1,-1,-1,-1,-1,-1,-1,-1,-1,-1,-1],"loss_changes":[1.6663691E3,1.6784912E1,3.1687622E2,0E0,7.7071533E0,5.2380005E1,2.1322784E2,3.1575928E0,0E0,2.0011022E0,2.4759491E1,1.2714014E2,3.8203217E1,1.0058594E-1,0E0,0E0,0E0,0E0,1.3361389E1,7.837784E1,4.3470154E0,3.147855E1,2.753151E1,0E0,0E0,0E0,0E0,0E0,0E0,0E0,0E0,0E0,0E0,0E0,0E0],"parents":[2147483647,0,0,1,1,2,2,4,4,5,5,6,6,7,7,9,9,10,10,11,11,12,12,13,13,18,18,19,19,20,20,21,21,22,22],"right_children":[2,4,6,-1,8,10,12,14,-1,16,18,20,22,24,-1,-1,-1,-1,26,28,30,32,34,-1,-1,-1,-1,-1,-1,-1,-1,-1,-1,-1,-1],"split_conditions":[1.5662395E0,1.2977733E-1,1.3022217E-1,-9.024759E-3,2.1460764E-1,1.0821859E-1,7.569597E-2,1.459158E-1,3.882246E-2,1.7522024E-1,9.116526E-2,2.2997242E-1,6.458432E-2,1.4320149E-1,4.011891E-2,-4.0909562E-2,2.2786431E-2,-1.5737085E-2,1.7486645E-2,7.9452336E-2,1.2174481E-1,1.3189292E-1,6.991673E-2,1.8276644E-1,6.461102E-2,-2.9088836E-3,1.8045862E-1,1.24076866E-1,-3.0119056E-2,2.794883E-1,6.590573E-2,2.8305668E-2,1.9535385E-1,-2.9195657E-2,2.1170235E-1],"split_indices":[225,784,186,0,679,842,254,817,0,879,155,548,867,441,0,0,0,0,867,274,879,168,476,0,0,0,0,0,0,0,0,0,0,0,0],"split_type":[0,0,0,0,0,0,0,0,0,0,0,0,0,0,0,0,0,0,0,0,0,0,0,0,0,0,0,0,0,0,0,0,0,0,0],"sum_hessian":[1.2317332E3,1.1757353E2,1.1141595E3,1.1001699E0,1.1647336E2,3.0744143E1,1.0834154E3,1.1488367E2,1.5896909E0,4.154312E0,2.658983E1,1.055266E3,2.814946E1,1.1383966E2,1.0440093E0,3.1474965E0,1.0068157E0,1.6869973E0,2.4902834E1,1.0518868E3,3.3791606E0,1.824459E1,9.904869E0,1.12422386E2,1.417273E0,1.0019711E0,2.3900862E1,7.3423333E0,1.0445444E3,2.2891088E0,1.0900519E0,1.566563E1,2.5789597E0,1.0936996E0,8.81117E0],"tree_param":{"num_deleted":"0","num_feature":"1000","num_nodes":"35","size_leaf_vector":"1"}},{"base_weights":[5.6791543E-3,3.0958738E0,-3.5624805E-1,-6.6851857E-3,3.1221719E0,2.3354979E0,-4.4561887E-1,3.140423E0,3.235698E-2,2.8687265E0,-2.961458E-2,-5.1257193E-1,2.2591965E0,3.162476E0,5.683164E-2,-1.5627261E-2,3.0749547E0,-7.4315727E-1,8.55697E-2,-5.557537E-1,2.5057654E0,3.5448065E0,1.2395103E0,1.5883921E-1,3.865793E-2,-3.429527E-3,1.6010149E-1,-4.3620422E-2,-2.2917287E-3,-2.8854048E-2,2.003506E-1,1.5232396E-1,-2.1748016E-2,1.9885038E-1,9.658125E-3,2.4337456E-2,2.0067549E-1],"categories":[],"categories_nodes":[],"categories_segments":[],"categories_sizes":[],"default_left":[0,0,0,0,1,0,1,1,0,0,1,1,0,1,0,0,0,1,0,1,1,1,1,0,0,0,0,0,0,0,0,0,0,0,0,0,0],"id":5,"left_children":[1,3,5,-1,7,9,11,13,-1,15,17,19,21,23,-1,-1,25,27,-1,29,31,33,35,-1,-1,-1,-1,-1,-1,-1,-1,-1,-1,-1,-1,-1,-1],"loss_changes":[1.3790264E3,1.1396606E1,2.6656274E2,0E0,3.7615967E0,4.5018433E1,1.9477124E2,2.02063E0,0E0,2.0042374E1,1.0644522E1,1.3747897E2,2.9703094E1,1.8214111E0,0E0,0E0,1.1167389E1,5.051801E-1,0E0,1.0256259E2,2.5030777E1,1.5118576E1,3.154638E1,0E0,0E0,0E0,0E0,0E0,0E0,0E0,0E0,0E0,0E0,0E0,0E0,0E0,0E0],"parents":[2147483647,0,0,1,1,2,2,4,4,5,5,6,6,7,7,9,9,10,10,11,11,12,12,13,13,16,16,17,17,19,19,20,20,21,21,22,22],"right_children":[2,4,6,-1,8,10,12,14,-1,16,18,20,22,24,-1,-1,26,28,-1,30,32,34,36,-1,-1,-1,-1,-1,-1,-1,-1,-1,-1,-1,-1,-1,-1],"split_conditions":[1.5662395E0,1.2977733E-1,1.3022217E-1,-6.6851857E-3,1.4320149E-1,1.0158826E-1,1.1804771E-1,1.1784476E-1,3.235698E-2,1.2364962E-1,4.7581762E-2,6.21447E-2,2.3819998E-1,1.459158E-1,5.683164E-2,-1.5627261E-2,1.4525393E-1,3.1466186E-2,8.55697E-2,2.5820285E-1,6.593081E-2,9.783297E-2,2.2333649E-1,1.5883921E-1,3.865793E-2,-3.429527E-3,1.6010149E-1,-4.3620422E-2,-2.2917287E-3,-2.8854048E-2,2.003506E-1,1.5232396E-1,-2.1748016E-2,1.9885038E-1,9.658125E-3,2.4337456E-2,2.0067549E-1],"split_indices":[225,784,186,0,441,455,254,430,0,841,940,480,606,817,0,0,581,596,0,964,645,127,754,0,0,0,0,0,0,0,0,0,0,0,0,0,0],"split_type":[0,0,0,0,0,0,0,0,0,0,0,0,0,0,0,0,0,0,0,0,0,0,0,0,0,0,0,0,0,0,0,0,0,0,0,0,0],"sum_hessian":[1.2310208E3,1.2827066E2,1.1027501E3,1.0030694E0,1.2726759E2,3.4629086E1,1.068121E3,1.2606911E2,1.1984895E0,2.8084366E1,6.5447216E0,1.0431111E3,2.5009935E1,1.2412479E2,1.9443201E0,1.6783677E0,2.6405998E1,5.0486894E0,1.4960318E0,1.0292026E3,1.3908382E1,9.967121E0,1.5042813E1,1.2305829E2,1.0665002E0,1.0438468E0,2.536215E1,4.047406E0,1.0012835E0,1.0252838E3,3.918847E0,1.171785E1,2.1905327E0,8.663378E0,1.3037435E0,1.2756609E1,2.286205E0],"tree_param":{"num_deleted":"0","num_feature":"1000","num_nodes":"37","size_leaf_vector":"1"}},{"base_weights":[-1.574432E-2,-3.7833905E-1,2.8184958E0,2.7825139E0,-4.534897E-1,2.8371382E0,1.1204301E-2,-2.893122E-2,2.951552E0,-5.194702E-1,1.6227006E0,2.8675709E0,1.0465392E0,3.3349094E0,9.9164003E-1,-5.647952E-1,2.4071248E0,-4.5721196E-2,2.0360427E0,2.8863435E0,1.2475212E-2,1.4076553E-2,6.1170608E-2,1.716588E-1,3.872858E-2,8.021548E-2,-1.8849496E-2,-2.9326543E-2,2.001499E-1,-1.2120826E-3,1.5934172E-1,1.3869293E-1,3.0312499E-2,3.225034E-2,1.4519767E-1],"categories":[],"categories_nodes":[],"categories_segments":[],"categories_sizes":[],"default_left":[1,0,1,0,1,1,0,0,1,1,0,1,0,1,1,1,0,0,0,0,0,0,0,0,0,0,0,0,0,0,0,0,0,0,0],"id":6,"left_children":[1,3,5,7,9,11,-1,-1,13,15,17,19,21,23,25,27,29,-1,31,33,-1,-1,-1,-1,-1,-1,-1,-1,-1,-1,-1,-1,-1,-1,-1],"loss_changes":[1.240492E3,2.5546072E2,5.986084E0,1.5907379E1,1.4415147E2,4.4017334E0,0E0,0E0,1.4694687E1,1.3595389E2,3.590719E1,5.8165283E0,1.758318E-1,2.2761536E0,5.0849333E0,1.0163263E2,2.977417E1,0E0,2.8094887E1,3.3354492E0,0E0,0E0,0E0,0E0,0E0,0E0,0E0,0E0,0E0,0E0,0E0,0E0,0E0,0E0,0E0],"parents":[2147483647,0,0,1,1,2,2,3,3,4,4,5,5,8,8,9,9,10,10,11,11,12,12,13,13,14,14,15,15,16,16,18,18,19,19],"right_children":[2,4,6,8,10,12,-1,-1,14,16,18,20,22,24,26,28,30,-1,32,34,-1,-1,-1,-1,-1,-1,-1,-1,-1,-1,-1,-1,-1,-1,-1],"split_conditions":[3.1809047E-2,1.3474914E-1,1.7604023E-1,4.587668E-1,7.569597E-2,1.883089E-1,1.1204301E-2,-2.893122E-2,1.1786102E-1,1.5334767E-1,4.9130633E-1,1.4727663E-1,1.8863246E-1,1.8578282E-1,1.5253116E-1,2.4025765E-1,1.2638746E-1,-4.5721196E-2,3.2419336E-1,2.9178707E-2,1.2475212E-2,1.4076553E-2,6.1170608E-2,1.716588E-1,3.872858E-2,8.021548E-2,-1.8849496E-2,-2.9326543E-2,2.001499E-1,-1.2120826E-3,1.5934172E-1,1.3869293E-1,3.0312499E-2,3.225034E-2,1.4519767E-1],"split_indices":[225,876,43,363,254,82,0,0,30,753,475,23,82,711,573,548,642,0,845,135,0,0,0,0,0,0,0,0,0,0,0,0,0,0,0],"split_type":[0,0,0,0,0,0,0,0,0,0,0,0,0,0,0,0,0,0,0,0,0,0,0,0,0,0,0,0,0,0,0,0,0,0,0],"sum_hessian":[1.2050416E3,1.0691304E3,1.3591125E2,2.3992085E1,1.0451383E3,1.3484872E2,1.0625253E0,1.0328072E0,2.2959278E1,1.0136739E3,3.1464369E1,1.3200375E2,2.8449686E0,1.8616367E1,4.3429103E0,9.99009E2,1.4664917E1,4.2381315E0,2.7226238E1,1.3096223E2,1.0415261E0,1.0209382E0,1.8240305E0,1.7599968E1,1.0163997E0,2.8810172E0,1.4618933E0,9.9514526E2,3.863761E0,3.7961872E0,1.086873E1,1.7338835E1,9.887402E0,1.314254E0,1.2964798E2],"tree_param":{"num_deleted":"0","num_feature":"1000","num_nodes":"35","size_leaf_vector":"1"}},{"base_weights":[9.75352E-4,2.5380402E0,-3.3578458E-1,-8.6198915E-3,2.5596101E0,2.565741E0,-4.1415402E-1,2.5760655E0,1.0891092E-2,2.684482E0,-6.5044463E-3,-5.2591497E-1,8.0620676E-1,2.5932918E0,3.220173E-2,3.2787306E0,1.8489416E0,-5.7453495E-1,1.4317894E0,3.804596E-1,3.2590125E0,1.3074243E-1,4.321794E-2,6.221477E-2,1.7343326E-1,1.04097895E-1,-1.4828809E-2,-3.0035019E-2,1.4839587E-1,1.256658E-2,1.18519805E-1,9.390897E-3,2.1465142E-1,1.8368945E-1,-2.847133E-2],"categories":[],"categories_nodes":[],"categories_segments":[],"categories_sizes":[],"default_left":[0,0,0,0,1,1,1,1,0,1,0,1,1,1,0,0,0,1,1,1,1,0,0,0,0,0,0,0,0,0,0,0,0,0,0],"id":7,"left_children":[1,3,5,-1,7,9,11,13,-1,15,-1,17,19,21,-1,23,25,27,29,31,33,-1,-1,-1,-1,-1,-1,-1,-1,-1,-1,-1,-1,-1,-1],"loss_changes":[1.0261005E3,8.669067E0,2.4215494E2,0E0,4.8216553E0,9.319565E0,1.4134511E2,2.9432373E0,0E0,7.2877197E0,0E0,9.097586E1,8.969532E1,2.8482666E0,0E0,1.2556305E0,7.3506317E0,8.751279E1,2.515276E1,5.5973637E1,2.2333847E1,0E0,0E0,0E0,0E0,0E0,0E0,0E0,0E0,0E0,0E0,0E0,0E0,0E0,0E0],"parents":[2147483647,0,0,1,1,2,2,4,4,5,5,6,6,7,7,9,9,11,11,12,12,13,13,15,15,16,16,17,17,18,18,19,19,20,20],"right_children":[2,4,6,-1,8,10,12,14,-1,16,-1,18,20,22,-1,24,26,28,30,32,34,-1,-1,-1,-1,-1,-1,-1,-1,-1,-1,-1,-1,-1,-1],"split_conditions":[1.5662395E0,1.2977733E-1,1.5732671E-1,-8.6198915E-3,1.7604023E-1,1.3130163E-1,3.3899896E-2,1.2201521E-1,1.0891092E-2,1.08180106E-1,-6.5044463E-3,1.3784747E-1,1.4107439E-1,1.1158628E-1,3.220173E-2,5.0606E-2,1.1575109E-1,1.949756E-1,5.0861593E-2,1.9240114E-1,8.717756E-2,1.3074243E-1,4.321794E-2,6.221477E-2,1.7343326E-1,1.04097895E-1,-1.4828809E-2,-3.0035019E-2,1.4839587E-1,1.256658E-2,1.18519805E-1,9.390897E-3,2.1465142E-1,1.8368945E-1,-2.847133E-2],"split_indices":[225,784,876,0,43,987,739,701,0,210,0,254,842,800,0,867,711,630,688,873,844,0,0,0,0,0,0,0,0,0,0,0,0,0,0],"split_type":[0,0,0,0,0,0,0,0,0,0,0,0,0,0,0,0,0,0,0,0,0,0,0,0,0,0,0,0,0,0,0,0,0,0,0],"sum_hessian":[1.1989883E3,1.3973361E2,1.0592548E3,1.0480206E0,1.386856E2,2.7023039E1,1.0322317E3,1.3761853E2,1.067069E0,2.5887022E1,1.1360154E0,9.4615186E2,8.607979E1,1.3606311E2,1.5554196E0,1.341909E1,1.2467933E1,9.2391284E2,2.2239033E1,7.433258E1,1.1747209E1,1.3388142E2,2.1816797E0,1.7906092E0,1.1628481E1,1.1273216E1,1.1947161E0,9.1796295E2,5.9498706E0,1.0411974E1,1.182706E1,7.184326E1,2.4893157E0,1.0635359E1,1.111849E0],"tree_param":{"num_deleted":"0","num_feature":"1000","num_nodes":"35","size_leaf_vector":"1"}},{"base_weights":[-1.409991E-2,2.351777E0,-3.454629E-1,2.3655727E0,1.11674E-2,2.1768918E0,-4.200423E-1,2.3867934E0,4.3817423E-2,-1.290233E-1,2.3623798E0,-4.83603E-1,1.7482848E0,2.401016E0,3.415128E-2,2.1153325E-2,-2.8933663E-2,2.9981046E0,1.5306708E0,-5.864361E-1,6.180754E-1,8.3369845E-1,2.4398522E0,1.2125943E-1,5.8184754E-2,3.9964758E-2,1.5581006E-1,9.1231026E-2,-3.6389686E-2,-3.1063143E-2,1.0774952E-1,5.18618E-3,1.3153704E-1,1.86977E-2,1.3858263E-1,-3.4062307E-2,1.3838616E-1],"categories":[],"categories_nodes":[],"categories_segments":[],"categories_sizes":[],"default_left":[0,1,0,1,0,0,1,1,0,0,1,1,1,1,0,0,0,0,0,1,1,1,0,0,0,0,0,0,0,0,0,0,0,0,0,0,0],"id":8,"left_children":[1,3,5,7,-1,9,11,13,-1,15,17,19,21,23,-1,-1,-1,25,27,29,31,33,35,-1,-1,-1,-1,-1,-1,-1,-1,-1,-1,-1,-1,-1,-1],"loss_changes":[9.2783093E2,3.7410278E0,1.9619315E2,2.470337E0,0E0,1.3125061E1,1.399206E2,1.7949829E0,0E0,1.034188E0,1.0106506E1,1.11515945E2,1.627951E1,1.3704224E0,0E0,0E0,0E0,1.328949E0,1.0677937E1,8.706564E1,8.6945114E1,1.1424604E1,1.8226166E1,0E0,0E0,0E0,0E0,0E0,0E0,0E0,0E0,0E0,0E0,0E0,0E0,0E0,0E0],"parents":[2147483647,0,0,1,1,2,2,3,3,5,5,6,6,7,7,9,9,10,10,11,11,12,12,13,13,17,17,18,18,19,19,20,20,21,21,22,22],"right_children":[2,4,6,8,-1,10,12,14,-1,16,18,20,22,24,-1,-1,-1,26,28,30,32,34,36,-1,-1,-1,-1,-1,-1,-1,-1,-1,-1,-1,-1,-1,-1],"split_conditions":[1.5662395E0,5.7030577E-2,2.2647008E-1,1.883089E-1,1.11674E-2,5.008473E-1,1.3784747E-1,1.4320149E-1,4.3817423E-2,9.017597E-2,1.08180106E-1,3.327985E-2,5.0861593E-2,2.0941325E-1,3.415128E-2,2.1153325E-2,-2.8933663E-2,6.1619855E-2,1.9138311E-1,1.12546176E-1,9.8541655E-2,2.2333649E-1,2.2531147E-1,1.2125943E-1,5.8184754E-2,3.9964758E-2,1.5581006E-1,9.1231026E-2,-3.6389686E-2,-3.1063143E-2,1.0774952E-1,5.18618E-3,1.3153704E-1,1.86977E-2,1.3858263E-1,-3.4062307E-2,1.3838616E-1],"split_indices":[225,783,876,82,0,474,254,441,0,556,210,739,688,98,0,0,0,942,711,262,842,754,592,0,0,0,0,0,0,0,0,0,0,0,0,0,0],"split_type":[0,0,0,0,0,0,0,0,0,0,0,0,0,0,0,0,0,0,0,0,0,0,0,0,0,0,0,0,0,0,0,0,0,0,0,0,0],"sum_hessian":[1.181476E3,1.4439833E2,1.0370776E3,1.4335773E2,1.0405992E0,2.8973526E1,1.00810406E3,1.4074942E2,2.608306E0,2.1797779E0,2.6793747E1,9.8014966E2,2.79544E1,1.3917834E2,1.5710795E0,1.0049721E0,1.1748058E0,1.3709787E1,1.3083961E1,8.968988E2,8.325085E1,1.2986066E1,1.4968333E1,1.3556981E2,3.6085382E0,1.0947659E0,1.2615022E1,1.1747116E1,1.3368447E0,8.864113E2,1.0487478E1,6.714338E1,1.6107462E1,1.1460284E1,1.5257812E0,1.3204827E0,1.3647851E1],"tree_param":{"num_deleted":"0","num_feature":"1000","num_nodes":"37","size_leaf_vector":"1"}},{"base_weights":[-1.4864144E-2,-3.2960522E-1,2.1661744E0,2.1804178E0,-4.0341944E-1,2.1822712E0,6.494693E-3,-7.6465183E-3,2.280003E0,-4.5857066E-1,2.0292523E0,1.8620875E-2,2.196828E0,2.912204E-2,2.47736E0,-5.255465E-1,1.2972418E0,-3.8010672E-1,2.7255716E0,2.2152002E0,3.21886E-2,2.9685587E-2,1.2714309E-1,-2.7475927E-2,1.7663233E-1,-3.4737136E-2,7.8024164E-2,-4.269282E-2,4.767783E-2,1.572736E-1,-3.4618493E-2,2.714606E-2,1.1140867E-1],"categories":[],"categories_nodes":[],"categories_segments":[],"categories_sizes":[],"default_left":[1,0,1,0,1,0,0,0,0,1,0,0,1,0,0,1,0,1,1,0,0,0,0,0,0,0,0,0,0,0,0,0,0],"id":9,"left_children":[1,3,5,7,9,11,-1,-1,13,15,17,-1,19,-1,21,23,25,27,29,31,-1,-1,-1,-1,-1,-1,-1,-1,-1,-1,-1,-1,-1],"loss_changes":[8.0088776E2,1.8977107E2,4.5391235E0,7.15271E0,1.3391957E2,3.026001E0,0E0,0E0,7.986603E0,1.147599E2,3.821099E1,0E0,2.6983032E0,0E0,1.5633392E0,9.291504E1,1.992614E1,4.507668E0,2.7025024E1,1.8806763E0,0E0,0E0,0E0,0E0,0E0,0E0,0E0,0E0,0E0,0E0,0E0,0E0,0E0],"parents":[2147483647,0,0,1,1,2,2,3,3,4,4,5,5,8,8,9,9,10,10,12,12,14,14,15,15,16,16,17,17,18,18,19,19],"right_children":[2,4,6,8,10,12,-1,-1,14,16,18,-1,20,-1,22,24,26,28,30,32,-1,-1,-1,-1,-1,-1,-1,-1,-1,-1,-1,-1,-1],"split_conditions":[3.1809047E-2,1.3474914E-1,1.5836208E-1,6.1619855E-2,1.0768688E-1,1.309906E-1,6.494693E-3,-7.6465183E-3,1.482037E-1,7.569597E-2,1.2927298E-1,1.8620875E-2,2.1460764E-1,2.912204E-2,1.2770769E-1,2.7375188E-1,1.99243E-1,7.3797576E-2,8.613817E-2,1.6369857E-1,3.21886E-2,2.9685587E-2,1.2714309E-1,-2.7475927E-2,1.7663233E-1,-3.4737136E-2,7.8024164E-2,-4.269282E-2,4.767783E-2,1.572736E-1,-3.4618493E-2,2.714606E-2,1.1140867E-1],"split_indices":[225,876,26,942,753,28,0,0,572,254,642,0,679,0,38,964,754,416,693,124,0,0,0,0,0,0,0,0,0,0,0,0,0],"split_type":[0,0,0,0,0,0,0,0,0,0,0,0,0,0,0,0,0,0,0,0,0,0,0,0,0,0,0,0,0,0,0,0,0],"sum_hessian":[1.1646483E3,1.01851715E3,1.4613118E2,2.8281368E1,9.902358E2,1.4491394E2,1.2172358E0,1.1356944E0,2.7145674E1,9.690773E2,2.115851E1,1.368349E0,1.435456E2,3.238756E0,2.3906918E1,9.3414484E2,3.493246E1,4.8457346E0,1.6312775E1,1.4144597E2,2.099614E0,1.1416037E0,2.2765314E1,9.295187E2,4.62614E0,3.8861592E0,3.10463E1,3.8410618E0,1.0046726E0,1.4598982E1,1.7137941E0,1.4187362E0,1.4002724E2],"tree_param":{"num_deleted":"0","num_feature":"1000","num_nodes":"33","size_leaf_vector":"1"}},{"base_weights":[-9.390503E-3,-1.828059E-1,1.9065294E0,1.6549599E0,-3.108095E-1,-3.620563E-2,1.9732647E0,1.9166436E0,1.9053318E-1,-3.958555E-1,1.8137878E0,2.0131872E0,-2.9143905E-2,2.0266826E0,-3.2711935E-1,6.783417E-2,-1.7286739E-1,-4.3572947E-1,1.6857626E0,2.0838103E0,-2.0023333E-1,2.0500286E0,-1.8121593E-3,1.0591054E-1,-1.1384754E-2,1.362811E-2,-3.3293035E-2,6.2209785E-2,-2.6373276E-2,1.2641864E-1,-2.3164181E-2,-3.9268237E-2,1.0518576E-1,1.1722913E-1,-4.5378334E-3,-4.1081764E-2,6.1685294E-2,1.04037955E-1,-1.4991942E-2],"categories":[],"categories_nodes":[],"categories_segments":[],"categories_sizes":[],"default_left":[1,0,0,0,1,0,1,1,0,1,1,1,0,1,0,0,0,0,0,1,1,1,0,0,0,0,0,0,0,0,0,0,0,0,0,0,0,0,0],"id":10,"left_children":[1,3,5,7,9,-1,11,13,15,17,19,21,-1,23,25,-1,27,29,31,33,35,37,-1,-1,-1,-1,-1,-1,-1,-1,-1,-1,-1,-1,-1,-1,-1,-1,-1],"loss_changes":[3.8130325E2,2.4806651E2,1.815149E1,2.5955032E1,1.786336E2,0E0,1.0680939E1,1.5022629E1,5.1176705E0,7.9385635E1,2.1124748E1,7.017456E0,0E0,1.1950546E1,9.0870786E-1,0E0,5.516409E0,7.717328E1,2.0258656E1,1.9302063E1,5.837683E0,7.148468E0,0E0,0E0,0E0,0E0,0E0,0E0,0E0,0E0,0E0,0E0,0E0,0E0,0E0,0E0,0E0,0E0,0E0],"parents":[2147483647,0,0,1,1,2,2,3,3,4,4,6,6,7,7,8,8,9,9,10,10,11,11,13,13,14,14,16,16,17,17,18,18,19,19,20,20,21,21],"right_children":[2,4,6,8,10,-1,12,14,16,18,20,22,-1,24,26,-1,28,30,32,34,36,38,-1,-1,-1,-1,-1,-1,-1,-1,-1,-1,-1,-1,-1,-1,-1,-1,-1],"split_conditions":[9.950797E-2,2.709868E-1,1.3362324E-1,2.8988224E-1,5.750393E-2,-3.620563E-2,1.7235745E-1,3.1163951E-2,1.740162E-1,6.291293E-2,4.0876094E-2,7.9101615E-2,-2.9143905E-2,5.6802694E-2,1.5883036E-1,6.783417E-2,2.4799745E-1,1.3291368E0,3.768526E-1,1.01945825E-1,7.4384525E-2,1.4585334E-1,-1.8121593E-3,1.0591054E-1,-1.1384754E-2,1.362811E-2,-3.3293035E-2,6.2209785E-2,-2.6373276E-2,1.2641864E-1,-2.3164181E-2,-3.9268237E-2,1.0518576E-1,1.1722913E-1,-4.5378334E-3,-4.1081764E-2,6.1685294E-2,1.04037955E-1,-1.4991942E-2],"split_indices":[395,186,693,867,730,0,987,941,891,480,100,427,0,693,342,0,342,473,651,723,657,43,0,0,0,0,0,0,0,0,0,0,0,0,0,0,0,0,0],"split_type":[0,0,0,0,0,0,0,0,0,0,0,0,0,0,0,0,0,0,0,0,0,0,0,0,0,0,0,0,0,0,0,0,0,0,0,0,0,0,0],"sum_hessian":[1.1455906E3,1.0513358E3,9.425482E1,6.7682304E1,9.836535E2,2.0882318E0,9.2166595E1,5.715947E1,1.0522837E1,9.465764E2,3.7077057E1,9.095839E1,1.2082008E0,5.457952E1,2.579947E0,1.8506885E0,8.672149E0,9.295611E2,1.7015324E1,3.2663204E1,4.413852E0,8.9351875E1,1.6065174E0,5.2508083E1,2.0714407E0,1.0018017E0,1.5781451E0,1.2336049E0,7.4385433E0,7.7256265E0,9.218355E2,2.3343704E0,1.4680952E1,2.909587E1,3.5673358E0,3.377298E0,1.0365542E0,8.83115E1,1.0403774E0],"tree_param":{"num_deleted":"0","num_feature":"1000","num_nodes":"39","size_leaf_vector":"1"}},{"base_weights":[-3.7839818E-3,-1.6876109E-1,1.762101E0,-2.9818416E-1,1.5551949E0,1.9136504E0,1.10795565E-1,-3.8155895E-1,1.8588704E0,1.6854595E0,-5.309324E-1,1.9429225E0,-1.31263435E-2,-6.046665E-1,1.1140134E0,-4.211143E-1,1.9514886E0,-3.72146E-2,2.0602171E0,9.711717E-1,2.02826E0,1.6055398E-2,-4.155494E-2,1.9689457E0,2.2854095E-3,1.5908284E-2,-4.2865537E-2,9.944621E-2,1.22531295E-1,-2.3513792E-2,5.9788413E-2,1.7630628E-1,-1.3629652E-2,-3.1049922E-2,1.0971329E-1,-3.3586755E-2,6.317578E-2,-2.967755E-2,1.05606236E-1,9.9629365E-2,1.2077324E-2,1.3409681E-2,-4.0971E-3],"categories":[],"categories_nodes":[],"categories_segments":[],"categories_sizes":[],"default_left":[1,1,1,1,1,1,0,1,0,1,0,1,0,0,0,1,0,0,0,0,0,0,0,1,0,0,0,0,0,0,0,0,0,0,0,0,0,0,0,0,0,0,0],"id":11,"left_children":[1,3,5,7,9,11,13,15,17,19,21,23,-1,25,27,29,31,-1,33,35,37,-1,-1,39,-1,-1,-1,-1,41,-1,-1,-1,-1,-1,-1,-1,-1,-1,-1,-1,-1,-1,-1],"loss_changes":[3.300123E2,2.3160857E2,2.4009369E1,1.7416248E2,2.0597595E1,6.1533203E0,7.2752056E0,8.659128E1,2.0434692E1,1.4798538E1,1.5511959E0,4.2316284E0,0E0,1.6755869E0,3.3827786E0,7.327287E1,5.5847225E1,0E0,1.3488556E1,1.243655E1,1.1226257E1,0E0,0E0,3.0440674E0,0E0,0E0,0E0,0E0,1.1208466E-1,0E0,0E0,0E0,0E0,0E0,0E0,0E0,0E0,0E0,0E0,0E0,0E0,0E0,0E0],"parents":[2147483647,0,0,1,1,2,2,3,3,4,4,5,5,6,6,7,7,8,8,9,9,10,10,11,11,13,13,14,14,15,15,16,16,18,18,19,19,20,20,23,23,28,28],"right_children":[2,4,6,8,10,12,14,16,18,20,22,24,-1,26,28,30,32,-1,34,36,38,-1,-1,40,-1,-1,-1,-1,42,-1,-1,-1,-1,-1,-1,-1,-1,-1,-1,-1,-1,-1,-1],"split_conditions":[9.950797E-2,4.3492846E-2,5.74614E-2,7.575488E-2,5.2810185E-2,1.5341532E-1,5.3538316E-1,6.305239E-2,3.1396338E-1,6.026846E-2,8.125609E-2,8.8161826E-2,-1.31263435E-2,8.2064725E-2,1.334241E-1,8.8449135E-2,2.387979E-1,-3.72146E-2,3.4131745E-1,6.663531E-2,5.977191E-2,1.6055398E-2,-4.155494E-2,1.4905289E-1,2.2854095E-3,1.5908284E-2,-4.2865537E-2,9.944621E-2,7.847277E-2,-2.3513792E-2,5.9788413E-2,1.7630628E-1,-1.3629652E-2,-3.1049922E-2,1.0971329E-1,-3.3586755E-2,6.317578E-2,-2.967755E-2,1.05606236E-1,9.9629365E-2,1.2077324E-2,1.3409681E-2,-4.0971E-3],"split_indices":[395,186,688,730,359,26,987,601,496,867,114,302,0,165,114,940,930,0,224,688,319,0,0,44,0,0,0,0,688,0,0,0,0,0,0,0,0,0,0,0,0,0,0],"split_type":[0,0,0,0,0,0,0,0,0,0,0,0,0,0,0,0,0,0,0,0,0,0,0,0,0,0,0,0,0,0,0,0,0,0,0,0,0,0,0,0,0,0,0],"sum_hessian":[1.1307551E3,1.0349681E3,9.578705E1,9.6346466E2,7.150344E1,8.75896E1,8.197447E0,9.28403E2,3.5061672E1,6.748172E1,4.021718E0,8.653282E1,1.0567782E0,5.01686E0,3.1805868E0,9.137308E2,1.4672225E1,2.3236187E0,3.2738056E1,2.3126486E1,4.4355232E1,1.0295401E0,2.9921782E0,8.532465E1,1.2081677E0,1.0225297E0,3.9943304E0,1.1551979E0,2.0253892E0,8.8745667E2,2.6274101E1,8.247566E0,6.424659E0,1.3858532E0,3.1352201E1,3.297504E0,1.9828981E1,1.1864519E0,4.316878E1,8.40212E1,1.3034532E0,1.0008056E0,1.0245835E0],"tree_param":{"num_deleted":"0","num_feature":"1000","num_nodes":"43","size_leaf_vector":"1"}},{"base_weights":[-1.857108E-2,-3.0440643E-1,1.8324889E0,-3.9116877E-1,1.7531532E0,-1.4630611E-2,1.8519822E0,-4.555489E-1,1.4828472E0,2.0274625E0,-6.366933E-1,1.922857E0,1.2579612E0,-4.869222E-1,2.1719635E0,-2.95844E-1,2.1104028E0,3.5536416E0,1.552133E0,-3.9301306E-2,-1.6125974E-3,1.9366603E0,1.33924885E-2,-1.1884029E-2,1.3588617E0,-2.544309E-2,1.3021883E-1,3.2324865E-3,4.0654537E-1,4.807757E-2,-2.8603995E-2,1.8065397E-1,7.1150474E-2,3.261077E-2,2.3184867E-1,7.7771666E-3,1.027424E-1,1.4439135E-2,9.745078E-2,7.3172E-2,2.067802E-2],"categories":[],"categories_nodes":[],"categories_segments":[],"categories_sizes":[],"default_left":[1,1,0,1,1,0,1,1,1,1,1,1,0,1,1,0,0,0,0,0,0,0,0,0,1,0,0,0,0,0,0,0,0,0,0,0,0,0,0,0,0],"id":12,"left_children":[1,3,5,7,9,-1,11,13,15,17,19,21,23,25,27,29,31,33,35,-1,-1,37,-1,-1,39,-1,-1,-1,-1,-1,-1,-1,-1,-1,-1,-1,-1,-1,-1,-1,-1],"loss_changes":[5.951457E2,1.7461916E2,6.774719E0,1.1356842E2,2.7253922E1,0E0,3.863861E0,7.5692825E1,3.557663E1,2.043013E1,4.1141498E-1,2.4837341E0,3.1599808E0,6.20618E1,1.3592624E2,3.6912432E0,1.8894135E1,2.1236145E1,2.007418E1,0E0,0E0,2.0876465E0,0E0,0E0,1.1504898E0,0E0,0E0,0E0,0E0,0E0,0E0,0E0,0E0,0E0,0E0,0E0,0E0,0E0,0E0,0E0,0E0],"parents":[2147483647,0,0,1,1,2,2,3,3,4,4,6,6,7,7,8,8,9,9,10,10,11,11,12,12,13,13,14,14,15,15,16,16,17,17,18,18,21,21,24,24],"right_children":[2,4,6,8,10,-1,12,14,16,18,20,22,24,26,28,30,32,34,36,-1,-1,38,-1,-1,40,-1,-1,-1,-1,-1,-1,-1,-1,-1,-1,-1,-1,-1,-1,-1,-1],"split_conditions":[3.1809047E-2,4.5279708E-2,1.2977733E-1,5.4621436E-2,5.952041E-2,-1.4630611E-2,1.8102518E-1,1.8802129E-1,2.5639195E-2,4.3014806E-2,1.3114698E-1,1.5055364E-1,1.5944377E-1,9.771143E-2,8.365048E-2,5.157775E-1,1.4050664E-1,3.1041333E-1,1.9533582E-1,-3.9301306E-2,-1.6125974E-3,1.6369857E-1,1.33924885E-2,-1.1884029E-2,1.3749708E-1,-2.544309E-2,1.3021883E-1,3.2324865E-3,4.0654537E-1,4.807757E-2,-2.8603995E-2,1.8065397E-1,7.1150474E-2,3.261077E-2,2.3184867E-1,7.7771666E-3,1.027424E-1,1.4439135E-2,9.745078E-2,7.3172E-2,2.067802E-2],"split_indices":[225,612,784,952,275,0,82,630,942,288,500,44,26,872,295,668,465,218,268,0,0,124,0,0,11,0,0,0,0,0,0,0,0,0,0,0,0,0,0,0,0],"split_type":[0,0,0,0,0,0,0,0,0,0,0,0,0,0,0,0,0,0,0,0,0,0,0,0,0,0,0,0,0,0,0,0,0,0,0,0,0,0,0,0,0],"sum_hessian":[1.1227756E3,9.733147E2,1.4946089E2,9.347101E2,3.8604588E1,1.231172E0,1.4822972E2,9.043972E2,3.0312853E1,3.476577E1,3.8388186E0,1.3043056E2,1.7799168E1,8.9453094E2,9.866285E0,8.043529E0,2.2269323E1,6.7183733E0,2.8047398E1,2.837396E0,1.0014225E0,1.2918295E2,1.2476044E0,1.0392244E0,1.6759943E1,8.890565E2,5.474431E0,8.035478E0,1.8308077E0,1.0019331E0,7.041596E0,5.653747E0,1.6615578E1,2.2620635E0,4.45631E0,7.770269E0,2.0277128E1,1.1427441E0,1.280402E2,1.4596965E1,2.1629784E0],"tree_param":{"num_deleted":"0","num_feature":"1000","num_nodes":"41","size_leaf_vector":"1"}},{"base_weights":[1.0245508E-2,-2.680529E-1,1.7304273E0,-3.8225013E-1,9.8597074E-1,-1.2333723E-2,1.7464387E0,-4.267178E-1,1.7918503E0,1.4986262E0,-4.479992E-1,1.8249923E0,1.1659328E0,-4.6459478E-1,1.8568724E0,2.363643E0,-1.24516614E-1,2.5142071E0,1.0062077E0,-7.542227E-1,1.0981482E0,-3.5550023E-4,1.8416189E0,1.3346641E0,5.521458E-1,-2.515392E-2,7.2284274E-2,2.5753567E-1,4.4181086E-2,-3.0722415E-2,1.3577302E-1,3.3333074E-2,-3.7858263E-2,4.4745307E-2,1.6838646E-1,6.821891E-2,-1.9478807E-2,-4.5198496E-2,4.6952005E-2,-1.3113844E-2,1.0320955E-1,2.6794074E-2,9.3088835E-2,1.33602815E-2,7.037456E-2,3.903572E-2,4.1516996E-3],"categories":[],"categories_nodes":[],"categories_segments":[],"categories_sizes":[],"default_left":[1,1,0,1,1,0,1,1,1,0,1,0,1,1,0,0,1,0,1,1,1,0,0,0,0,0,0,0,0,0,0,0,0,0,0,0,0,0,0,0,0,0,0,0,0,0,0],"id":13,"left_children":[1,3,5,7,9,-1,11,13,15,17,19,21,23,25,27,29,31,33,35,37,39,-1,41,43,45,-1,-1,-1,-1,-1,-1,-1,-1,-1,-1,-1,-1,-1,-1,-1,-1,-1,-1,-1,-1,-1,-1],"loss_changes":[5.335409E2,1.3775986E2,5.3438416E0,8.5839355E1,5.9738983E1,0E0,4.898285E0,7.552203E1,1.9832111E1,2.7185165E1,1.1211561E1,4.093231E0,1.4517689E0,6.32054E1,4.123747E1,1.6109398E1,3.0312142E0,2.2880486E1,2.1370457E1,5.640623E0,5.841117E0,0E0,2.4962158E0,8.577213E-1,6.066705E-1,0E0,0E0,0E0,0E0,0E0,0E0,0E0,0E0,0E0,0E0,0E0,0E0,0E0,0E0,0E0,0E0,0E0,0E0,0E0,0E0,0E0,0E0],"parents":[2147483647,0,0,1,1,2,2,3,3,4,4,6,6,7,7,8,8,9,9,10,10,11,11,12,12,13,13,14,14,15,15,16,16,17,17,18,18,19,19,20,20,22,22,23,23,24,24],"right_children":[2,4,6,8,10,-1,12,14,16,18,20,22,24,26,28,30,32,34,36,38,40,-1,42,44,46,-1,-1,-1,-1,-1,-1,-1,-1,-1,-1,-1,-1,-1,-1,-1,-1,-1,-1,-1,-1,-1,-1],"split_conditions":[3.1809047E-2,3.2119323E-2,1.2977733E-1,1.8642949E-1,3.922407E-2,-1.2333723E-2,1.7957051E-1,1.9329628E-1,4.710113E-2,2.2662778E-1,3.840927E-2,1.309906E-1,1.0879151E-1,6.305239E-2,2.339407E-1,4.478272E-1,5.429991E-2,1.00482754E-1,3.9389957E-2,1.1590488E-1,1.4187744E-1,-3.5550023E-4,1.3208233E-1,1.2506022E-1,8.1825495E-2,-2.515392E-2,7.2284274E-2,2.5753567E-1,4.4181086E-2,-3.0722415E-2,1.3577302E-1,3.3333074E-2,-3.7858263E-2,4.4745307E-2,1.6838646E-1,6.821891E-2,-1.9478807E-2,-4.5198496E-2,4.6952005E-2,-1.3113844E-2,1.0320955E-1,2.6794074E-2,9.3088835E-2,1.33602815E-2,7.037456E-2,3.903572E-2,4.1516996E-3],"split_indices":[225,940,784,753,645,0,82,386,30,942,178,28,10,601,50,756,977,867,631,168,942,0,430,701,30,0,0,0,0,0,0,0,0,0,0,0,0,0,0,0,0,0,0,0,0,0,0],"split_type":[0,0,0,0,0,0,0,0,0,0,0,0,0,0,0,0,0,0,0,0,0,0,0,0,0,0,0,0,0,0,0,0,0,0,0,0,0,0,0,0,0,0,0,0,0,0,0],"sum_hessian":[1.1125377E3,9.583379E2,1.5419986E2,8.789883E2,7.934958E1,1.1230228E0,1.5307684E2,8.62158E2,1.6830296E1,5.8419178E1,2.09304E1,1.3294328E2,2.0133549E1,8.488746E2,1.3283397E1,1.2782842E1,4.0474544E0,1.7735348E1,4.068383E1,1.7897825E1,3.0325758E0,1.2007807E0,1.3174251E2,1.4871004E1,5.2625446E0,8.328334E2,1.6041231E1,2.0507212E0,1.1232676E1,1.2716855E0,1.1511156E1,1.7745162E0,2.2729383E0,6.8286066E0,1.090674E1,3.23938E1,8.290033E0,1.6871864E1,1.0259608E0,1.561751E0,1.470825E0,2.4222682E0,1.2932024E2,1.2479731E0,1.3623032E1,3.0918448E0,2.1706998E0],"tree_param":{"num_deleted":"0","num_feature":"1000","num_nodes":"47","size_leaf_vector":"1"}},{"base_weights":[8.7301135E-3,1.6887084E0,-2.7443662E-1,1.7047669E0,4.574756E-1,-3.5893115E-1,1.5940385E0,1.3938147E-2,1.7142597E0,-2.3319056E-2,5.733892E-2,-4.2866677E-1,1.4290092E0,1.8150761E0,-6.615108E-1,1.2137837E-2,1.7226466E0,-4.7521576E-1,1.985056E0,-4.2775314E-2,1.677792E0,8.243813E-1,2.3245924E0,-3.7679795E-2,-8.7893E-3,8.6837724E-2,3.0820379E-2,-2.5041565E-2,1.8270609E-1,1.18630014E-1,-2.104087E-2,-3.606827E-2,9.311914E-2,8.4514335E-2,-1.1525695E-2,1.8506096E-1,7.961203E-2],"categories":[],"categories_nodes":[],"categories_segments":[],"categories_sizes":[],"default_left":[0,1,1,0,0,1,1,0,0,0,0,1,0,0,0,0,1,1,1,0,0,0,0,0,0,0,0,0,0,0,0,0,0,0,0,0,0],"id":14,"left_children":[1,3,5,7,9,11,13,-1,15,-1,-1,17,19,21,23,-1,25,27,29,-1,31,33,35,-1,-1,-1,-1,-1,-1,-1,-1,-1,-1,-1,-1,-1,-1],"loss_changes":[5.2382745E2,2.360443E0,1.4934436E2,1.6394958E0,2.7074335E0,1.1312446E2,2.1618584E1,0E0,1.4970703E0,0E0,0E0,9.861215E1,2.0819138E1,1.70458E1,6.379676E-2,0E0,1.335144E0,9.212364E1,1.6513374E1,0E0,1.5113762E1,1.345903E1,1.8562775E1,0E0,0E0,0E0,0E0,0E0,0E0,0E0,0E0,0E0,0E0,0E0,0E0,0E0,0E0],"parents":[2147483647,0,0,1,1,2,2,3,3,4,4,5,5,6,6,8,8,11,11,12,12,13,13,14,14,16,16,17,17,18,18,20,20,21,21,22,22],"right_children":[2,4,6,8,10,12,14,-1,16,-1,-1,18,20,22,24,-1,26,28,30,-1,32,34,36,-1,-1,-1,-1,-1,-1,-1,-1,-1,-1,-1,-1,-1,-1],"split_conditions":[1.5662395E0,1.1452599E-1,4.5279708E-2,1.537842E-1,6.7681685E-2,8.753998E-2,7.477334E-2,1.3938147E-2,2.4886645E-2,-2.3319056E-2,5.733892E-2,6.21447E-2,4.9130633E-1,1.79889E-1,3.146562E-1,1.2137837E-2,2.1460764E-1,2.2997242E-1,6.494485E-2,-4.2775314E-2,4.7767392E-1,1.054448E-1,1.2559488E-1,-3.7679795E-2,-8.7893E-3,8.6837724E-2,3.0820379E-2,-2.5041565E-2,1.8270609E-1,1.18630014E-1,-2.104087E-2,-3.606827E-2,9.311914E-2,8.4514335E-2,-1.1525695E-2,1.8506096E-1,7.961203E-2],"split_indices":[225,28,612,866,455,254,218,0,618,0,0,480,475,572,500,0,679,548,645,0,169,30,141,0,0,0,0,0,0,0,0,0,0,0,0,0,0],"split_type":[0,0,0,0,0,0,0,0,0,0,0,0,0,0,0,0,0,0,0,0,0,0,0,0,0,0,0,0,0,0,0,0,0,0,0,0,0],"sum_hessian":[1.0991654E3,1.5782915E2,9.413362E2,1.554175E2,2.4116511E0,9.0138257E2,3.9953625E1,1.2285675E0,1.5418893E2,1.1686876E0,1.2429636E0,8.682771E2,3.3105457E1,3.6565582E1,3.388043E0,1.0435246E0,1.531454E2,8.52637E2,1.5640107E1,3.011625E0,3.0093832E1,1.3307897E1,2.3257687E1,2.384496E0,1.0035468E0,1.5065414E2,2.491258E0,8.482538E2,4.3832593E0,1.3482191E1,2.1579154E0,1.9422445E0,2.8151587E1,6.9778433E0,6.3300533E0,6.668602E0,1.6589085E1],"tree_param":{"num_deleted":"0","num_feature":"1000","num_nodes":"37","size_leaf_vector":"1"}},{"base_weights":[-4.866722E-3,1.6026238E0,-2.7059898E-1,-1.022988E-2,1.6163759E0,-3.802062E-1,8.4808195E-1,1.6305362E0,-3.961455E-3,-4.212044E-1,2.318351E0,1.2812372E0,-5.4490024E-1,1.645042E0,1.1698434E-2,-4.6796256E-1,1.5689234E0,3.168283E0,-5.2348906E-1,2.88178E0,1.0188102E0,-7.486446E-1,7.1034215E-2,1.0237972E-2,8.289096E-2,-2.6054407E-2,6.799437E-2,5.6430448E-2,2.3279409E-1,6.6835205E-3,2.0494948E-1,-2.2197838E-3,-3.4019515E-2,3.9593372E-2,1.6160943E-1,1.8461634E-1,4.389301E-2,-4.4794306E-2,4.6886235E-2],"categories":[],"categories_nodes":[],"categories_segments":[],"categories_sizes":[],"default_left":[0,0,1,0,1,1,1,1,0,1,1,0,1,0,0,1,1,0,0,0,0,1,0,0,0,0,0,0,0,0,0,0,0,0,0,0,0,0,0],"id":15,"left_children":[1,3,5,-1,7,9,11,13,-1,15,17,19,21,23,-1,25,27,29,31,33,35,37,-1,-1,-1,-1,-1,-1,-1,-1,-1,-1,-1,-1,-1,-1,-1,-1,-1],"loss_changes":[4.6126328E2,4.137787E0,1.1394202E2,0E0,3.7820435E0,9.442349E1,5.07775E1,2.6726074E0,0E0,7.823399E1,3.2560654E1,2.3781746E1,9.228751E0,2.406372E0,0E0,7.9800415E1,2.1044033E1,2.7667961E1,2.5571632E-1,3.601944E0,1.7935188E1,5.589795E0,0E0,0E0,0E0,0E0,0E0,0E0,0E0,0E0,0E0,0E0,0E0,0E0,0E0,0E0,0E0,0E0,0E0],"parents":[2147483647,0,0,1,1,2,2,4,4,5,5,6,6,7,7,9,9,10,10,11,11,12,12,13,13,15,15,16,16,17,17,18,18,19,19,20,20,21,21],"right_children":[2,4,6,-1,8,10,12,14,-1,16,18,20,22,24,-1,26,28,30,32,34,36,38,-1,-1,-1,-1,-1,-1,-1,-1,-1,-1,-1,-1,-1,-1,-1,-1,-1],"split_conditions":[1.5662395E0,1.2977733E-1,2.1117225E-2,-1.022988E-2,1.7604023E-1,1.2568943E-1,4.7426093E-2,1.2201521E-1,-3.961455E-3,1.5334767E-1,1.0111944E-1,1.6608995E-1,1.2657353E-1,1.309906E-1,1.1698434E-2,2.0638636E-1,2.0234908E-1,1.7947134E-1,1.2617128E-1,4.2948857E-2,1.9566034E-1,1.0018092E-1,7.1034215E-2,1.0237972E-2,8.289096E-2,-2.6054407E-2,6.799437E-2,5.6430448E-2,2.3279409E-1,6.6835205E-3,2.0494948E-1,-2.2197838E-3,-3.4019515E-2,3.9593372E-2,1.6160943E-1,1.8461634E-1,4.389301E-2,-4.4794306E-2,4.6886235E-2],"split_indices":[225,784,940,0,43,468,645,701,0,753,533,140,254,28,0,254,200,572,642,631,630,739,0,0,0,0,0,0,0,0,0,0,0,0,0,0,0,0,0],"split_type":[0,0,0,0,0,0,0,0,0,0,0,0,0,0,0,0,0,0,0,0,0,0,0,0,0,0,0,0,0,0,0,0,0,0,0,0,0,0,0],"sum_hessian":[1.0778168E3,1.521836E2,9.256331E2,1.0444915E0,1.511391E2,8.436348E2,8.1998344E1,1.4992543E2,1.2136779E0,8.318409E2,1.1793939E1,6.260973E1,1.9388615E1,1.4820811E2,1.7173156E0,8.134927E2,1.8348204E1,8.990275E0,2.8036633E0,7.413507E0,5.5196224E1,1.8128603E1,1.2600117E0,1.4529433E0,1.4675517E2,7.912114E2,2.2281258E1,1.7252907E1,1.0952969E0,2.3785439E0,6.611731E0,1.008177E0,1.7954863E0,1.5325983E0,5.880909E0,1.5024258E0,5.3693798E1,1.7103958E1,1.0246451E0],"tree_param":{"num_deleted":"0","num_feature":"1000","num_nodes":"39","size_leaf_vector":"1"}},{"base_weights":[-1.5195132E-3,1.5523567E0,-2.596847E-1,1.5660665E0,-3.8539567E-3,-3.339748E-1,1.3602109E0,3.187779E-3,1.5806196E0,1.3010024E0,-3.9381054E-1,-6.43366E-1,1.5899081E0,1.59285E0,8.654263E-3,-1.7424329E-1,1.6955607E0,-4.3076938E-1,2.2483888E0,-3.9619517E-2,-2.0444444E-3,4.5896623E-1,1.9191456E0,8.033594E-2,1.2725445E-2,8.97239E-2,-3.8195357E-2,9.706529E-2,-3.604081E-2,-2.3496814E-2,8.871175E-2,1.1695439E-2,2.875696E-1,3.9785538E-2,-4.2598736E-2,1.0527599E-1,-2.2277826E-2],"categories":[],"categories_nodes":[],"categories_segments":[],"categories_sizes":[],"default_left":[0,1,1,0,0,0,0,0,1,0,1,1,0,1,0,0,1,1,1,0,0,0,1,0,0,0,0,0,0,0,0,0,0,0,0,0,0],"id":16,"left_children":[1,3,5,7,-1,9,11,-1,13,15,17,19,21,23,-1,25,27,29,31,-1,-1,33,35,-1,-1,-1,-1,-1,-1,-1,-1,-1,-1,-1,-1,-1,-1],"loss_changes":[4.2519473E2,3.4941711E0,1.098342E2,3.1742554E0,0E0,8.5610306E1,1.945581E1,0E0,2.2775269E0,1.8306309E1,8.298813E1,4.0138435E-1,1.2606125E1,2.3180542E0,0E0,1.0003409E1,1.5951637E1,7.244302E1,8.15524E1,0E0,0E0,4.863515E0,1.31636505E1,0E0,0E0,0E0,0E0,0E0,0E0,0E0,0E0,0E0,0E0,0E0,0E0,0E0,0E0],"parents":[2147483647,0,0,1,1,2,2,3,3,5,5,6,6,8,8,9,9,10,10,11,11,12,12,13,13,15,15,16,16,17,17,18,18,21,21,22,22],"right_children":[2,4,6,8,-1,10,12,-1,14,16,18,20,22,24,-1,26,28,30,32,-1,-1,34,36,-1,-1,-1,-1,-1,-1,-1,-1,-1,-1,-1,-1,-1,-1],"split_conditions":[1.5662395E0,1.7604023E-1,4.5279708E-2,2.9418759E-2,-3.8539567E-3,2.8740817E-1,2.0743023E-1,3.187779E-3,1.4320149E-1,1.9884534E-1,1.12546176E-1,4.6958674E-2,1.5182187E-1,1.4727663E-1,8.654263E-3,8.1307E-2,9.909685E-2,1.9329628E-1,1.1586653E-1,-3.9619517E-2,-2.0444444E-3,9.03658E-2,7.586327E-2,8.033594E-2,1.2725445E-2,8.97239E-2,-3.8195357E-2,9.706529E-2,-3.604081E-2,-2.3496814E-2,8.871175E-2,1.1695439E-2,2.875696E-1,3.9785538E-2,-4.2598736E-2,1.0527599E-1,-2.2277826E-2],"split_indices":[225,43,612,108,0,952,203,0,441,210,262,87,572,23,0,945,651,386,639,0,0,54,218,0,0,0,0,0,0,0,0,0,0,0,0,0,0],"split_type":[0,0,0,0,0,0,0,0,0,0,0,0,0,0,0,0,0,0,0,0,0,0,0,0,0,0,0,0,0,0,0,0,0,0,0,0,0],"sum_hessian":[1.0579167E3,1.5000931E2,9.079074E2,1.4879625E2,1.2130615E0,8.688547E2,3.9052746E1,1.4792002E0,1.4731705E2,2.994277E1,8.3891187E2,3.8314326E0,3.5221313E1,1.4591748E2,1.3995724E0,6.4362264E0,2.3506544E1,8.2816455E2,1.0747323E1,2.8189397E0,1.0124928E0,8.48141E0,2.6739904E1,1.4422241E2,1.6950622E0,1.0125122E0,5.423714E0,2.1515068E1,1.9914753E0,8.14484E2,1.3680575E1,7.50067E0,3.246653E0,7.060727E0,1.4206827E0,2.4887962E1,1.8519431E0],"tree_param":{"num_deleted":"0","num_feature":"1000","num_nodes":"37","size_leaf_vector":"1"}},{"base_weights":[-7.42751E-3,-2.4636044E-1,1.4333911E0,-3.669009E-1,9.3959284E-1,1.518037E0,8.820559E-1,-4.627434E-1,7.0478857E-1,1.2259258E0,-7.4715567E-1,1.5349975E0,-6.7480053E-3,1.0243006E-1,1.1370212E0,-5.0597984E-1,1.6911802E0,-4.913217E-2,1.0834838E0,1.0929292E0,1.9826393E-1,-8.910138E-1,2.330453E-2,1.5565329E0,5.085937E-3,-3.591312E-2,4.614698E-1,-1.1898533E-3,1.2665418E0,-2.6562486E-2,1.6366798E-1,1.4106403E-1,-3.4509018E-2,-4.5739677E-2,6.711107E-2,-2.7852416E-2,6.398944E-2,-3.4427443E-3,-4.808535E-2,7.8437194E-2,6.95292E-3,3.5109475E-2,-8.5472185E-3,7.714438E-3,6.780474E-2],"categories":[],"categories_nodes":[],"categories_segments":[],"categories_sizes":[],"default_left":[1,1,1,1,1,1,0,1,0,1,1,1,0,0,0,1,1,0,0,0,0,0,0,1,0,0,0,0,0,0,0,0,0,0,0,0,0,0,0,0,0,0,0,0,0],"id":17,"left_children":[1,3,5,7,9,11,13,15,17,19,21,23,-1,25,27,29,31,-1,33,35,-1,37,-1,39,-1,-1,41,-1,43,-1,-1,-1,-1,-1,-1,-1,-1,-1,-1,-1,-1,-1,-1,-1,-1],"loss_changes":[3.6048447E2,1.2874118E2,5.6121216E0,8.414137E1,4.1073692E1,3.78833E0,4.298609E0,7.066702E1,4.4123615E1,2.1700699E1,2.6297302E0,3.7468872E0,0E0,2.2681856E0,2.531721E0,7.199571E1,4.2265617E1,0E0,2.9926987E1,2.2150383E1,0E0,6.1299133E-1,0E0,1.9381104E0,0E0,0E0,9.087962E-1,0E0,1.2835293E0,0E0,0E0,0E0,0E0,0E0,0E0,0E0,0E0,0E0,0E0,0E0,0E0,0E0,0E0,0E0,0E0],"parents":[2147483647,0,0,1,1,2,2,3,3,4,4,5,5,6,6,7,7,8,8,9,9,10,10,11,11,13,13,14,14,15,15,16,16,18,18,19,19,21,21,23,23,26,26,28,28],"right_children":[2,4,6,8,10,12,14,16,18,20,22,24,-1,26,28,30,32,-1,34,36,-1,38,-1,40,-1,-1,42,-1,44,-1,-1,-1,-1,-1,-1,-1,-1,-1,-1,-1,-1,-1,-1,-1,-1],"split_conditions":[3.1809047E-2,2.1117225E-2,1.5018778E-1,3.327985E-2,1.3334307E-1,7.962753E-2,1.4155518E-1,1.2149404E-1,3.217281E-1,8.372106E-2,1.2194826E-1,1.4329003E-1,-6.7480053E-3,1.6252844E-1,4.6591148E-2,2.7375188E-1,5.8735184E-2,-4.913217E-2,6.285326E-2,6.882494E-2,1.9826393E-1,1.7569149E-1,2.330453E-2,1.3986598E-1,5.085937E-3,-3.591312E-2,1.6600952E-1,-1.1898533E-3,1.285827E-1,-2.6562486E-2,1.6366798E-1,1.4106403E-1,-3.4509018E-2,-4.5739677E-2,6.711107E-2,-2.7852416E-2,6.398944E-2,-3.4427443E-3,-4.808535E-2,7.8437194E-2,6.95292E-3,3.5109475E-2,-8.5472185E-3,7.714438E-3,6.780474E-2],"split_indices":[225,940,745,739,645,938,11,909,587,326,621,596,0,225,92,964,218,0,980,319,0,277,0,23,0,0,225,0,701,0,0,0,0,0,0,0,0,0,0,0,0,0,0,0,0],"split_type":[0,0,0,0,0,0,0,0,0,0,0,0,0,0,0,0,0,0,0,0,0,0,0,0,0,0,0,0,0,0,0,0,0,0,0,0,0,0,0,0,0,0,0,0,0],"sum_hessian":[1.0451057E3,8.9715784E2,1.4794789E2,8.150107E2,8.214717E1,1.2673676E2,2.1211134E1,7.486281E2,6.638252E1,7.045955E1,1.1687617E1,1.25520256E2,1.216506E0,5.5727315E0,1.5638403E1,7.346464E2,1.398171E1,1.1874775E1,5.4507748E1,6.85313E1,1.9282467E0,1.0686128E1,1.0014898E0,1.2357748E2,1.9427747E0,1.3915101E0,4.181221E0,1.6516747E0,1.3986729E1,7.306207E2,4.025729E0,9.356668E0,4.625042E0,5.957933E0,4.8549816E1,6.770083E0,6.176122E1,1.0023886E0,9.68374E0,1.2241619E2,1.1612872E0,2.9485607E0,1.2326605E0,1.2451203E0,1.2741609E1],"tree_param":{"num_deleted":"0","num_feature":"1000","num_nodes":"45","size_leaf_vector":"1"}},{"base_weights":[-1.8575853E-2,-2.4637356E-1,1.3898736E0,-3.5401243E-1,7.783428E-1,1.4253223E0,4.5896303E-2,-4.0779382E-1,1.2669655E0,1.059623E0,-9.0185213E-1,1.44478E0,7.6259114E-3,-2.0690177E-2,2.8696189E-2,-4.5057672E-1,1.764931E0,5.960712E-1,2.7883902E0,2.4586463E0,8.243859E-1,-4.862807E-2,-2.2756325E-3,1.5041239E0,8.828001E-1,-2.4597622E-2,7.4353114E-2,1.5055084E-1,4.7090524E-3,-6.7691477E-3,7.323247E-2,-3.1891968E-3,1.6280238E-1,1.3597979E-1,8.675784E-3,-8.041545E-3,5.2482095E-2,1.5150674E-2,7.652079E-2,5.4250535E-2,4.415329E-4],"categories":[],"categories_nodes":[],"categories_segments":[],"categories_sizes":[],"default_left":[1,1,1,1,1,1,0,1,1,0,1,1,0,0,0,1,1,1,0,1,0,0,0,0,1,0,0,0,0,0,0,0,0,0,0,0,0,0,0,0,0],"id":18,"left_children":[1,3,5,7,9,11,13,15,17,19,21,23,-1,-1,-1,25,27,29,31,33,35,-1,-1,37,39,-1,-1,-1,-1,-1,-1,-1,-1,-1,-1,-1,-1,-1,-1,-1,-1],"loss_changes":[3.3322055E2,9.887456E1,6.8233337E0,7.109946E1,4.1262573E1,3.2677917E0,1.3902463E0,7.370885E1,2.5124802E1,2.2167442E1,7.2900486E-1,3.2946472E0,0E0,0E0,0E0,6.2466736E1,3.1674622E1,1.2577072E1,1.0557056E1,5.5373955E0,1.446941E1,0E0,0E0,3.4504395E0,2.7578259E0,0E0,0E0,0E0,0E0,0E0,0E0,0E0,0E0,0E0,0E0,0E0,0E0,0E0,0E0,0E0,0E0],"parents":[2147483647,0,0,1,1,2,2,3,3,4,4,5,5,6,6,7,7,8,8,9,9,10,10,11,11,15,15,16,16,17,17,18,18,19,19,20,20,23,23,24,24],"right_children":[2,4,6,8,10,12,14,16,18,20,22,24,-1,-1,-1,26,28,30,32,34,36,-1,-1,38,40,-1,-1,-1,-1,-1,-1,-1,-1,-1,-1,-1,-1,-1,-1,-1,-1],"split_conditions":[3.1809047E-2,2.737324E-2,2.0941325E-1,1.0704278E-1,2.7443824E-2,1.1784476E-1,1.2889226E-1,1.9329628E-1,6.3913174E-2,1.3782062E-1,5.3121794E-2,1.8102518E-1,7.6259114E-3,-2.0690177E-2,2.8696189E-2,1.2149404E-1,2.4735846E-2,3.533654E-2,1.609027E-1,1.1396095E-1,1.6250163E-1,-4.862807E-2,-2.2756325E-3,3.4962827E-1,1.1090737E-1,-2.4597622E-2,7.4353114E-2,1.5055084E-1,4.7090524E-3,-6.7691477E-3,7.323247E-2,-3.1891968E-3,1.6280238E-1,1.3597979E-1,8.675784E-3,-8.041545E-3,5.2482095E-2,1.5150674E-2,7.652079E-2,5.4250535E-2,4.415329E-4],"split_indices":[225,940,98,548,214,430,413,386,623,982,864,82,0,0,0,909,621,113,533,962,427,0,0,28,10,0,0,0,0,0,0,0,0,0,0,0,0,0,0,0,0],"split_type":[0,0,0,0,0,0,0,0,0,0,0,0,0,0,0,0,0,0,0,0,0,0,0,0,0,0,0,0,0,0,0,0,0,0,0,0,0,0,0,0,0],"sum_hessian":[1.0365155E3,8.929225E2,1.435931E2,8.086358E2,8.428667E1,1.3984406E2,3.7490423E0,7.833925E2,2.5243254E1,7.2516136E1,1.1770527E1,1.3760532E2,2.2387362E0,2.1198375E0,1.6292049E0,7.6904205E2,1.4350515E1,1.8484175E1,6.7590804E0,9.077548E0,6.3438587E1,1.074738E1,1.0231462E0,1.22946E2,1.4659321E1,7.5369403E2,1.5348026E1,7.760414E0,6.590101E0,1.0492379E1,7.991795E0,1.0737917E0,5.685289E0,7.976543E0,1.101005E0,1.1858463E1,5.1580128E1,2.901887E0,1.2004411E2,1.1708782E1,2.9505384E0],"tree_param":{"num_deleted":"0","num_feature":"1000","num_nodes":"41","size_leaf_vector":"1"}},{"base_weights":[-6.053378E-3,1.3585817E0,-2.3513371E-1,1.4324199E0,7.2596425E-1,-3.019013E-1,1.2076203E0,-1.4178574E-2,1.4482594E0,8.820661E-1,-1.6531368E-1,-3.6783072E-1,1.2558959E0,-5.7198197E-1,1.4428384E0,1.4754138E0,1.0563599E-2,-1.1549466E-3,1.0005537E0,1.51523715E-2,-2.7951777E-2,-4.153008E-1,1.6971937E0,-3.1352943E-1,1.4642453E0,-4.3803915E-2,1.6783988E-2,1.6000856E0,-3.9338592E-2,6.4903E-3,7.437789E-2,5.7319343E-2,1.621601E-2,-2.2326611E-2,1.13020696E-1,-3.5264935E-2,1.0086669E-1,-3.862124E-2,3.277971E-2,1.01467215E-1,3.0598631E-2,-3.329618E-2,8.684297E-2],"categories":[],"categories_nodes":[],"categories_segments":[],"categories_sizes":[],"default_left":[0,1,1,0,0,1,0,0,1,0,0,1,0,1,1,0,0,0,0,0,0,1,0,1,1,0,0,0,0,0,0,0,0,0,0,0,0,0,0,0,0,0,0],"id":19,"left_children":[1,3,5,7,9,11,13,-1,15,17,19,21,23,25,27,29,-1,-1,31,-1,-1,33,35,37,39,-1,-1,41,-1,-1,-1,-1,-1,-1,-1,-1,-1,-1,-1,-1,-1,-1,-1],"loss_changes":[3.1781595E2,5.7862244E0,8.421861E1,3.9395447E0,2.5529613E0,8.599346E1,1.7026066E1,0E0,4.0149536E0,1.619071E0,8.002177E-1,7.910185E1,1.1590111E1,1.7388716E0,1.3343506E1,1.8638306E0,0E0,0E0,9.280529E-1,0E0,0E0,6.640698E1,1.5396339E1,2.646924E0,1.3316391E1,0E0,0E0,1.1237793E1,0E0,0E0,0E0,0E0,0E0,0E0,0E0,0E0,0E0,0E0,0E0,0E0,0E0,0E0,0E0],"parents":[2147483647,0,0,1,1,2,2,3,3,4,4,5,5,6,6,8,8,9,9,10,10,11,11,12,12,13,13,14,14,15,15,18,18,21,21,22,22,23,23,24,24,27,27],"right_children":[2,4,6,8,10,12,14,-1,16,18,20,22,24,26,28,30,-1,-1,32,-1,-1,34,36,38,40,-1,-1,42,-1,-1,-1,-1,-1,-1,-1,-1,-1,-1,-1,-1,-1,-1,-1],"split_conditions":[7.8311473E-1,1.8102518E-1,7.601382E-2,1.0380875E-1,1.4898047E-1,3.0450817E-2,4.2986163E-1,-1.4178574E-2,2.1460764E-1,1.6077961E-1,1.5614605E-1,1.8642949E-1,1.1036341E-1,7.189141E-2,7.972641E-2,1.537842E-1,1.0563599E-2,-1.1549466E-3,1.883089E-1,1.51523715E-2,-2.7951777E-2,1.1773932E-1,2.5418186E-1,1.02575585E-1,1.1222451E-1,-4.3803915E-2,1.6783988E-2,4.7767392E-1,-3.9338592E-2,6.4903E-3,7.437789E-2,5.7319343E-2,1.621601E-2,-2.2326611E-2,1.13020696E-1,-3.5264935E-2,1.0086669E-1,-3.862124E-2,3.277971E-2,1.01467215E-1,3.0598631E-2,-3.329618E-2,8.684297E-2],"split_indices":[225,82,254,707,98,876,674,0,679,225,817,753,152,777,957,866,0,0,82,0,0,480,693,416,210,0,0,169,0,0,0,0,0,0,0,0,0,0,0,0,0,0,0],"split_type":[0,0,0,0,0,0,0,0,0,0,0,0,0,0,0,0,0,0,0,0,0,0,0,0,0,0,0,0,0,0,0,0,0,0,0,0,0,0,0,0,0,0,0],"sum_hessian":[1.0146278E3,1.4513368E2,8.6949414E2,1.2883229E2,1.6301384E1,8.317913E2,3.7702797E1,1.0237147E0,1.2780858E2,1.3880615E1,2.4207683E0,7.9875037E2,3.304099E1,4.2344303E0,3.346837E1,1.24874565E2,2.9340153E0,1.6998643E0,1.2180751E1,1.2107695E0,1.2099986E0,7.8158246E2,1.7167862E1,3.813133E0,2.9227854E1,3.1978445E0,1.036586E0,3.1527205E1,1.941164E0,1.2214482E0,1.23653114E2,9.447991E0,2.7327595E0,7.733885E2,8.194019E0,1.8772123E0,1.5290648E1,2.7255213E0,1.0876117E0,1.6744392E1,1.2483462E1,1.5744017E0,2.9952803E1],"tree_param":{"num_deleted":"0","num_feature":"1000","num_nodes":"43","size_leaf_vector":"1"}},{"base_weights":[1.4213003E-2,1.3363708E0,-2.0776002E-1,-5.739146E-3,1.3555954E0,-7.139839E-1,-1.7659212E-2,1.3847392E0,3.3724168E-1,-8.1132084E-1,3.6784449E0,-1.4022428E-1,1.2634242E0,-1.3854911E-2,1.3991517E0,6.6933924E-1,-9.0800775E-3,-8.5349786E-1,9.0244345E-2,1.5957264E-2,2.7782154E-1,1.3033079E0,-2.1951866E-1,1.9270985E-1,9.2221206E-1,2.6776923E-3,7.0675366E-2,4.755833E-2,4.303196E-3,-4.3957E-2,1.2111133E-1,4.49271E-2,9.951903E-2,-1.4234143E-2,6.988176E-2,6.390845E-2,-3.250343E-2],"categories":[],"categories_nodes":[],"categories_segments":[],"categories_sizes":[],"default_left":[0,0,0,0,1,1,1,0,0,1,1,0,0,0,0,0,0,1,0,0,0,0,1,0,1,0,0,0,0,0,0,0,0,0,0,0,0],"id":20,"left_children":[1,3,5,-1,7,9,11,13,15,17,19,21,23,-1,25,27,-1,29,-1,-1,-1,31,33,-1,35,-1,-1,-1,-1,-1,-1,-1,-1,-1,-1,-1,-1],"loss_changes":[2.9355258E2,4.1668396E0,8.2411865E1,0E0,3.7468872E0,1.02946976E2,9.810793E1,3.6860352E0,1.0299987E0,2.6870499E1,3.134462E1,6.554643E1,4.467737E1,0E0,2.5647888E0,4.8165393E-1,0E0,2.1162506E1,0E0,0E0,0E0,6.50782E0,5.7441082E1,0E0,2.85486E1,0E0,0E0,0E0,0E0,0E0,0E0,0E0,0E0,0E0,0E0,0E0,0E0],"parents":[2147483647,0,0,1,1,2,2,4,4,5,5,6,6,7,7,8,8,9,9,10,10,11,11,12,12,14,14,15,15,17,17,21,21,22,22,24,24],"right_children":[2,4,6,-1,8,10,12,14,16,18,20,22,24,-1,26,28,-1,30,-1,-1,-1,32,34,-1,36,-1,-1,-1,-1,-1,-1,-1,-1,-1,-1,-1,-1],"split_conditions":[1.5662395E0,2.6709964E-2,2.00001E0,-5.739146E-3,2.0941325E-1,1.1129048E-1,3.327985E-2,1.0380875E-1,1.2273431E-1,9.5014125E-2,1.9780491E-1,1.5732671E-1,8.361327E-2,-1.3854911E-2,1.309906E-1,1.791948E-1,-9.0800775E-3,1.8446462E-1,9.0244345E-2,1.5957264E-2,2.7782154E-1,6.1869737E-2,7.15092E-2,1.9270985E-1,4.773037E-2,2.6776923E-3,7.0675366E-2,4.755833E-2,4.303196E-3,-4.3957E-2,1.2111133E-1,4.49271E-2,9.951903E-2,-1.4234143E-2,6.988176E-2,6.390845E-2,-3.250343E-2],"split_indices":[225,139,645,0,98,639,739,707,15,547,240,876,154,0,28,86,0,664,0,0,0,867,386,0,608,0,0,0,0,0,0,0,0,0,0,0,0],"split_type":[0,0,0,0,0,0,0,0,0,0,0,0,0,0,0,0,0,0,0,0,0,0,0,0,0,0,0,0,0,0,0,0,0,0,0,0,0],"sum_hessian":[9.9828973E2,1.4278517E2,8.555046E2,1.8018551E0,1.4098332E2,2.3280553E2,6.2269904E2,1.3671106E2,4.272262E0,2.2855597E2,4.249549E0,5.691384E2,5.3560627E1,1.0187364E0,1.3569232E2,2.4280634E0,1.8441988E0,2.2559286E2,2.9631119E0,1.9433203E0,2.3062284E0,2.8831562E1,5.403069E2,5.035002E0,4.8525623E1,1.4823073E0,1.3421E2,1.211808E0,1.2162555E0,2.2456659E2,1.0262704E0,1.9595383E1,9.23618E0,5.201702E2,2.0136612E1,3.972022E1,8.805407E0],"tree_param":{"num_deleted":"0","num_feature":"1000","num_nodes":"37","size_leaf_vector":"1"}},{"base_weights":[5.5603585E-3,1.2977464E0,-2.0361425E-1,-1.9588957E-2,1.3170921E0,-3.1061864E-1,7.712648E-1,2.2039264E-1,1.3354871E0,-3.992105E-1,5.984046E-1,-5.174847E-1,1.0493295E0,4.9220797E-2,-3.214808E-2,1.4035927E0,8.9477324E-1,1.0971786E0,-4.5977095E-1,4.1632846E-1,2.1203692E-1,5.8689993E-2,-8.436123E-1,1.1783296E0,-5.6789756E-1,7.140577E-2,1.454636E-2,5.5802476E-2,1.8885719E-2,2.1742208E-2,2.4421744E-1,-2.546987E-2,5.942927E-2,8.051089E-3,1.01299666E-1,2.0692434E-2,-4.8820585E-2,6.317842E-2,-3.7858076E-2,1.9594051E-2,-4.2639107E-2],"categories":[],"categories_nodes":[],"categories_segments":[],"categories_sizes":[],"default_left":[0,0,1,0,0,1,0,0,1,0,1,0,1,0,0,1,1,1,1,1,0,0,0,1,0,0,0,0,0,0,0,0,0,0,0,0,0,0,0,0,0],"id":21,"left_children":[1,3,5,-1,7,9,11,13,15,17,19,21,23,-1,-1,25,27,29,31,33,-1,-1,35,37,39,-1,-1,-1,-1,-1,-1,-1,-1,-1,-1,-1,-1,-1,-1,-1,-1],"loss_changes":[2.6640775E2,5.0043335E0,8.873419E1,0E0,2.449173E0,6.1857033E1,3.0713585E1,2.9027457E0,2.7527618E0,6.373963E1,4.356111E1,9.601049E0,1.5185181E1,0E0,0E0,2.6928406E0,1.9393349E0,6.669873E1,5.5523544E1,2.6880081E1,0E0,0E0,2.686757E0,1.1641663E1,1.9241436E0,0E0,0E0,0E0,0E0,0E0,0E0,0E0,0E0,0E0,0E0,0E0,0E0,0E0,0E0,0E0,0E0],"parents":[2147483647,0,0,1,1,2,2,4,4,5,5,6,6,7,7,8,8,9,9,10,10,11,11,12,12,15,15,16,16,17,17,18,18,19,19,22,22,23,23,24,24],"right_children":[2,4,6,-1,8,10,12,14,16,18,20,22,24,-1,-1,26,28,30,32,34,-1,-1,36,38,40,-1,-1,-1,-1,-1,-1,-1,-1,-1,-1,-1,-1,-1,-1,-1,-1],"split_conditions":[1.5662395E0,1.2977733E-1,2.1117225E-2,-1.9588957E-2,3.4457117E-1,3.2261368E-2,8.6837396E-2,1.5073594E-1,1.7957051E-1,2.1335721E-1,8.008288E-2,3.4430407E-2,5.2996352E-2,4.9220797E-2,-3.214808E-2,2.1460764E-1,1.3247637E-1,6.320805E-2,1.0002501E-1,1.2685739E-1,2.1203692E-1,5.8689993E-2,1.0248334E-1,7.2527215E-2,1.1963298E-1,7.140577E-2,1.454636E-2,5.5802476E-2,1.8885719E-2,2.1742208E-2,2.4421744E-1,-2.546987E-2,5.942927E-2,8.051089E-3,1.01299666E-1,2.0692434E-2,-4.8820585E-2,6.317842E-2,-3.7858076E-2,1.9594051E-2,-4.2639107E-2],"split_indices":[225,784,940,0,28,739,319,155,82,295,667,779,841,0,0,679,11,240,909,468,0,0,708,810,973,0,0,0,0,0,0,0,0,0,0,0,0,0,0,0,0],"split_type":[0,0,0,0,0,0,0,0,0,0,0,0,0,0,0,0,0,0,0,0,0,0,0,0,0,0,0,0,0,0,0,0,0,0,0,0,0,0,0,0,0],"sum_hessian":[9.836499E2,1.3632034E2,8.473295E2,1.3253062E0,1.3499504E2,7.641379E2,8.319169E1,2.441064E0,1.3255399E2,6.9679065E2,6.7347206E1,1.461134E1,6.858035E1,1.2206393E0,1.2204244E0,1.12919205E2,1.9634773E1,2.643717E1,6.7035345E2,6.520213E1,2.1450782E0,1.9418383E0,1.2669501E1,6.376542E1,4.814933E0,1.10206795E2,2.712414E0,1.2939034E1,6.6957397E0,2.3450718E1,2.986452E0,6.51432E2,1.892144E1,5.722568E1,7.9764495E0,1.0080507E0,1.1661451E1,6.1408165E1,2.3572521E0,1.0161009E0,3.798832E0],"tree_param":{"num_deleted":"0","num_feature":"1000","num_nodes":"41","size_leaf_vector":"1"}},{"base_weights":[6.170373E-3,1.2533945E0,-1.989352E-1,7.807415E-3,1.2779143E0,-2.7130318E-1,1.2257366E0,1.2932678E0,-1.0853111E-2,-3.50832E-1,7.688909E-1,-4.283687E-2,1.4287739E0,1.306622E0,-5.7206866E-3,-3.7289697E-1,3.0322614E0,-2.432375E-1,1.0366781E0,-3.635184E-2,1.5744342E0,9.616793E-3,6.6189356E-2,-2.1000093E-2,6.0452174E-2,-2.7059203E-2,2.0690636E-1,8.294968E-2,-2.9090425E-2,5.9085455E-2,-4.016812E-2,-3.7528332E-2,8.6080514E-2],"categories":[],"categories_nodes":[],"categories_segments":[],"categories_sizes":[],"default_left":[0,0,1,0,1,1,0,1,0,1,0,0,0,0,0,1,0,0,1,0,0,0,0,0,0,0,0,0,0,0,0,0,0],"id":22,"left_children":[1,3,5,-1,7,9,11,13,-1,15,17,-1,19,21,-1,23,25,27,29,-1,31,-1,-1,-1,-1,-1,-1,-1,-1,-1,-1,-1,-1],"loss_changes":[2.4856787E2,3.4923706E0,8.6367905E1,0E0,3.3584137E0,6.603308E1,1.8356998E1,2.6471863E0,0E0,5.6309235E1,1.564035E1,0E0,1.285611E1,2.2643738E0,0E0,5.5299057E1,2.1600399E1,9.137254E0,1.2981365E1,0E0,1.3354576E1,0E0,0E0,0E0,0E0,0E0,0E0,0E0,0E0,0E0,0E0,0E0,0E0],"parents":[2147483647,0,0,1,1,2,2,4,4,5,5,6,6,7,7,9,9,10,10,12,12,13,13,15,15,16,16,17,17,18,18,20,20],"right_children":[2,4,6,-1,8,10,12,14,-1,16,18,-1,20,22,-1,24,26,28,30,-1,32,-1,-1,-1,-1,-1,-1,-1,-1,-1,-1,-1,-1],"split_conditions":[1.5662395E0,1.8276443E-1,7.601382E-2,7.807415E-3,1.7604023E-1,6.037577E-2,4.9130633E-1,1.5280363E-1,-1.0853111E-2,2.4127252E-1,1.7034404E-1,-4.283687E-2,4.7767392E-1,3.4962827E-1,-5.7206866E-3,1.1392388E-1,1.865889E-1,1.5621936E-1,7.147365E-2,-3.635184E-2,2.010265E-1,9.616793E-3,6.6189356E-2,-2.1000093E-2,6.0452174E-2,-2.7059203E-2,2.0690636E-1,8.294968E-2,-2.9090425E-2,5.9085455E-2,-4.016812E-2,-3.7528332E-2,8.6080514E-2],"split_indices":[225,234,254,0,43,940,475,26,0,76,168,0,169,28,0,548,155,633,359,0,465,0,0,0,0,0,0,0,0,0,0,0,0],"split_type":[0,0,0,0,0,0,0,0,0,0,0,0,0,0,0,0,0,0,0,0,0,0,0,0,0,0,0,0,0,0,0,0,0],"sum_hessian":[9.697047E2,1.3622495E2,8.3347974E2,3.138681E0,1.3308627E2,7.9395917E2,3.9520573E1,1.3186691E2,1.219361E0,7.3818353E2,5.5775654E1,3.2248595E0,3.629571E1,1.306988E2,1.1681083E0,7.342842E2,3.899324E0,1.16887045E1,4.408695E1,2.0445468E0,3.4251167E1,2.1679673E0,1.2853084E2,7.1376514E2,2.051903E1,1.0422071E0,2.8571167E0,1.1768259E0,1.0511878E1,4.1197563E1,2.8893871E0,1.7950007E0,3.2456165E1],"tree_param":{"num_deleted":"0","num_feature":"1000","num_nodes":"33","size_leaf_vector":"1"}},{"base_weights":[9.529208E-3,-1.822504E-1,1.2040689E0,1.2926399E-2,-7.518008E-1,1.3027178E0,8.06887E-1,-1.0006595E-1,1.057843E0,-8.349105E-1,2.770136E0,-1.6519388E-2,1.3234903E0,9.6460944E-1,1.2464449E-1,-1.831337E-1,1.1484808E0,3.0395336E0,8.20179E-1,7.587281E-1,-8.936289E-1,1.8965447E-1,8.377894E-3,1.3526922E0,1.4554045E-1,1.1021767E0,1.9342283E-3,3.5388246E-1,-2.664308E-2,-1.1619309E-2,9.63834E-2,-2.8166492E-2,6.6626035E-2,9.346641E-2,2.0904343E-1,5.6249242E-2,-3.771887E-2,-6.5345014E-4,8.787287E-2,-4.6568334E-2,6.1902504E-2,6.8552904E-2,1.2931779E-2,-7.6953075E-3,2.1068081E-2,3.4925218E-3,5.8598757E-2,-1.5578808E-2,1.5764896E-2,2.8983597E-2,-1.8514382E-3],"categories":[],"categories_nodes":[],"categories_segments":[],"categories_sizes":[],"default_left":[1,1,1,1,1,0,1,1,0,0,0,0,1,1,0,1,0,1,1,1,1,0,0,1,0,0,0,1,0,0,0,0,0,0,0,0,0,0,0,0,0,0,0,0,0,0,0,0,0,0,0],"id":23,"left_children":[1,3,5,7,9,11,13,15,17,19,21,-1,23,25,27,29,31,33,35,37,39,-1,-1,41,43,45,47,49,-1,-1,-1,-1,-1,-1,-1,-1,-1,-1,-1,-1,-1,-1,-1,-1,-1,-1,-1,-1,-1,-1,-1],"loss_changes":[2.2059947E2,9.225023E1,4.168228E0,7.318744E1,6.4307045E1,4.001938E0,3.0143414E0,5.8237514E1,2.5995697E1,2.011203E1,1.2980267E1,0E0,3.3791962E0,3.111639E0,1.1861143E0,5.507523E1,1.178949E1,3.423767E-1,2.742767E1,6.1286254E0,1.7303238E1,0E0,0E0,1.6813354E0,3.6511427E-1,1.4003468E0,4.8546925E-1,5.076446E-1,0E0,0E0,0E0,0E0,0E0,0E0,0E0,0E0,0E0,0E0,0E0,0E0,0E0,0E0,0E0,0E0,0E0,0E0,0E0,0E0,0E0,0E0,0E0],"parents":[2147483647,0,0,1,1,2,2,3,3,4,4,5,5,6,6,7,7,8,8,9,9,10,10,12,12,13,13,14,14,15,15,16,16,17,17,18,18,19,19,20,20,23,23,24,24,25,25,26,26,27,27],"right_children":[2,4,6,8,10,12,14,16,18,20,22,-1,24,26,28,30,32,34,36,38,40,-1,-1,42,44,46,48,50,-1,-1,-1,-1,-1,-1,-1,-1,-1,-1,-1,-1,-1,-1,-1,-1,-1,-1,-1,-1,-1,-1,-1],"split_conditions":[3.1809047E-2,2.487872E-2,1.05803385E-1,3.327985E-2,1.1129048E-1,1.2977733E-1,1.3247637E-1,3.0450817E-2,8.361327E-2,5.130951E-1,3.5143897E-1,-1.6519388E-2,1.0072275E-1,1.420751E-1,1.4786687E-1,1.5334767E-1,4.5774448E-1,3.7777103E-2,4.773037E-2,8.248182E-2,1.543882E-1,1.8965447E-1,8.377894E-3,3.19973E-1,9.207579E-2,1.2506022E-1,7.921713E-2,1.8766494E-1,-2.664308E-2,-1.1619309E-2,9.63834E-2,-2.8166492E-2,6.6626035E-2,9.346641E-2,2.0904343E-1,5.6249242E-2,-3.771887E-2,-6.5345014E-4,8.787287E-2,-4.6568334E-2,6.1902504E-2,6.8552904E-2,1.2931779E-2,-7.6953075E-3,2.1068081E-2,3.4925218E-3,5.8598757E-2,-1.5578808E-2,1.5764896E-2,2.8983597E-2,-1.8514382E-3],"split_indices":[225,645,133,739,639,784,11,876,154,254,0,0,951,754,98,753,513,942,608,429,633,0,0,743,106,701,845,82,0,0,0,0,0,0,0,0,0,0,0,0,0,0,0,0,0,0,0,0,0,0,0],"split_type":[0,0,0,0,0,0,0,0,0,0,0,0,0,0,0,0,0,0,0,0,0,0,0,0,0,0,0,0,0,0,0,0,0,0,0,0,0,0,0,0,0,0,0,0,0,0,0,0,0,0,0],"sum_hessian":[9.609871E2,8.28777E2,1.3221011E2,6.17981E2,2.1079597E2,1.04079704E2,2.8130413E1,5.584925E2,5.948851E1,2.066817E2,4.114281E0,1.1200154E0,1.0295969E2,2.2512125E1,5.6182895E0,5.244531E2,3.403936E1,5.107973E0,5.438054E1,6.9210277E0,1.9976067E2,2.625057E0,1.4892241E0,1.0032425E2,2.635436E0,1.9570562E1,2.941562E0,4.5082717E0,1.1100177E0,5.1336444E2,1.1088703E1,3.1043093E0,3.0935051E1,3.8245366E0,1.2834364E0,4.58E1,8.580537E0,4.46076E0,2.4602678E0,1.9683905E2,2.9216213E0,9.8418915E1,1.9053377E0,1.4755287E0,1.1599075E0,1.3661292E0,1.8204433E1,1.4732883E0,1.4682738E0,2.5515997E0,1.9566718E0],"tree_param":{"num_deleted":"0","num_feature":"1000","num_nodes":"51","size_leaf_vector":"1"}},{"base_weights":[2.58179E-2,1.1544578E0,-1.544817E-1,1.2460988E0,5.819474E-1,2.462164E-2,-6.8968576E-1,-1.5489672E-2,1.2635633E0,8.3274865E-1,-2.700653E-1,-8.70073E-2,1.0504037E0,-8.0462027E-1,2.7545912E0,1.293297E0,6.8123788E-3,-1.0819937E-2,9.985567E-1,6.230483E-3,-4.4687444E-1,-1.16537236E-1,4.3420343E0,3.4048026E0,7.98175E-1,-8.3843815E-1,1.4717464E-1,-2.7907444E-2,1.7478009E-1,6.561253E-2,-7.2792795E-4,5.0183822E-5,5.472196E-2,-3.2315876E-2,-3.7032228E-3,-9.389213E-3,5.9482496E-2,3.125912E-1,1.5539693E-2,-2.8183809E-2,2.2497976E-1,7.785248E-2,1.5184079E-2,-4.42262E-2,7.561587E-2],"categories":[],"categories_nodes":[],"categories_segments":[],"categories_sizes":[],"default_left":[0,1,1,0,1,1,1,0,1,0,0,1,0,1,0,1,0,0,0,0,0,1,0,0,0,1,0,0,0,0,0,0,0,0,0,0,0,0,0,0,0,0,0,0,0],"id":24,"left_children":[1,3,5,7,9,11,13,-1,15,17,19,21,23,25,27,29,-1,-1,31,-1,33,35,37,39,41,43,-1,-1,-1,-1,-1,-1,-1,-1,-1,-1,-1,-1,-1,-1,-1,-1,-1,-1,-1],"loss_changes":[1.9315103E2,6.1342316E0,7.84814E1,3.430069E0,4.4807024E0,7.043086E1,8.347878E1,0E0,3.5370789E0,2.935338E0,4.2444417E-1,7.3083244E1,3.3129288E1,2.7745407E1,1.8778316E1,2.6916962E0,0E0,0E0,1.3070345E0,0E0,2.3970032E-1,5.1613678E1,2.655381E1,2.6583427E1,2.0477467E1,2.2833542E1,0E0,0E0,0E0,0E0,0E0,0E0,0E0,0E0,0E0,0E0,0E0,0E0,0E0,0E0,0E0,0E0,0E0,0E0,0E0],"parents":[2147483647,0,0,1,1,2,2,3,3,4,4,5,5,6,6,8,8,9,9,10,10,11,11,12,12,13,13,14,14,15,15,18,18,20,20,21,21,22,22,23,23,24,24,25,25],"right_children":[2,4,6,8,10,12,14,-1,16,18,20,22,24,26,28,30,-1,-1,32,-1,34,36,38,40,42,44,-1,-1,-1,-1,-1,-1,-1,-1,-1,-1,-1,-1,-1,-1,-1,-1,-1,-1,-1],"split_conditions":[7.8311473E-1,1.5018778E-1,2.487872E-2,1.0380875E-1,1.3291167E-1,3.327985E-2,1.1129048E-1,-1.5489672E-2,2.1460764E-1,4.698538E-2,1.4635648E-1,2.3915789E-1,2.0371458E-1,4.6959668E-1,1.1871164E-1,2.0941325E-1,6.8123788E-3,-1.0819937E-2,1.2506022E-1,6.230483E-3,1.8776043E-1,1.14110485E-1,2.8984582E-1,2.1963447E-1,1.0407992E-1,9.5014125E-2,1.4717464E-1,-2.7907444E-2,1.7478009E-1,6.561253E-2,-7.2792795E-4,5.0183822E-5,5.472196E-2,-3.2315876E-2,-3.7032228E-3,-9.389213E-3,5.9482496E-2,3.125912E-1,1.5539693E-2,-2.8183809E-2,2.2497976E-1,7.785248E-2,1.5184079E-2,-4.42262E-2,7.561587E-2],"split_indices":[225,745,645,707,11,739,639,0,679,85,98,961,775,667,783,98,0,0,701,0,82,909,262,783,178,547,0,0,0,0,0,0,0,0,0,0,0,0,0,0,0,0,0,0,0],"split_type":[0,0,0,0,0,0,0,0,0,0,0,0,0,0,0,0,0,0,0,0,0,0,0,0,0,0,0,0,0,0,0,0,0,0,0,0,0,0,0,0,0,0,0,0,0],"sum_hessian":[9.4729987E2,1.2974138E2,8.175585E2,1.108252E2,1.891618E1,6.1328107E2,2.042774E2,1.044385E0,1.09780815E2,1.46317425E1,4.284437E0,5.539172E2,5.9363888E1,1.9842249E2,5.8549085E0,1.0681623E2,2.964589E0,1.9551909E0,1.2676552E1,1.4168848E0,2.8675525E0,5.5121576E2,2.7014558E0,4.5348654E0,5.482902E1,1.9741757E2,1.0049264E0,1.1153647E0,4.739544E0,1.0528704E2,1.529184E0,1.2002037E0,1.1476348E1,1.390197E0,1.4773555E0,5.2351636E2,2.7699387E1,1.4592813E0,1.2421744E0,1.0854353E0,3.4494302E0,2.0784027E1,3.4044994E1,1.9423341E2,3.184158E0],"tree_param":{"num_deleted":"0","num_feature":"1000","num_nodes":"45","size_leaf_vector":"1"}},{"base_weights":[-8.753259E-3,1.1397947E0,-1.9438194E-1,1.1757851E0,-3.8972743E-2,-2.9270136E-1,6.6843027E-1,1.2016584E0,1.097434E-1,-5.3477186E-1,4.1633546E-2,-3.0812886E-1,2.552931E-1,1.7888127E-1,1.3464764E0,1.2775608E0,7.251753E-1,-1.8687785E-2,2.233266E-2,9.993953E-3,-4.6799988E-2,-3.3283803E-1,2.7278626E0,-7.145937E-1,6.6653264E-1,1.6561674E0,-2.5043651E-2,6.745506E-3,6.5000504E-2,4.3062378E-2,-1.068767E-3,-1.9283256E-2,5.362866E-2,-3.029753E-2,1.8945025E-1,-4.6242233E-2,1.06487805E-2,2.5638506E-2,1.2657307E-1,9.089E-2,-3.312496E-2,-2.8390078E-2,5.6525826E-2],"categories":[],"categories_nodes":[],"categories_segments":[],"categories_sizes":[],"default_left":[0,1,1,1,1,1,1,1,0,0,0,1,0,0,1,0,1,0,0,0,0,1,0,1,1,1,1,0,0,0,0,0,0,0,0,0,0,0,0,0,0,0,0],"id":25,"left_children":[1,3,5,7,9,11,13,15,17,19,-1,21,-1,23,25,27,29,-1,-1,-1,-1,31,33,35,37,39,41,-1,-1,-1,-1,-1,-1,-1,-1,-1,-1,-1,-1,-1,-1,-1,-1],"loss_changes":[1.995969E2,5.5717926E0,6.855993E1,3.3552704E0,2.5313547E0,6.188453E1,2.7224602E1,3.5339966E0,8.3420235E-1,1.273529E0,0E0,5.5146812E1,0E0,2.1914589E1,1.4711941E1,2.5198822E0,1.9748964E0,0E0,0E0,0E0,0E0,5.3726364E1,2.3329895E1,3.679206E0,7.9779825E0,1.1769791E1,5.2501736E0,0E0,0E0,0E0,0E0,0E0,0E0,0E0,0E0,0E0,0E0,0E0,0E0,0E0,0E0,0E0,0E0],"parents":[2147483647,0,0,1,1,2,2,3,3,4,4,5,5,6,6,7,7,8,8,9,9,11,11,13,13,14,14,15,15,16,16,21,21,22,22,23,23,24,24,25,25,26,26],"right_children":[2,4,6,8,10,12,14,16,18,20,-1,22,-1,24,26,28,30,-1,-1,-1,-1,32,34,36,38,40,42,-1,-1,-1,-1,-1,-1,-1,-1,-1,-1,-1,-1,-1,-1,-1,-1],"split_conditions":[1.5662395E0,2.0941325E-1,2.1117225E-2,1.1053387E-1,7.406056E-2,3.6610326E-1,2.5639195E-2,1.5018778E-1,9.39361E-2,1.0715783E-1,4.1633546E-2,2.706322E-1,2.552931E-1,2.0633909E-1,4.8767157E-2,1.0239937E-1,1.3749708E-1,-1.8687785E-2,2.233266E-2,9.993953E-3,-4.6799988E-2,1.7625988E-1,1.9548133E-1,1.007596E-1,1.6447975E-1,5.269259E-2,1.6560946E-1,6.745506E-3,6.5000504E-2,4.3062378E-2,-1.068767E-3,-1.9283256E-2,5.362866E-2,-3.029753E-2,1.8945025E-1,-4.6242233E-2,1.06487805E-2,2.5638506E-2,1.2657307E-1,9.089E-2,-3.312496E-2,-2.8390078E-2,5.6525826E-2],"split_indices":[225,98,940,800,455,827,942,745,106,618,0,383,0,631,427,26,11,0,0,0,0,254,987,268,427,224,867,0,0,0,0,0,0,0,0,0,0,0,0,0,0,0,0],"split_type":[0,0,0,0,0,0,0,0,0,0,0,0,0,0,0,0,0,0,0,0,0,0,0,0,0,0,0,0,0,0,0,0,0,0,0,0,0,0,0,0,0,0,0],"sum_hessian":[9.341413E2,1.2925517E2,8.048861E2,1.2542811E2,3.8270667E0,7.2314307E2,8.174304E1,1.2233185E2,3.096263E0,2.6858237E0,1.141243E0,7.2202264E2,1.1204054E0,4.8203762E1,3.3539276E1,1.04072205E2,1.8259644E1,1.2266023E0,1.8696606E0,1.1259795E0,1.5598443E0,7.170769E2,4.9457397E0,1.6855581E1,3.1348183E1,2.7191792E1,6.347484E0,2.1403282E0,1.0193188E2,1.531464E1,2.9450035E0,6.9179895E2,2.5277979E1,1.2976981E0,3.6480415E0,1.3743335E1,3.112246E0,3.0138252E1,1.2099305E0,2.5621735E1,1.5700567E0,4.665003E0,1.6824814E0],"tree_param":{"num_deleted":"0","num_feature":"1000","num_nodes":"43","size_leaf_vector":"1"}},{"base_weights":[-4.5348937E-3,1.106659E0,-1.8063329E-1,1.2015442E0,6.108472E-1,-6.8596554E-1,-8.453241E-3,1.2357372E0,2.5650746E-1,6.8620974E-1,-2.14744E-2,-7.908271E-1,2.2624907E0,-3.457558E-2,3.664245E0,1.2521731E0,-7.6214834E-3,-5.9403684E-3,3.8542334E-2,8.014852E-1,-2.0577224E-2,-8.567004E-1,7.042175E-1,-1.5981764E-2,1.5833099E-1,-9.072205E-2,1.7103987E0,8.689669E-3,2.679331E-1,6.340062E-2,-2.3931705E-3,1.2758503E-2,5.0854087E-2,7.4740127E-3,-1.08313365E-2,-4.4618737E-2,3.2391805E-2,-1.792375E-3,1.4930339E-1,-5.4038498E-3,2.3592918E-1,-3.518766E-2,9.941335E-2],"categories":[],"categories_nodes":[],"categories_segments":[],"categories_sizes":[],"default_left":[0,1,0,1,1,1,1,1,0,1,0,1,1,1,0,1,0,0,0,0,0,1,1,0,0,1,0,0,0,0,0,0,0,0,0,0,0,0,0,0,0,0,0],"id":26,"left_children":[1,3,5,7,9,11,13,15,17,19,-1,21,23,25,27,29,-1,-1,-1,31,33,35,37,-1,-1,39,41,-1,-1,-1,-1,-1,-1,-1,-1,-1,-1,-1,-1,-1,-1,-1,-1],"loss_changes":[1.8048416E2,5.2019806E0,6.9265656E1,3.071869E0,2.0432434E0,6.43417E1,5.7194546E1,2.4940796E0,1.0420966E0,1.742176E0,0E0,1.9916924E1,1.7838127E1,5.8118774E1,2.3969318E1,2.1173248E0,0E0,0E0,0E0,1.8883066E0,1.6390795E-1,1.06839905E1,1.5009996E1,0E0,0E0,4.842975E1,1.3804665E1,0E0,0E0,0E0,0E0,0E0,0E0,0E0,0E0,0E0,0E0,0E0,0E0,0E0,0E0,0E0,0E0],"parents":[2147483647,0,0,1,1,2,2,3,3,4,4,5,5,6,6,7,7,8,8,9,9,11,11,12,12,13,13,14,14,15,15,19,19,20,20,21,21,22,22,25,25,26,26],"right_children":[2,4,6,8,10,12,14,16,18,20,-1,22,24,26,28,30,-1,-1,-1,32,34,36,38,-1,-1,40,42,-1,-1,-1,-1,-1,-1,-1,-1,-1,-1,-1,-1,-1,-1,-1,-1],"split_conditions":[1.5662395E0,1.4885625E-1,2.00001E0,1.0430098E-1,1.5836208E-1,1.1129048E-1,2.3915789E-1,5.7030577E-2,1.3382247E-1,1.3749708E-1,-2.14744E-2,9.57221E-2,1.0933022E-1,4.21132E-2,3.0148825E-1,1.4320149E-1,-7.6214834E-3,-5.9403684E-3,3.8542334E-2,1.6077961E-1,1.1292076E-1,1.1053321E-1,1.20653376E-1,-1.5981764E-2,1.5833099E-1,3.6763152E-1,3.4998554E-1,8.689669E-3,2.679331E-1,6.340062E-2,-2.3931705E-3,1.2758503E-2,5.0854087E-2,7.4740127E-3,-1.08313365E-2,-4.4618737E-2,3.2391805E-2,-1.792375E-3,1.4930339E-1,-5.4038498E-3,2.3592918E-1,-3.518766E-2,9.941335E-2],"split_indices":[225,745,645,708,26,639,961,783,136,11,0,739,262,480,300,441,0,0,0,225,10,952,631,0,0,827,651,0,0,0,0,0,0,0,0,0,0,0,0,0,0,0,0],"split_type":[0,0,0,0,0,0,0,0,0,0,0,0,0,0,0,0,0,0,0,0,0,0,0,0,0,0,0,0,0,0,0,0,0,0,0,0,0,0,0,0,0,0,0],"sum_hessian":[9.203244E2,1.2517522E2,7.951492E2,1.0387325E2,2.130196E1,2.0131744E2,5.938317E2,9.994931E1,3.923946E0,2.018047E1,1.1214907E0,1.9511015E2,6.2072926E0,5.9062146E2,3.210254E0,9.887659E1,1.0727255E0,2.7131572E0,1.2107888E0,1.7235424E1,2.9450448E0,1.8728514E2,7.8250117E0,1.7774622E0,4.42983E0,5.731285E2,1.7493027E1,1.4094317E0,1.8008223E0,9.771073E1,1.1658543E0,5.4949474E0,1.1740477E1,1.7042664E0,1.2407783E0,1.833447E2,3.9404352E0,6.65191E0,1.173102E0,5.720417E2,1.0867528E0,1.6474137E0,1.5845614E1],"tree_param":{"num_deleted":"0","num_feature":"1000","num_nodes":"43","size_leaf_vector":"1"}},{"base_weights":[1.4609855E-2,-1.4534949E-1,7.468631E-1,1.4140966E0,-2.109975E-1,9.5351696E-1,-8.4107316E-1,1.4859114E0,3.7543368E-1,-2.2618897E-1,2.4506608E-1,1.0513297E0,-2.9616374E-1,2.0765511E-2,-9.327491E-1,1.9794422E0,6.317566E-2,-1.0312074E-2,3.8301166E-2,-2.8903133E-1,9.563012E-1,1.1133777E0,-4.218065E-2,-6.107313E-1,4.4372972E-2,-9.838742E-1,-1.0543059E-3,4.7566764E-2,1.2838097E-1,-1.65771E-2,7.77082E-2,1.01542465E-1,2.0244E-2,5.863593E-2,-4.106265E-2,2.2983039E-2,-4.058072E-2,-5.045233E-2,-1.4395422E-2],"categories":[],"categories_nodes":[],"categories_segments":[],"categories_sizes":[],"default_left":[1,0,1,1,1,1,0,1,0,1,0,1,1,0,1,0,0,0,0,1,1,1,0,0,0,1,0,0,0,0,0,0,0,0,0,0,0,0,0],"id":27,"left_children":[1,3,5,7,9,11,13,15,17,19,-1,21,23,-1,25,27,-1,-1,-1,29,31,33,-1,35,-1,37,-1,-1,-1,-1,-1,-1,-1,-1,-1,-1,-1,-1,-1],"loss_changes":[1.07455696E2,7.738651E1,5.477388E1,1.7207794E0,5.7294598E1,1.8157745E1,2.6300392E0,5.980034E-1,9.1083556E-1,5.394825E1,0E0,1.6885391E1,4.7784467E0,0E0,8.394108E-1,1.7939606E0,0E0,0E0,0E0,5.4313046E1,2.0911259E1,1.6088776E1,0E0,2.4333262E0,0E0,1.5249252E-2,0E0,0E0,0E0,0E0,0E0,0E0,0E0,0E0,0E0,0E0,0E0,0E0,0E0],"parents":[2147483647,0,0,1,1,2,2,3,3,4,4,5,5,6,6,7,7,8,8,9,9,11,11,12,12,14,14,15,15,19,19,20,20,21,21,23,23,25,25],"right_children":[2,4,6,8,10,12,14,16,18,20,-1,22,24,-1,26,28,-1,-1,-1,30,32,34,-1,36,-1,38,-1,-1,-1,-1,-1,-1,-1,-1,-1,-1,-1,-1,-1],"split_conditions":[1.14087716E-1,1.3291368E0,8.2823746E-2,5.6946844E-2,4.790213E-1,1.0111944E-1,2.5381273E-1,1.1291099E-1,1.1143928E-1,1.5445048E-1,2.4506608E-1,5.4755665E-2,1.13364436E-1,2.0765511E-2,1.6962993E-1,1.6700539E-1,6.317566E-2,-1.0312074E-2,3.8301166E-2,7.664565E-2,2.6904752E-2,6.3951455E-2,-4.218065E-2,8.1606925E-2,4.4372972E-2,7.4968E-2,-1.0543059E-3,4.7566764E-2,1.2838097E-1,-1.65771E-2,7.77082E-2,1.01542465E-1,2.0244E-2,5.863593E-2,-4.106265E-2,2.2983039E-2,-4.058072E-2,-5.045233E-2,-1.4395422E-2],"split_indices":[867,473,645,120,827,533,865,395,120,611,0,768,977,0,359,155,0,0,0,667,98,175,0,549,0,134,0,0,0,0,0,0,0,0,0,0,0,0,0],"split_type":[0,0,0,0,0,0,0,0,0,0,0,0,0,0,0,0,0,0,0,0,0,0,0,0,0,0,0,0,0,0,0,0,0,0,0,0,0,0,0],"sum_hessian":[9.154727E2,7.5200104E2,1.634717E2,2.9548403E1,7.2245264E2,1.4500082E2,1.8470865E1,2.7234749E1,2.3136547E0,7.2126514E2,1.1875135E0,1.346226E2,1.0378222E1,1.0160531E0,1.7454811E1,6.0060616E0,2.1228687E1,1.1190753E0,1.1945792E0,6.855859E2,3.5679253E1,1.3075366E2,3.8689454E0,8.581549E0,1.7966741E0,1.645294E1,1.0018725E0,3.138149E0,2.8679125E0,6.709319E2,1.4653967E1,1.1190166E1,2.4489086E1,1.27244514E2,3.5091405E0,1.1524731E0,7.4290757E0,1.5444477E1,1.0084616E0],"tree_param":{"num_deleted":"0","num_feature":"1000","num_nodes":"39","size_leaf_vector":"1"}},{"base_weights":[-1.11149595E-4,-1.6345324E-1,1.0716764E0,-2.1244614E-1,1.485903E0,-2.6625846E-2,1.1020249E0,-3.0976495E-1,6.0201705E-1,1.9991698E0,-7.543791E-2,1.2039919E0,6.980061E-1,-3.7316266E-1,9.101691E-1,7.6634467E-1,-4.6170298E-2,2.798371E0,1.0397044E0,7.217017E-1,-6.296422E-1,-1.5457376E-2,1.2275482E0,8.17712E-1,-3.2330102E-1,4.631031E-2,-2.1793557E-2,3.0289238E-2,1.3187854E-1,3.1177042E-2,1.13201216E-1,-9.452603E-3,1.6679241E-1,-2.0365972E-2,7.428817E-2,-8.759914E-3,6.459267E-2,-3.922987E-2,-2.6874975E-3,6.3039385E-2,8.735395E-3,-1.2911752E-2,4.4666134E-2,-3.1788245E-2,6.6422387E-3],"categories":[],"categories_nodes":[],"categories_segments":[],"categories_sizes":[],"default_left":[1,1,0,1,1,0,1,1,1,1,0,0,1,0,1,1,0,0,1,0,1,0,1,0,0,0,0,0,0,0,0,0,0,0,0,0,0,0,0,0,0,0,0,0,0],"id":28,"left_children":[1,3,5,7,9,-1,11,13,15,17,19,21,23,25,27,29,-1,31,33,35,37,-1,39,41,43,-1,-1,-1,-1,-1,-1,-1,-1,-1,-1,-1,-1,-1,-1,-1,-1,-1,-1,-1,-1],"loss_changes":[1.5813031E2,6.3651855E1,6.4023895E0,6.0589535E1,1.837077E1,0E0,4.0026855E0,5.3038597E1,2.1181871E1,1.0239006E1,3.3650796E0,3.6761932E0,3.4516373E0,5.3238914E1,1.6253826E1,1.4475216E1,0E0,1.4702179E1,6.6617947E0,1.8463372E0,3.5230613E-1,0E0,2.9739075E0,2.152134E0,5.764325E-1,0E0,0E0,0E0,0E0,0E0,0E0,0E0,0E0,0E0,0E0,0E0,0E0,0E0,0E0,0E0,0E0,0E0,0E0,0E0,0E0],"parents":[2147483647,0,0,1,1,2,2,3,3,4,4,6,6,7,7,8,8,9,9,10,10,11,11,12,12,13,13,14,14,15,15,17,17,18,18,19,19,20,20,22,22,23,23,24,24],"right_children":[2,4,6,8,10,-1,12,14,16,18,20,22,24,26,28,30,-1,32,34,36,38,-1,40,42,44,-1,-1,-1,-1,-1,-1,-1,-1,-1,-1,-1,-1,-1,-1,-1,-1,-1,-1,-1,-1],"split_conditions":[3.1809047E-2,1.0768688E-1,2.6709964E-2,2.1117225E-2,4.710113E-2,-2.6625846E-2,1.05803385E-1,8.166744E-2,7.548322E-2,5.297693E-2,1.0599821E-1,1.309906E-1,1.420751E-1,2.1335721E-1,1.4215839E-1,9.237487E-2,-4.6170298E-2,2.9400852E-1,6.347671E-2,2.113787E-1,1.1907614E-1,-1.5457376E-2,1.0072275E-1,1.2506022E-1,7.729616E-2,4.631031E-2,-2.1793557E-2,3.0289238E-2,1.3187854E-1,3.1177042E-2,1.13201216E-1,-9.452603E-3,1.6679241E-1,-2.0365972E-2,7.428817E-2,-8.759914E-3,6.459267E-2,-3.922987E-2,-2.6874975E-3,6.3039385E-2,8.735395E-3,-1.2911752E-2,4.4666134E-2,-3.1788245E-2,6.6422387E-3],"split_indices":[225,753,139,940,30,0,133,254,237,319,879,28,754,295,359,721,0,166,133,127,40,0,951,701,879,0,0,0,0,0,0,0,0,0,0,0,0,0,0,0,0,0,0,0,0],"split_type":[0,0,0,0,0,0,0,0,0,0,0,0,0,0,0,0,0,0,0,0,0,0,0,0,0,0,0,0,0,0,0,0,0,0,0,0,0,0,0,0,0,0,0,0,0],"sum_hessian":[9.012503E2,7.827981E2,1.1845216E2,7.610625E2,2.1735605E1,1.8920861E0,1.16560074E2,6.803842E2,8.067828E1,1.6147081E1,5.588523E0,9.148971E1,2.5070366E1,6.474325E2,3.2951748E1,7.328158E1,7.396709E0,7.7636433E0,8.383438E0,2.1679795E0,3.4205432E0,1.2166154E0,9.0273094E1,2.2618618E1,2.4517474E0,2.91731E1,6.182594E2,2.916355E1,3.7881997E0,6.819547E1,5.086103E0,1.282648E0,6.480995E0,1.9958167E0,6.387622E0,1.1117744E0,1.0562052E0,2.4097495E0,1.0107937E0,8.731882E1,2.9542747E0,1.3265371E0,2.1292082E1,1.2213417E0,1.2304056E0],"tree_param":{"num_deleted":"0","num_feature":"1000","num_nodes":"45","size_leaf_vector":"1"}},{"base_weights":[8.859451E-3,1.7829041E-1,-6.2728935E-1,4.7411952E-2,1.0023369E0,-7.3364794E-1,2.071284E0,-4.6151515E-2,1.0492165E0,-5.0958014E-1,1.1188588E0,-8.27091E-1,4.2516905E-1,1.4416742E-1,5.598167E-2,1.603617E0,-9.5700495E-2,2.186935E0,8.4859794E-1,4.2395342E-2,-8.6738676E-1,-3.4947538E-1,1.1910291E0,-8.734424E-1,1.3086984E0,2.9135947E0,-2.8089908E-1,3.4341108E-2,-2.8097013E-2,6.255861E-3,1.2624864E-1,-5.6842403E-3,2.1117954E-1,1.4022684E-1,9.280788E-3,5.64523E-2,2.3307653E-2,-1.2527659E-2,-4.6861943E-2,-4.0994268E-2,3.7312996E-2,6.2012233E-2,-3.9688624E-2,-4.5211338E-2,6.415109E-2,1.767121E-2,7.7548E-2,3.5848763E-2,1.922497E-1,-3.0503944E-2,4.213825E-2],"categories":[],"categories_nodes":[],"categories_segments":[],"categories_sizes":[],"default_left":[1,1,1,1,0,1,0,0,0,0,0,1,0,0,0,0,1,0,0,0,0,1,1,1,1,0,1,0,0,0,0,0,0,0,0,0,0,0,0,0,0,0,0,0,0,0,0,0,0,0,0],"id":29,"left_children":[1,3,5,7,9,11,13,15,17,19,21,23,25,-1,27,29,31,33,35,-1,37,39,41,43,45,47,49,-1,-1,-1,-1,-1,-1,-1,-1,-1,-1,-1,-1,-1,-1,-1,-1,-1,-1,-1,-1,-1,-1,-1,-1],"loss_changes":[9.607061E1,7.5859856E1,5.532643E1,5.707611E1,1.755552E1,1.9961693E1,1.1900167E1,4.57177E1,1.0015537E1,4.420073E0,9.935303E0,1.7767159E1,2.5722145E1,0E0,1.6086354E0,2.1900673E1,4.258943E1,8.332344E0,4.3912125E0,0E0,4.514408E-2,3.1795058E0,9.370232E0,1.2110901E1,3.6997032E-1,3.832697E0,4.9355106E0,0E0,0E0,0E0,0E0,0E0,0E0,0E0,0E0,0E0,0E0,0E0,0E0,0E0,0E0,0E0,0E0,0E0,0E0,0E0,0E0,0E0,0E0,0E0,0E0],"parents":[2147483647,0,0,1,1,2,2,3,3,4,4,5,5,6,6,7,7,8,8,9,9,10,10,11,11,12,12,14,14,15,15,16,16,17,17,18,18,20,20,21,21,22,22,23,23,24,24,25,25,26,26],"right_children":[2,4,6,8,10,12,14,16,18,20,22,24,26,-1,28,30,32,34,36,-1,38,40,42,44,46,48,50,-1,-1,-1,-1,-1,-1,-1,-1,-1,-1,-1,-1,-1,-1,-1,-1,-1,-1,-1,-1,-1,-1,-1,-1],"split_conditions":[2.487872E-2,2.5215516E-2,1.1129048E-1,6.547438E-2,7.123234E-2,1.117132E-1,3.5143897E-1,8.7502286E-2,9.074854E-2,3.35241E-2,2.0052938E-1,8.662805E-2,3.0369577E-1,1.4416742E-1,1.1874575E-1,1.811607E0,4.790213E-1,1.5732495E-1,1.4591148E-1,4.2395342E-2,3.5478044E-2,6.6790126E-2,9.8129496E-2,9.011169E-2,1.3791713E-1,1.7260483E-1,2.6043546E-1,3.4341108E-2,-2.8097013E-2,6.255861E-3,1.2624864E-1,-5.6842403E-3,2.1117954E-1,1.4022684E-1,9.280788E-3,5.64523E-2,2.3307653E-2,-1.2527659E-2,-4.6861943E-2,-4.0994268E-2,3.7312996E-2,6.2012233E-2,-3.9688624E-2,-4.5211338E-2,6.415109E-2,1.767121E-2,7.7548E-2,3.5848763E-2,1.922497E-1,-3.0503944E-2,4.213825E-2],"split_indices":[645,940,639,745,319,842,0,154,688,388,784,140,474,0,326,30,827,114,747,0,845,943,891,730,621,474,845,0,0,0,0,0,0,0,0,0,0,0,0,0,0,0,0,0,0,0,0,0,0,0,0],"split_type":[0,0,0,0,0,0,0,0,0,0,0,0,0,0,0,0,0,0,0,0,0,0,0,0,0,0,0,0,0,0,0,0,0,0,0,0,0,0,0,0,0,0,0,0,0,0,0,0,0,0,0],"sum_hessian":[8.8929346E2,7.0282404E2,1.8646942E2,6.074102E2,9.541386E1,1.8009932E2,6.370104E0,5.5639923E2,5.1010937E1,6.585906E0,8.882795E1,1.6692531E2,1.3174016E1,4.233494E0,2.1366103E0,1.5309056E1,5.410902E2,6.1624413E0,4.4848495E1,1.0880821E0,5.4978237E0,3.9814422E0,8.484651E1,1.6395808E2,2.967216E0,2.220767E0,1.0953249E1,1.0020788E0,1.1345315E0,6.3135304E0,8.995526E0,5.398162E2,1.2739623E0,4.402498E0,1.7599437E0,2.4748308E1,2.010019E1,1.0258552E0,4.4719687E0,2.9617026E0,1.0197395E0,8.31596E1,1.6869137E0,1.6222299E2,1.7351E0,1.097694E0,1.8695221E0,1.1882268E0,1.0325403E0,8.825007E0,2.128242E0],"tree_param":{"num_deleted":"0","num_feature":"1000","num_nodes":"51","size_leaf_vector":"1"}},{"base_weights":[7.700972E-3,-1.4476813E-1,1.0664703E0,-6.4417404E-1,1.3552607E-2,1.1732813E0,4.8798117E-1,-7.372004E-1,1.7560242E0,1.0473678E0,-7.288248E-2,-7.633107E-2,1.2089703E0,-2.1481195E-2,5.696445E-1,8.393439E-1,-8.129647E-1,-3.253206E-2,1.2885505E-1,-4.4056494E-2,1.3091041E0,-9.273979E-2,2.3854075E-1,-5.1403463E-2,4.314939E-2,7.727839E-3,1.2294596E0,6.586835E-1,-1.9335492E-2,3.7501089E-3,9.164841E-2,-4.3065723E-2,6.832442E-2,-2.4729408E-2,7.6251425E-2,-9.012904E-3,4.3408014E-2,7.1532466E-3,6.234991E-2,4.202944E-2,6.551108E-3],"categories":[],"categories_nodes":[],"categories_segments":[],"categories_sizes":[],"default_left":[1,0,1,1,0,0,0,0,1,0,1,0,0,0,1,1,1,0,0,0,0,1,0,0,0,0,0,1,0,0,0,0,0,0,0,0,0,0,0,0,0],"id":30,"left_children":[1,3,5,7,9,11,13,15,17,19,21,23,25,-1,27,29,31,-1,-1,-1,33,35,-1,-1,-1,-1,37,39,-1,-1,-1,-1,-1,-1,-1,-1,-1,-1,-1,-1,-1],"loss_changes":[1.4207225E2,6.0838257E1,6.272667E0,4.264843E1,5.2363087E1,4.231125E0,1.666904E0,2.2063568E1,1.591655E1,2.397488E1,5.2470222E1,4.03182E0,1.7605743E0,0E0,1.7753553E0,6.46988E0,1.9228249E1,0E0,0E0,0E0,1.6415237E1,4.5543137E1,0E0,0E0,0E0,0E0,1.5063782E0,1.493443E0,0E0,0E0,0E0,0E0,0E0,0E0,0E0,0E0,0E0,0E0,0E0,0E0,0E0],"parents":[2147483647,0,0,1,1,2,2,3,3,4,4,5,5,6,6,7,7,8,8,9,9,10,10,11,11,12,12,14,14,15,15,16,16,20,20,21,21,26,26,27,27],"right_children":[2,4,6,8,10,12,14,16,18,20,22,24,26,-1,28,30,32,-1,-1,-1,34,36,-1,-1,-1,-1,38,40,-1,-1,-1,-1,-1,-1,-1,-1,-1,-1,-1,-1,-1],"split_conditions":[3.1809047E-2,2.00001E0,1.418781E-1,1.0894863E-1,2.620909E-1,3.4962827E-1,1.285827E-1,5.130951E-1,7.618059E-2,1.04867905E-1,5.526754E-1,7.836982E-2,2.9178707E-2,-2.1481195E-2,1.4727663E-1,9.3292065E-2,1.531629E-1,-3.253206E-2,1.2885505E-1,-4.4056494E-2,1.9225104E-1,8.3165094E-2,2.3854075E-1,-5.1403463E-2,4.314939E-2,7.727839E-3,1.2612785E-1,1.3247637E-1,-1.9335492E-2,3.7501089E-3,9.164841E-2,-4.3065723E-2,6.832442E-2,-2.4729408E-2,7.6251425E-2,-9.012904E-3,4.3408014E-2,7.1532466E-3,6.234991E-2,4.202944E-2,6.551108E-3],"split_indices":[225,645,98,295,606,28,701,254,98,264,827,367,135,0,23,430,739,0,0,0,109,909,0,0,0,0,430,11,0,0,0,0,0,0,0,0,0,0,0,0,0],"split_type":[0,0,0,0,0,0,0,0,0,0,0,0,0,0,0,0,0,0,0,0,0,0,0,0,0,0,0,0,0,0,0,0,0,0,0,0,0,0,0,0,0],"sum_hessian":[8.7813165E2,7.683482E2,1.09783455E2,1.8420964E2,5.8413855E2,9.180465E1,1.7978807E1,1.780035E2,6.2061577E0,4.421256E1,5.3992596E2,2.5175157E0,8.928713E1,1.1210692E0,1.6857738E1,7.6999736E0,1.7030351E2,1.631533E0,4.5746245E0,5.0006685E0,3.921189E1,5.3869836E2,1.2276046E0,1.2035594E0,1.3139563E0,1.8648075E0,8.7422325E1,1.5706666E1,1.1510733E0,4.9599977E0,2.7399762E0,1.6719911E2,3.1044004E0,4.0543046E0,3.5157585E1,4.944743E2,4.422406E1,1.5343883E0,8.588794E1,1.1239075E1,4.467592E0],"tree_param":{"num_deleted":"0","num_feature":"1000","num_nodes":"41","size_leaf_vector":"1"}},{"base_weights":[6.7645346E-4,-6.064255E-1,1.595607E-1,-6.9666123E-1,1.9349544E0,-8.999632E-2,6.235332E-1,-7.5237066E-1,1.315834E0,-5.041866E-3,1.1884248E-1,-1.4962393E-1,1.8547614E0,3.8734013E-1,1.3156039E0,-8.1726986E-1,6.8176126E-1,7.317463E-2,2.0683108E-2,1.785195E0,-2.0301756E-1,2.914324E0,-3.0212525E-1,-8.087861E-1,4.8353285E-1,-2.0540424E-1,1.4737866E0,-4.2954776E-2,3.3653148E-2,-8.4058475E-3,1.4696574E-1,1.197449E-1,-3.5976674E-2,-1.2403172E-2,8.721413E-2,4.8068515E-3,1.6990246E-1,-3.1008964E-2,2.3992332E-2,2.2181464E-2,-4.7032062E-2,9.504219E-2,2.06708E-2,-4.447854E-2,4.936043E-2,5.646372E-2,9.243934E-2],"categories":[],"categories_nodes":[],"categories_segments":[],"categories_sizes":[],"default_left":[0,1,1,1,1,1,1,1,0,0,0,0,1,0,0,1,1,0,0,1,1,0,1,0,0,1,1,0,0,0,0,0,0,0,0,0,0,0,0,0,0,0,0,0,0,0,0],"id":31,"left_children":[1,3,5,7,9,11,13,15,17,-1,-1,19,21,23,25,27,29,-1,-1,31,33,35,37,39,41,43,45,-1,-1,-1,-1,-1,-1,-1,-1,-1,-1,-1,-1,-1,-1,-1,-1,-1,-1,-1,-1],"loss_changes":[8.4002266E1,4.277249E1,7.9974945E1,2.0630196E1,6.0499115E0,5.2424004E1,3.897152E1,1.6481865E1,7.165718E-2,0E0,0E0,4.553203E1,3.162368E1,2.1273205E1,1.4988586E1,1.0810005E1,1.5752535E1,0E0,0E0,1.9810879E1,3.7834923E1,1.2098785E1,1.6250794E0,2.7099504E0,1.5969978E1,6.2860184E0,5.0709457E0,0E0,0E0,0E0,0E0,0E0,0E0,0E0,0E0,0E0,0E0,0E0,0E0,0E0,0E0,0E0,0E0,0E0,0E0,0E0,0E0],"parents":[2147483647,0,0,1,1,2,2,3,3,4,4,5,5,6,6,7,7,8,8,11,11,12,12,13,13,14,14,15,15,16,16,19,19,20,20,21,21,22,22,23,23,24,24,25,25,26,26],"right_children":[2,4,6,8,10,12,14,16,18,-1,-1,20,22,24,26,28,30,-1,-1,32,34,36,38,40,42,44,46,-1,-1,-1,-1,-1,-1,-1,-1,-1,-1,-1,-1,-1,-1,-1,-1,-1,-1,-1,-1],"split_conditions":[2.00001E0,1.1129048E-1,5.2293554E-2,9.5014125E-2,9.902231E-2,1.9329628E-1,2.6957836E-2,2.0051895E-1,1.50543E-1,-5.041866E-3,1.1884248E-1,2.787311E-1,3.1733785E-2,1.22571334E-1,1.2977733E-1,1.1239927E-1,1.3874535E-1,7.317463E-2,2.0683108E-2,4.6471186E-2,1.6383582E-1,9.058082E-2,1.2980841E-1,4.5677084E-2,1.2400649E-1,8.788171E-2,7.832049E-2,-4.2954776E-2,3.3653148E-2,-8.4058475E-3,1.4696574E-1,1.197449E-1,-3.5976674E-2,-1.2403172E-2,8.721413E-2,4.8068515E-3,1.6990246E-1,-3.1008964E-2,2.3992332E-2,2.2181464E-2,-4.7032062E-2,9.504219E-2,2.06708E-2,-4.447854E-2,4.936043E-2,5.646372E-2,9.243934E-2],"split_indices":[645,639,867,547,316,386,255,474,942,0,0,833,977,477,784,952,842,0,0,977,111,879,168,386,518,367,977,0,0,0,0,0,0,0,0,0,0,0,0,0,0,0,0,0,0,0,0],"split_type":[0,0,0,0,0,0,0,0,0,0,0,0,0,0,0,0,0,0,0,0,0,0,0,0,0,0,0,0,0,0,0,0,0,0,0,0,0,0,0,0,0,0,0,0,0,0,0],"sum_hessian":[8.6885724E2,1.7963794E2,6.892193E2,1.7417929E2,5.458639E0,4.486889E2,2.4053041E2,1.7009686E2,4.082429E0,1.1111996E0,4.3474393E0,4.3623663E2,1.24522505E1,1.8049123E2,6.003919E1,1.6314418E2,6.952686E0,2.9735577E0,1.1088711E0,1.0844141E1,4.253925E2,8.114741E0,4.337509E0,1.288331E1,1.6760791E2,5.6276784E0,5.4411507E1,1.5910258E2,4.0415998E0,5.723536E0,1.2291498E0,8.75648E0,2.0876603E0,4.1662747E2,8.765017E0,1.3644111E0,6.7503304E0,3.2304718E0,1.1070373E0,1.0019405E0,1.188137E1,6.670182E0,1.6093773E2,3.7376177E0,1.8900608E0,3.0449223E1,2.3962286E1],"tree_param":{"num_deleted":"0","num_feature":"1000","num_nodes":"47","size_leaf_vector":"1"}},{"base_weights":[5.553127E-3,-1.3938682E-1,9.814336E-1,2.134302E0,-1.7047738E-1,-1.3902368E-2,1.0082837E0,-2.6790012E-2,2.801905E0,-3.488232E-2,-6.4476186E-1,1.2242452E0,7.73809E-1,3.8134944E0,1.1569157E0,-5.8665458E-2,3.2499807E0,-7.4143773E-1,1.6250745E0,6.334056E-2,-2.0971915E-2,8.482821E-1,-2.5822428E-1,5.8818866E-2,2.1193579E-1,6.499933E-2,1.6892519E-2,-5.23423E-3,7.428484E-2,4.693448E-2,1.8483746E-1,4.478253E-2,-4.1414086E-2,-3.060217E-2,1.13246106E-1,4.478047E-2,-7.4826763E-3,-4.324242E-2,1.5220297E-2],"categories":[],"categories_nodes":[],"categories_segments":[],"categories_sizes":[],"default_left":[1,0,0,0,1,0,1,0,1,1,1,1,1,0,1,1,0,0,0,0,0,1,0,0,0,0,0,0,0,0,0,0,0,0,0,0,0,0,0],"id":32,"left_children":[1,3,5,7,9,-1,11,-1,13,15,17,19,21,23,25,27,29,31,33,-1,-1,35,37,-1,-1,-1,-1,-1,-1,-1,-1,-1,-1,-1,-1,-1,-1,-1,-1],"loss_changes":[1.2197481E2,5.344314E1,4.051491E0,1.9688667E1,4.7674652E1,0E0,4.5926056E0,0E0,9.4375E0,4.533323E1,3.737681E1,4.395668E0,4.459461E0,3.0426025E-1,1.0039234E-1,4.0996628E1,8.372078E-1,2.3317413E1,1.1473734E1,0E0,0E0,2.5754013E0,1.7922902E0,0E0,0E0,0E0,0E0,0E0,0E0,0E0,0E0,0E0,0E0,0E0,0E0,0E0,0E0,0E0,0E0],"parents":[2147483647,0,0,1,1,2,2,3,3,4,4,6,6,8,8,9,9,10,10,11,11,12,12,13,13,14,14,15,15,16,16,17,17,18,18,21,21,22,22],"right_children":[2,4,6,8,10,-1,12,-1,14,16,18,20,22,24,26,28,30,32,34,-1,-1,36,38,-1,-1,-1,-1,-1,-1,-1,-1,-1,-1,-1,-1,-1,-1,-1,-1],"split_conditions":[3.1809047E-2,1.3291368E0,2.9178707E-2,9.876695E-2,2.487872E-2,-1.3902368E-2,3.284084E-2,-2.6790012E-2,4.8208855E-2,2.4127252E-1,1.1129048E-1,1.1452599E-1,1.0543048E-1,5.5117223E-2,4.6818368E-2,1.23277165E-1,3.3044007E-1,5.130951E-1,1.106925E-1,6.334056E-2,-2.0971915E-2,1.077948E-1,1.5610766E-1,5.8818866E-2,2.1193579E-1,6.499933E-2,1.6892519E-2,-5.23423E-3,7.428484E-2,4.693448E-2,1.8483746E-1,4.478253E-2,-4.1414086E-2,-3.060217E-2,1.13246106E-1,4.478047E-2,-7.4826763E-3,-4.324242E-2,1.5220297E-2],"split_indices":[225,473,135,291,645,0,98,0,940,76,639,28,709,277,370,468,386,254,783,0,0,252,225,0,0,0,0,0,0,0,0,0,0,0,0,0,0,0,0],"split_type":[0,0,0,0,0,0,0,0,0,0,0,0,0,0,0,0,0,0,0,0,0,0,0,0,0,0,0,0,0,0,0,0,0,0,0,0,0,0,0],"sum_hessian":[8.603866E2,7.498712E2,1.1051537E2,9.202924E0,7.406683E2,2.1115532E0,1.08403824E2,1.8802443E0,7.322679E0,5.768297E2,1.6383858E2,5.423228E1,5.4171543E1,3.7180238E0,3.6046555E0,5.7365845E2,3.1712737E0,1.5779135E2,6.0472274E0,5.3086792E1,1.145487E0,5.0691605E1,3.4799364E0,1.0392652E0,2.6787586E0,2.5687914E0,1.0358641E0,5.5796436E2,1.5694091E1,1.0160342E0,2.1552393E0,7.479656E0,1.5031169E2,1.3545898E0,4.692638E0,4.8494293E1,2.197312E0,1.4160298E0,2.0639067E0],"tree_param":{"num_deleted":"0","num_feature":"1000","num_nodes":"39","size_leaf_vector":"1"}},{"base_weights":[3.7122667E-3,-7.2018266E-2,1.2697201E0,-1.5306361E-1,9.1693634E-1,1.3752522E0,-4.202683E-1,-1.7840561E-1,2.5665734E0,4.8950517E-1,1.2727828E0,2.8856888E0,1.1304005E0,3.7145612E-3,-3.2106888E-2,-2.3509084E-1,9.2647433E-1,-4.1429955E-1,1.9440319E-1,6.986828E-1,-2.7125078E-1,1.352356E0,-2.7456572E-2,2.5728121E-2,1.7145893E-1,3.782406E-1,1.450649E0,-1.4153113E-2,5.7802565E-2,1.6307518E-1,3.658867E-2,-2.8227275E-2,-2.714404E-3,4.47277E-2,-8.971688E-4,-2.7246669E-2,2.1070953E-2,7.046893E-2,-7.119593E-3,6.448486E-2,-7.3095295E-3,5.0120957E-2,9.111213E-2],"categories":[],"categories_nodes":[],"categories_segments":[],"categories_sizes":[],"default_left":[1,1,1,1,0,1,0,1,1,0,1,0,1,0,0,1,0,0,0,1,1,1,0,0,0,0,1,0,0,0,0,0,0,0,0,0,0,0,0,0,0,0,0],"id":33,"left_children":[1,3,5,7,9,11,13,15,17,19,21,23,25,-1,-1,27,29,31,-1,33,35,37,-1,-1,-1,39,41,-1,-1,-1,-1,-1,-1,-1,-1,-1,-1,-1,-1,-1,-1,-1,-1],"loss_changes":[8.189555E1,6.474308E1,9.176491E0,5.186109E1,8.684532E0,1.3606964E1,4.4268137E-1,4.6556572E1,2.8990467E1,4.872096E0,5.493206E0,5.6049843E0,9.301701E0,0E0,0E0,4.7346626E1,1.4120531E1,1.337108E-1,0E0,3.2949047E0,1.5692168E0,2.9014015E0,0E0,0E0,0E0,6.672371E0,2.8918343E0,0E0,0E0,0E0,0E0,0E0,0E0,0E0,0E0,0E0,0E0,0E0,0E0,0E0,0E0,0E0,0E0],"parents":[2147483647,0,0,1,1,2,2,3,3,4,4,5,5,6,6,7,7,8,8,9,9,10,10,11,11,12,12,15,15,16,16,17,17,19,19,20,20,21,21,25,25,26,26],"right_children":[2,4,6,8,10,12,14,16,18,20,22,24,26,-1,-1,28,30,32,-1,34,36,38,-1,-1,-1,40,42,-1,-1,-1,-1,-1,-1,-1,-1,-1,-1,-1,-1,-1,-1,-1,-1],"split_conditions":[5.750393E-2,9.950797E-2,5.7188816E-2,2.5820285E-1,1.1652632E-1,2.9016634E-2,2.0632514E-1,4.7457036E-2,2.3492578E-1,1.8403004E-1,1.7235745E-1,1.560493E-1,8.3422504E-2,3.7145612E-3,-3.2106888E-2,7.981746E-2,4.7599573E-2,1.2223812E-1,1.9440319E-1,1.0879151E-1,9.964654E-2,6.871112E-2,-2.7456572E-2,2.5728121E-2,1.7145893E-1,1.977098E-1,7.080989E-2,-1.4153113E-2,5.7802565E-2,1.6307518E-1,3.658867E-2,-2.8227275E-2,-2.714404E-3,4.47277E-2,-8.971688E-4,-2.7246669E-2,2.1070953E-2,7.046893E-2,-7.119593E-3,6.448486E-2,-7.3095295E-3,5.0120957E-2,9.111213E-2],"split_indices":[730,395,496,964,987,845,977,612,908,547,987,148,867,0,0,630,834,556,0,10,15,427,0,0,0,739,842,0,0,0,0,0,0,0,0,0,0,0,0,0,0,0,0],"split_type":[0,0,0,0,0,0,0,0,0,0,0,0,0,0,0,0,0,0,0,0,0,0,0,0,0,0,0,0,0,0,0,0,0,0,0,0,0,0,0,0,0,0,0],"sum_hessian":[8.5223315E2,8.050212E2,4.721195E1,7.448274E2,6.019376E1,4.4612343E1,2.5996053E0,7.3887683E2,5.950568E0,2.8425537E1,3.1768225E1,4.7186384E0,3.9893707E1,1.0110579E0,1.5885475E0,7.0356793E2,3.5308926E1,2.0386028E0,3.9119654E0,2.2359232E1,6.066305E0,3.0685736E1,1.0824894E0,1.2429026E0,3.475736E0,1.2564605E1,2.7329102E1,6.8088513E2,2.2682764E1,1.5052508E0,3.3803677E1,1.0374887E0,1.001114E0,1.7364742E1,4.9944897E0,4.501135E0,1.5651699E0,2.9613146E1,1.0725893E0,4.0560308E0,8.508574E0,1.4063187E1,1.3265915E1],"tree_param":{"num_deleted":"0","num_feature":"1000","num_nodes":"43","size_leaf_vector":"1"}},{"base_weights":[-4.7609783E-3,-1.4511205E-1,6.2555474E-1,1.2672223E0,-1.9510698E-1,7.806011E-1,-7.418749E-1,-9.042807E-3,1.3436642E0,-2.6105523E-1,8.8507646E-1,5.9880984E-1,1.4781357E0,3.245776E-2,-9.389248E-1,1.4049695E0,1.1776127E-2,-2.887738E-1,2.3520832E0,1.2667367E0,-7.4209666E-1,-3.002406E-1,7.340753E-1,2.236158E0,1.0633365E0,-4.997185E-2,-3.080026E-3,9.708969E-2,5.760652E-2,3.5860565E-2,-1.7389812E-2,1.5757464E-1,-3.0940339E-2,1.5338337E-1,4.3345246E-2,-4.5463733E-2,1.0277875E-2,-2.4131047E-2,5.5486698E-2,-3.9566748E-2,4.0212262E-2,3.594318E-2,1.252646E-1,-2.8444469E-2,5.9716728E-2],"categories":[],"categories_nodes":[],"categories_segments":[],"categories_sizes":[],"default_left":[1,0,1,0,1,1,0,0,1,1,1,1,1,0,1,1,0,0,0,1,1,1,0,0,0,0,0,0,0,0,0,0,0,0,0,0,0,0,0,0,0,0,0,0,0],"id":34,"left_children":[1,3,5,7,9,11,13,-1,15,17,19,21,23,-1,25,27,-1,29,31,33,35,37,39,41,43,-1,-1,-1,-1,-1,-1,-1,-1,-1,-1,-1,-1,-1,-1,-1,-1,-1,-1,-1,-1],"loss_changes":[7.4896675E1,4.913797E1,3.3268612E1,2.8781776E0,4.793107E1,1.6737091E1,5.053979E0,0E0,1.2133179E0,4.644543E1,2.5008987E1,1.3831116E1,6.4417686E0,0E0,7.141409E-1,6.5899277E-1,0E0,3.742488E1,1.7960335E1,2.021194E1,1.453373E0,4.481944E0,1.108057E1,1.8798866E0,4.9634647E0,0E0,0E0,0E0,0E0,0E0,0E0,0E0,0E0,0E0,0E0,0E0,0E0,0E0,0E0,0E0,0E0,0E0,0E0,0E0,0E0],"parents":[2147483647,0,0,1,1,2,2,3,3,4,4,5,5,6,6,8,8,9,9,10,10,11,11,12,12,14,14,15,15,17,17,18,18,19,19,20,20,21,21,22,22,23,23,24,24],"right_children":[2,4,6,8,10,12,14,-1,16,18,20,22,24,-1,26,28,-1,30,32,34,36,38,40,42,44,-1,-1,-1,-1,-1,-1,-1,-1,-1,-1,-1,-1,-1,-1,-1,-1,-1,-1,-1,-1],"split_conditions":[1.14087716E-1,1.3291368E0,7.923309E-2,8.240229E-2,1.0002501E-1,3.406823E-2,1.8428373E-1,-9.042807E-3,5.031534E-2,2.5820285E-1,3.4656025E-2,2.7603537E-2,1.9947506E-2,3.245776E-2,3.6483014E-1,1.1291099E-1,1.1776127E-2,5.258046E-1,1.4674354E-1,7.718363E-2,9.6567206E-2,1.0985994E-1,4.0256813E-2,1.6546498E-1,5.1801518E-2,-4.997185E-2,-3.080026E-3,9.708969E-2,5.760652E-2,3.5860565E-2,-1.7389812E-2,1.5757464E-1,-3.0940339E-2,1.5338337E-1,4.3345246E-2,-4.5463733E-2,1.0277875E-2,-2.4131047E-2,5.5486698E-2,-3.9566748E-2,4.0212262E-2,3.594318E-2,1.252646E-1,-2.8444469E-2,5.9716728E-2],"split_indices":[867,473,645,842,909,945,739,0,962,964,218,977,476,0,874,395,0,474,385,711,288,127,434,181,319,0,0,0,0,0,0,0,0,0,0,0,0,0,0,0,0,0,0,0,0],"split_type":[0,0,0,0,0,0,0,0,0,0,0,0,0,0,0,0,0,0,0,0,0,0,0,0,0,0,0,0,0,0,0,0,0,0,0,0,0,0,0,0,0,0,0,0,0],"sum_hessian":[8.4459424E2,6.9140936E2,1.5318488E2,2.2805906E1,6.6860345E2,1.3797023E2,1.5214637E1,1.0750346E0,2.1730873E1,6.308468E2,3.7756657E1,1.1092061E2,2.7049627E1,1.6031549E0,1.3611482E1,2.0337868E1,1.393005E0,6.251055E2,5.741243E0,3.0762655E1,6.9939995E0,1.4346444E1,9.6574165E1,8.01384E0,1.9035788E1,1.2603019E1,1.0084627E0,4.3730674E0,1.59648E1,3.4025166E1,5.910804E2,4.4760365E0,1.2652066E0,4.37669E0,2.6385965E1,5.9796195E0,1.0143796E0,1.3285653E1,1.060791E0,3.7951326E0,9.277903E1,1.7603807E0,6.2534595E0,1.1659095E0,1.7869877E1],"tree_param":{"num_deleted":"0","num_feature":"1000","num_nodes":"45","size_leaf_vector":"1"}},{"base_weights":[1.0585975E-2,9.42003E-1,-1.19800866E-1,1.0599719E0,4.0401307E-1,-1.6650711E-1,1.3244455E0,1.0986065E0,-3.5231237E-3,1.5227443E-1,5.532073E-2,-2.3061989E-1,8.774879E-1,1.6369448E0,-5.599211E-1,1.1178007E0,-8.787462E-3,3.2323784E-1,-3.6031038E-2,-2.722103E-1,1.5050704E0,8.655902E-2,1.2994963E0,-1.3417028E-1,2.0609696E0,-3.6145147E-2,-1.8396027E-3,5.800445E-2,1.70371E-2,-1.574762E-2,2.441299E-2,-1.7570326E-2,3.1131828E-2,3.0936364E-2,1.2165324E-1,4.5690197E-2,-3.0587642E-2,-1.1262122E-3,8.4456794E-2,-3.9943635E-2,5.8338184E-2,-1.5776856E-2,1.1696487E-1],"categories":[],"categories_nodes":[],"categories_segments":[],"categories_sizes":[],"default_left":[0,1,1,1,1,1,1,1,0,1,0,1,0,0,1,1,0,0,0,1,0,0,1,1,0,0,0,0,0,0,0,0,0,0,0,0,0,0,0,0,0,0,0],"id":35,"left_children":[1,3,5,7,9,11,13,15,-1,17,-1,