{"learner":{"attributes":{"best_iteration":"0","best_score":"0.29081158759926357","scikit_learn":"{\"_estimator_type\": \"classifier\"}"},"feature_names":[],"feature_types":[],"gradient_booster":{"model":{"gbtree_model_param":{"num_parallel_tree":"1","num_trees":"21"},"iteration_indptr":[0,1,2,3,4,5,6,7,8,9,10,11,12,13,14,15,16,17,18,19,20,21],"tree_info":[0,0,0,0,0,0,0,0,0,0,0,0,0,0,0,0,0,0,0,0,0],"trees":[{"base_weights":[1.0167908E-2,1.1246638E1,-3.4250712E-1,3.9185435E-2,1.1333198E1,-4.2954773E-1,9.4001875E0,1.5572345E-1,1.138513E0,1.0854673E0,-4.9509756E-2,9.730469E-1,1.2052456E-1],"categories":[],"categories_nodes":[],"categories_segments":[],"categories_sizes":[],"default_left":[0,0,1,0,0,0,1,0,0,0,0,0,0],"id":0,"left_children":[1,3,5,-1,7,9,11,-1,-1,-1,-1,-1,-1],"loss_changes":[2.8361604E4,2.0019531E2,5.888508E3,0E0,9.194922E1,5.093377E3,1.5470068E2,0E0,0E0,0E0,0E0,0E0,0E0],"parents":[2147483647,0,0,1,1,2,2,4,4,5,5,6,6],"right_children":[2,4,6,-1,8,10,12,-1,-1,-1,-1,-1,-1],"split_conditions":[2.00001E0,2.3443501E-2,4.83185E-2,3.9185435E-2,5.2764896E-2,1.4938225E0,3.3449024E-2,1.5572345E-1,1.138513E0,1.0854673E0,-4.9509756E-2,9.730469E-1,1.2052456E-1],"split_indices":[701,1125,632,0,2371,2297,2371,0,0,0,0,0,0],"split_type":[0,0,0,0,0,0,0,0,0,0,0,0,0],"sum_hessian":[7.154948E3,2.1679575E2,6.9381523E3,1.7588367E0,2.1503691E2,6.8776636E3,6.0488693E1,1.3000098E0,2.1373691E2,3.877088E1,6.8388926E3,5.796514E1,2.5235484E0],"tree_param":{"num_deleted":"0","num_feature":"3000","num_nodes":"13","size_leaf_vector":"1"}},{"base_weights":[-2.9683758E-2,4.234589E0,-3.2940903E-1,-2.6060662E-3,4.251611E0,6.9829392E0,-4.143268E-1,4.2624888E-1,-1.860839E-2,7.7216756E-1,2.4722004E-1,-4.8340645E-2,4.0976658E-1],"categories":[],"categories_nodes":[],"categories_segments":[],"categories_sizes":[],"default_left":[0,0,0,0,1,0,1,0,0,0,0,0,0],"id":1,"left_children":[1,3,5,-1,7,9,11,-1,-1,-1,-1,-1,-1],"loss_changes":[9.302791E3,3.4777344E1,4.2256284E3,0E0,2.377539E1,2.4123486E2,2.097558E3,0E0,0E0,0E0,0E0,0E0,0E0],"parents":[2147483647,0,0,1,1,2,2,4,4,5,5,6,6],"right_children":[2,4,6,-1,8,10,12,-1,-1,-1,-1,-1,-1],"split_conditions":[2.00001E0,2.904245E-2,1.4293752E0,-2.6060662E-3,6.062463E-2,3.0117965E-1,3.0672682E-2,4.2624888E-1,-1.860839E-2,7.7216756E-1,2.4722004E-1,-4.8340645E-2,4.0976658E-1],"split_indices":[701,840,633,0,2029,295,632,0,0,0,0,0,0],"split_type":[0,0,0,0,0,0,0,0,0,0,0,0,0],"sum_hessian":[7.2764585E3,4.7699487E2,6.799464E3,1.8959888E0,4.7509888E2,7.712269E1,6.722341E3,4.7397653E2,1.1223283E0,6.5657875E1,1.1464815E1,6.6218516E3,1.00489204E2],"tree_param":{"num_deleted":"0","num_feature":"3000","num_nodes":"13","size_leaf_vector":"1"}},{"base_weights":[-3.9160922E-2,3.0752554E0,-3.1500852E-1,3.15266E0,2.3692203E0,-3.946441E-1,3.7028863E0,3.161878E-1,-3.6138684E-2,2.4354136E-1,-7.373255E-2,-4.6214893E-2,2.9266006E-1,4.207867E-1,2.101269E-1],"categories":[],"categories_nodes":[],"categories_segments":[],"categories_sizes":[],"default_left":[0,1,1,1,1,1,0,0,0,0,0,0,0,0,0],"id":2,"left_children":[1,3,5,7,9,11,13,-1,-1,-1,-1,-1,-1,-1,-1],"loss_changes":[6.171896E3,2.4475098E1,2.1130696E3,1.8108887E1,1.4498932E1,1.4523945E3,9.497107E1,0E0,0E0,0E0,0E0,0E0,0E0,0E0,0E0],"parents":[2147483647,0,0,1,1,2,2,3,3,4,4,5,5,6,6],"right_children":[2,4,6,8,10,12,14,-1,-1,-1,-1,-1,-1,-1,-1],"split_conditions":[2.00001E0,1.5069549E-1,2.2313118E-2,1.2419582E-1,1.6367656E-1,3.0672682E-2,9.011537E-1,3.161878E-1,-3.6138684E-2,2.4354136E-1,-7.373255E-2,-4.6214893E-2,2.9266006E-1,4.207867E-1,2.101269E-1],"split_indices":[701,2223,633,2055,306,632,634,0,0,0,0,0,0,0,0],"split_type":[0,0,0,0,0,0,0,0,0,0,0,0,0,0,0],"sum_hessian":[7.181978E3,5.835333E2,6.598445E3,5.2275696E2,6.0776352E1,6.4710884E3,1.273567E2,5.214892E2,1.2677505E0,5.9719894E1,1.0564587E0,6.343026E3,1.2806216E2,9.559034E1,3.1766356E1],"tree_param":{"num_deleted":"0","num_feature":"3000","num_nodes":"15","size_leaf_vector":"1"}},{"base_weights":[-2.9111573E-2,2.4786777E0,-2.8722715E-1,2.5009851E0,6.2515336E-1,4.280755E0,-3.4411776E-1,-1.4737966E-2,2.5102395E-1,-5.1835794E-2,1.4970373E-1,3.2860968E-1,6.7292607E-1,4.4718772E-1,-3.9506067E-2],"categories":[],"categories_nodes":[],"categories_segments":[],"categories_sizes":[],"default_left":[0,1,0,0,0,0,0,0,0,0,0,0,0,0,0],"id":3,"left_children":[1,3,5,7,9,11,13,-1,-1,-1,-1,-1,-1,-1,-1],"loss_changes":[4.562854E3,2.5635498E1,1.6623713E3,1.6292236E1,9.904645E0,1.6953516E2,1.550712E3,0E0,0E0,0E0,0E0,0E0,0E0,0E0,0E0],"parents":[2147483647,0,0,1,1,2,2,3,3,4,4,5,5,6,6],"right_children":[2,4,6,8,10,12,14,-1,-1,-1,-1,-1,-1,-1,-1],"split_conditions":[1E0,5.1560514E-2,1.4845617E-1,3.0462343E-2,1.9953571E-1,6.225866E-1,1.1941985E0,-1.4737966E-2,2.5102395E-1,-5.1835794E-2,1.4970373E-1,3.2860968E-1,6.7292607E-1,4.4718772E-1,-3.9506067E-2],"split_indices":[701,2370,2626,799,1913,649,779,0,0,0,0,0,0,0,0],"split_type":[0,0,0,0,0,0,0,0,0,0,0,0,0,0,0],"sum_hessian":[7.046961E3,6.5682294E2,6.390138E3,6.4866693E2,8.156029E0,7.7691826E1,6.3124463E3,2.2067978E0,6.4646014E2,3.7038078E0,4.452221E0,5.6913784E1,2.0778046E1,6.516486E1,6.2472812E3],"tree_param":{"num_deleted":"0","num_feature":"3000","num_nodes":"15","size_leaf_vector":"1"}},{"base_weights":[-2.4730064E-2,2.1190987E0,-2.5753948E-1,2.173548E0,1.6007692E0,-2.8864315E-1,7.9628205E0,2.1909216E-1,7.956769E-2,7.1831085E-2,1.8038546E-1,-3.5126846E-2,3.731866E-1,1.2630835E0,4.72955E-1],"categories":[],"categories_nodes":[],"categories_segments":[],"categories_sizes":[],"default_left":[0,1,1,1,0,1,0,0,0,0,0,0,0,0,0],"id":4,"left_children":[1,3,5,7,9,11,13,-1,-1,-1,-1,-1,-1,-1,-1],"loss_changes":[3.4567354E3,1.5668213E1,1.5996416E3,1.2886475E1,1.0942612E1,1.5686185E3,2.9621716E2,0E0,0E0,0E0,0E0,0E0,0E0,0E0,0E0],"parents":[2147483647,0,0,1,1,2,2,3,3,4,4,5,5,6,6],"right_children":[2,4,6,8,10,12,14,-1,-1,-1,-1,-1,-1,-1,-1],"split_conditions":[1E0,1.5069549E-1,6.494686E-2,5.1560514E-2,1.6249436E-1,3.1811487E-2,1.6171618E-1,2.1909216E-1,7.956769E-2,7.1831085E-2,1.8038546E-1,-3.5126846E-2,3.731866E-1,1.2630835E0,4.72955E-1],"split_indices":[701,2223,702,2370,701,2297,1223,0,0,0,0,0,0,0,0],"split_type":[0,0,0,0,0,0,0,0,0,0,0,0,0,0,0],"sum_hessian":[6.923795E3,6.774436E2,6.246351E3,6.101549E2,6.7288704E1,6.223767E3,2.2584196E1,6.019746E2,8.180306E0,1.3437269E1,5.3851433E1,6.129208E3,9.455879E1,8.052267E0,1.4531928E1],"tree_param":{"num_deleted":"0","num_feature":"3000","num_nodes":"15","size_leaf_vector":"1"}},{"base_weights":[-3.022553E-2,1.864862E0,-2.4816783E-1,-8.8178635E-2,1.8767052E0,2.686498E0,-3.2660204E-1,6.5574184E-2,-6.820954E-2,1.8834819E-1,-5.1665146E-2,2.8240678E-1,-1.0841843E-2,5.4560983E-1,-3.619749E-2],"categories":[],"categories_nodes":[],"categories_segments":[],"categories_sizes":[],"default_left":[0,0,0,0,1,1,0,0,0,0,0,0,0,0,0],"id":5,"left_children":[1,3,5,7,9,11,13,-1,-1,-1,-1,-1,-1,-1,-1],"loss_changes":[2.802673E3,1.635498E1,1.4016926E3,2.733194E0,1.225708E1,6.1259766E1,1.2146033E3,0E0,0E0,0E0,0E0,0E0,0E0,0E0,0E0],"parents":[2147483647,0,0,1,1,2,2,3,3,4,4,5,5,6,6],"right_children":[2,4,6,8,10,12,14,-1,-1,-1,-1,-1,-1,-1,-1],"split_conditions":[1E0,5.840626E-2,1.4293752E0,4.6174724E-2,2.812429E-1,2.1401828E-2,1.3711519E0,6.5574184E-2,-6.820954E-2,1.8834819E-1,-5.1665146E-2,2.8240678E-1,-1.0841843E-2,5.4560983E-1,-3.619749E-2],"split_indices":[701,2371,633,1934,1197,299,1453,0,0,0,0,0,0,0,0],"split_type":[0,0,0,0,0,0,0,0,0,0,0,0,0,0,0],"sum_hessian":[6.78369E3,6.9890454E2,6.084785E3,4.1737823E0,6.947307E2,1.5752792E2,5.9272573E3,1.8066878E0,2.3670948E0,6.929816E2,1.7490932E0,1.5012796E2,7.3999515E0,3.510496E1,5.8921523E3],"tree_param":{"num_deleted":"0","num_feature":"3000","num_nodes":"15","size_leaf_vector":"1"}},{"base_weights":[-2.0438973E-2,1.6822146E0,-2.1741171E-1,1.6929811E0,-3.3443045E-2,-2.6772085E-1,3.4209936E0,1.744835E-1,1.23703875E-1,-3.2756507E-2,2.8866264E-1,1.4416254E-1,4.731588E-1],"categories":[],"categories_nodes":[],"categories_segments":[],"categories_sizes":[],"default_left":[0,1,1,1,0,1,1,0,0,0,0,0,0],"id":6,"left_children":[1,3,5,7,-1,9,11,-1,-1,-1,-1,-1,-1],"loss_changes":[2.2213696E3,1.5477905E1,1.0875859E3,1.3996704E1,0E0,1.1064902E3,2.034093E2,0E0,0E0,0E0,0E0,0E0,0E0],"parents":[2147483647,0,0,1,1,2,2,3,3,5,5,6,6],"right_children":[2,4,6,8,-1,10,12,-1,-1,-1,-1,-1,-1],"split_conditions":[2.00001E0,1.942006E-1,1.0872402E-1,1.5069549E-1,-3.3443045E-2,2.5357008E-2,2.242594E-2,1.744835E-1,1.23703875E-1,-3.2756507E-2,2.8866264E-1,1.4416254E-1,4.731588E-1],"split_indices":[701,2346,2247,2223,0,2297,839,0,0,0,0,0,0],"split_type":[0,0,0,0,0,0,0,0,0,0,0,0,0],"sum_hessian":[6.6214224E3,6.857951E2,5.935627E3,6.8231287E2,3.482215E0,5.855587E3,8.0040245E1,6.100999E2,7.221297E1,5.747443E3,1.0814422E2,3.2721504E1,4.731874E1],"tree_param":{"num_deleted":"0","num_feature":"3000","num_nodes":"13","size_leaf_vector":"1"}},{"base_weights":[-3.1010022E-2,1.5533154E0,-2.1482235E-1,1.6095573E0,1.1558503E0,3.803789E0,-2.6023632E-1,1.6222018E-1,1.9775888E-2,9.0720244E-2,1.6552348E-1,6.539109E-2,4.105447E-1,-3.3308517E-2,2.2377205E-1],"categories":[],"categories_nodes":[],"categories_segments":[],"categories_sizes":[],"default_left":[0,1,0,1,0,0,1,0,0,0,0,0,0,0,0],"id":7,"left_children":[1,3,5,7,9,11,13,-1,-1,-1,-1,-1,-1,-1,-1],"loss_changes":[1.8875121E3,1.3201782E1,1.0608619E3,1.01710205E1,9.310242E0,5.9039856E1,1.0459128E3,0E0,0E0,0E0,0E0,0E0,0E0,0E0,0E0],"parents":[2147483647,0,0,1,1,2,2,3,3,4,4,5,5,6,6],"right_children":[2,4,6,8,10,12,14,-1,-1,-1,-1,-1,-1,-1,-1],"split_conditions":[1E0,1.4621688E-1,5.6291914E-1,1.8742597E-2,1.7932948E-1,1.11252174E-1,2.4281356E-2,1.6222018E-1,1.9775888E-2,9.0720244E-2,1.6552348E-1,6.539109E-2,4.105447E-1,-3.3308517E-2,2.2377205E-1],"split_indices":[701,2223,464,2371,701,1815,778,0,0,0,0,0,0,0,0],"split_type":[0,0,0,0,0,0,0,0,0,0,0,0,0,0,0],"sum_hessian":[6.479282E3,6.727997E2,5.8064824E3,5.867273E2,8.607236E1,6.39605E1,5.742522E3,5.8137134E2,5.3559537E0,5.9342068E1,2.6730286E1,5.8668814E0,5.8093616E1,5.580638E3,1.6188358E2],"tree_param":{"num_deleted":"0","num_feature":"3000","num_nodes":"15","size_leaf_vector":"1"}},{"base_weights":[-3.4053594E-2,-1.3346744E-1,1.7220271E0,-2.0037979E-1,1.9707593E0,1.6480604E0,6.2885847E0,-2.5861358E-2,2.1432982E-1,2.0702465E-1,-5.9685763E-3,-7.82142E-2,1.7592137E-1,1.583561E-1,8.453005E-1],"categories":[],"categories_nodes":[],"categories_segments":[],"categories_sizes":[],"default_left":[1,1,1,1,1,0,1,0,0,0,0,0,0,0,0],"id":8,"left_children":[1,3,5,7,9,11,13,-1,-1,-1,-1,-1,-1,-1,-1],"loss_changes":[1.1127762E3,8.497264E2,1.0498944E2,7.985926E2,3.7696167E1,9.252246E1,3.843167E1,0E0,0E0,0E0,0E0,0E0,0E0,0E0,0E0],"parents":[2147483647,0,0,1,1,2,2,3,3,4,4,5,5,6,6],"right_children":[2,4,6,8,10,12,14,-1,-1,-1,-1,-1,-1,-1,-1],"split_conditions":[4.4620115E-2,2.4638014E-2,6.462444E-2,8.9171916E-2,1.13712195E-2,1.7684032E-1,2.5514124E-2,-2.5861358E-2,2.1432982E-1,2.0702465E-1,-5.9685763E-3,-7.82142E-2,1.7592137E-1,1.583561E-1,8.453005E-1],"split_indices":[2172,633,1437,2247,299,2371,2962,0,0,0,0,0,0,0,0],"split_type":[0,0,0,0,0,0,0,0,0,0,0,0,0,0,0],"sum_hessian":[6.371749E3,6.0312373E3,3.4051163E2,5.8462373E3,1.8499985E2,3.364233E2,4.088306E0,5.7053647E3,1.4087259E2,1.7633998E2,8.659866E0,1.4450377E1,3.2197293E2,1.8337426E0,2.254563E0],"tree_param":{"num_deleted":"0","num_feature":"3000","num_nodes":"15","size_leaf_vector":"1"}},{"base_weights":[-2.092141E-2,1.9023666E0,-1.0172526E-1,-9.733906E-2,1.9517423E0,-1.1466584E-1,1.1737131E0,1.5480942E-1,2.1594365E-1,-1.7312689E-2,2.161546E-1],"categories":[],"categories_nodes":[],"categories_segments":[],"categories_sizes":[],"default_left":[0,0,1,0,0,1,0,0,0,0,0],"id":9,"left_children":[1,3,5,-1,7,9,-1,-1,-1,-1,-1],"loss_changes":[9.7254376E2,3.772699E1,9.213827E2,0E0,1.748108E1,7.9877E2,0E0,0E0,0E0,0E0,0E0],"parents":[2147483647,0,0,1,1,2,2,4,4,5,5],"right_children":[2,4,6,-1,8,10,-1,-1,-1,-1,-1],"split_conditions":[6.8557096E-1,8.136086E-2,1.5269834E-1,-9.733906E-2,1.6072512E-1,1.9392816E-2,1.1737131E0,1.5480942E-1,2.1594365E-1,-1.7312689E-2,2.161546E-1],"split_indices":[1453,2001,2723,0,887,1628,0,0,0,0,0],"split_type":[0,0,0,0,0,0,0,0,0,0,0],"sum_hessian":[6.255715E3,2.5131795E2,6.004397E3,3.9263048E0,2.4739165E2,5.99883E3,5.5667677E0,8.691953E1,1.604721E2,5.849518E3,1.4931206E2],"tree_param":{"num_deleted":"0","num_feature":"3000","num_nodes":"11","size_leaf_vector":"1"}},{"base_weights":[-2.80613E-2,1.3580694E0,-1.8775077E-1,-3.1263793E-1,1.3683666E0,-2.2977239E-1,3.1643522E0,-6.584358E-2,3.9729174E-2,-4.0356137E-2,1.3775393E-1,-3.0026212E-2,1.7855905E-1,2.9053766E-1,7.8434104E-1],"categories":[],"categories_nodes":[],"categories_segments":[],"categories_sizes":[],"default_left":[0,0,1,1,0,1,1,0,0,0,0,0,0,0,0],"id":10,"left_children":[1,3,5,7,9,11,13,-1,-1,-1,-1,-1,-1,-1,-1],"loss_changes":[1.3698389E3,1.1426147E1,7.823771E2,1.4228104E0,1.088623E1,7.7922656E2,6.054413E1,0E0,0E0,0E0,0E0,0E0,0E0,0E0,0E0],"parents":[2147483647,0,0,1,1,2,2,3,3,4,4,5,5,6,6],"right_children":[2,4,6,8,10,12,14,-1,-1,-1,-1,-1,-1,-1,-1],"split_conditions":[2.00001E0,2.2628936E-1,4.3620404E-2,1.3282511E-2,1.14510745E-1,1.8378517E-2,7.939076E-2,-6.584358E-2,3.9729174E-2,-4.0356137E-2,1.3775393E-1,-3.0026212E-2,1.7855905E-1,2.9053766E-1,7.8434104E-1],"split_indices":[701,2984,2173,788,493,778,2757,0,0,0,0,0,0,0,0],"split_type":[0,0,0,0,0,0,0,0,0,0,0,0,0,0,0],"sum_hessian":[6.1864004E3,6.3830493E2,5.548095E3,3.7301679E0,6.345747E2,5.480326E3,6.776935E1,2.557147E0,1.1730208E0,3.0466425E0,6.315281E2,5.295945E3,1.8438106E2,6.57511E1,2.0182495E0],"tree_param":{"num_deleted":"0","num_feature":"3000","num_nodes":"15","size_leaf_vector":"1"}},{"base_weights":[-3.1917576E-2,1.277292E0,-1.7982559E-1,1.1141701E0,1.4147892E0,-2.1446925E-1,4.037251E0,1.14795245E-1,-1.2033272E-2,1.4252171E-1,-5.7328712E-2,-2.6772587E-2,2.3281024E-1,2.2701888E-1,7.919314E-1],"categories":[],"categories_nodes":[],"categories_segments":[],"categories_sizes":[],"default_left":[0,0,1,1,1,1,1,0,0,0,0,0,0,0,0],"id":11,"left_children":[1,3,5,7,9,11,13,-1,-1,-1,-1,-1,-1,-1,-1],"loss_changes":[1.1708007E3,1.2189087E1,7.944933E2,1.204129E1,7.644226E0,7.3033545E2,2.8600488E2,0E0,0E0,0E0,0E0,0E0,0E0,0E0,0E0],"parents":[2147483647,0,0,1,1,2,2,3,3,4,4,5,5,6,6],"right_children":[2,4,6,8,10,12,14,-1,-1,-1,-1,-1,-1,-1,-1],"split_conditions":[2.00001E0,1.7932948E-1,9.800595E-2,1.786332E-1,1.08173594E-1,2.5357008E-2,8.527846E-2,1.14795245E-1,-1.2033272E-2,1.4252171E-1,-5.7328712E-2,-2.6772587E-2,2.3281024E-1,2.2701888E-1,7.919314E-1],"split_indices":[701,701,1505,2551,2055,2297,2475,0,0,0,0,0,0,0,0],"split_type":[0,0,0,0,0,0,0,0,0,0,0,0,0,0,0],"sum_hessian":[6.0440073E3,6.127356E2,5.431272E3,2.8441675E2,3.2831885E2,5.3879585E3,4.3313408E1,2.7690918E2,7.5075574E0,3.268874E2,1.4314648E0,5.2782944E3,1.0966426E2,3.0853912E1,1.2459494E1],"tree_param":{"num_deleted":"0","num_feature":"3000","num_nodes":"15","size_leaf_vector":"1"}},{"base_weights":[-1.7484346E-2,1.2215E0,-1.525491E-1,-8.9521036E-2,1.240918E0,2.1562223E0,-2.1139427E-1,-7.203653E-2,7.951517E-2,1.2576202E-1,2.22491E-3,2.247355E-1,-8.814176E-2,-2.5721991E-2,2.5057152E-1],"categories":[],"categories_nodes":[],"categories_segments":[],"categories_sizes":[],"default_left":[0,0,0,0,1,1,1,0,0,0,0,0,0,0,0],"id":12,"left_children":[1,3,5,7,9,11,13,-1,-1,-1,-1,-1,-1,-1,-1],"loss_changes":[9.949786E2,1.4989624E1,7.288252E2,5.853924E0,1.1695679E1,3.8892273E1,6.517046E2,0E0,0E0,0E0,0E0,0E0,0E0,0E0,0E0],"parents":[2147483647,0,0,1,1,2,2,3,3,4,4,5,5,6,6],"right_children":[2,4,6,8,10,12,14,-1,-1,-1,-1,-1,-1,-1,-1],"split_conditions":[1E0,2.2813926E-2,9.011537E-1,1.3029228E-1,5.1560514E-2,3.6664847E-2,1.1879153E-1,-7.203653E-2,7.951517E-2,1.2576202E-1,2.22491E-3,2.247355E-1,-8.814176E-2,-2.5721991E-2,2.5057152E-1],"split_indices":[701,336,634,2547,2370,2036,2247,0,0,0,0,0,0,0,0],"split_type":[0,0,0,0,0,0,0,0,0,0,0,0,0,0,0],"sum_hessian":[5.943625E3,5.8344916E2,5.360176E3,8.462842E0,5.749863E2,1.3233687E2,5.227839E3,5.0485435E0,3.414299E0,5.671811E2,7.8052745E0,1.2873485E2,3.6020262E0,5.142021E3,8.5817894E1],"tree_param":{"num_deleted":"0","num_feature":"3000","num_nodes":"15","size_leaf_vector":"1"}},{"base_weights":[-1.894453E-2,1.7451921E-1,-7.4375784E-1,4.0485065E-2,1.3380806E0,-7.872087E-1,4.590059E0,-1.0007423E-3,2.8204277E-1,1.2014847E-1,4.2730632E-1,-8.19411E-2,3.632966E-1,1.8822962E-2,1.070027E0],"categories":[],"categories_nodes":[],"categories_segments":[],"categories_sizes":[],"default_left":[1,1,1,1,1,1,1,0,0,0,0,0,0,0,0],"id":13,"left_children":[1,3,5,7,9,11,13,-1,-1,-1,-1,-1,-1,-1,-1],"loss_changes":[8.1215393E2,7.1292584E2,2.8640887E2,5.755932E2,1.8417145E2,1.7538019E2,2.6711646E2,0E0,0E0,0E0,0E0,0E0,0E0,0E0,0E0],"parents":[2147483647,0,0,1,1,2,2,3,3,4,4,5,5,6,6],"right_children":[2,4,6,8,10,12,14,-1,-1,-1,-1,-1,-1,-1,-1],"split_conditions":[3.1885725E-2,2.5672494E-2,1.3228662E-1,5.6445163E-2,1.7679365E-1,2.5943166E-1,1.6829829E-1,-1.0007423E-3,2.8204277E-1,1.2014847E-1,4.2730632E-1,-8.19411E-2,3.632966E-1,1.8822962E-2,1.070027E0],"split_indices":[1952,2207,1927,2137,1720,778,739,0,0,0,0,0,0,0,0],"split_type":[0,0,0,0,0,0,0,0,0,0,0,0,0,0,0],"sum_hessian":[5.789862E3,4.570646E3,1.219216E3,4.0994526E3,4.7119348E2,1.2102096E3,9.006301E0,4.0273005E3,7.215203E1,4.5158575E2,1.9607718E1,1.2022654E3,7.944243E0,5.834152E0,3.172149E0],"tree_param":{"num_deleted":"0","num_feature":"3000","num_nodes":"15","size_leaf_vector":"1"}},{"base_weights":[-1.0287088E-2,-1.3284913E-1,1.1446642E0,-2.0605291E-1,1.9402544E0,1.1622916E0,-5.1610857E-2,-2.2532046E-2,7.277116E-1,-1.1925409E-1,2.0083828E-1,1.1705829E-1,-1.12765335E-1,-7.745936E-2,4.825594E-2],"categories":[],"categories_nodes":[],"categories_segments":[],"categories_sizes":[],"default_left":[1,1,1,1,0,1,0,0,0,0,0,0,0,0,0],"id":14,"left_children":[1,3,5,7,9,11,13,-1,-1,-1,-1,-1,-1,-1,-1],"loss_changes":[8.19469E2,7.9465344E2,1.17716675E1,7.306328E2,4.0513977E1,1.171283E1,3.8582604E0,0E0,0E0,0E0,0E0,0E0,0E0,0E0,0E0],"parents":[2147483647,0,0,1,1,2,2,3,3,4,4,5,5,6,6],"right_children":[2,4,6,8,10,12,14,-1,-1,-1,-1,-1,-1,-1,-1],"split_conditions":[3.1202544E-2,2.5155123E-2,7.816006E-2,2.2634597E-1,4.821015E-1,4.050689E-2,1.16334125E-1,-2.2532046E-2,7.277116E-1,-1.1925409E-1,2.0083828E-1,1.1705829E-1,-1.12765335E-1,-7.745936E-2,4.825594E-2],"split_indices":[701,632,2081,1837,2756,2027,2081,0,0,0,0,0,0,0,0],"split_type":[0,0,0,0,0,0,0,0,0,0,0,0,0,0,0],"sum_hessian":[5.787049E3,5.232651E3,5.5439764E2,5.055052E3,1.7759935E2,5.463751E2,8.022554E0,5.043037E3,1.2014843E1,3.4287434E0,1.7417061E2,5.4489105E2,1.4840899E0,3.217577E0,4.8049774E0],"tree_param":{"num_deleted":"0","num_feature":"3000","num_nodes":"15","size_leaf_vector":"1"}},{"base_weights":[-1.9558797E-2,-1.036658E-1,1.4936459E0,6.3509576E-2,-7.437445E-1,1.5993677E0,-9.325173E-1,-1.9917886E-3,1.6027352E-1,-7.9866245E-2,2.4780945E-1,1.2972951E-1,2.378254E-1,-1.07588135E-1,3.387418E-2],"categories":[],"categories_nodes":[],"categories_segments":[],"categories_sizes":[],"default_left":[1,1,1,1,1,1,1,0,0,0,0,0,0,0,0],"id":15,"left_children":[1,3,5,7,9,11,13,-1,-1,-1,-1,-1,-1,-1,-1],"loss_changes":[7.202972E2,5.737381E2,7.7929565E1,5.460422E2,1.9844324E2,6.41886E1,2.7474556E0,0E0,0E0,0E0,0E0,0E0,0E0,0E0,0E0],"parents":[2147483647,0,0,1,1,2,2,3,3,4,4,5,5,6,6],"right_children":[2,4,6,8,10,12,14,-1,-1,-1,-1,-1,-1,-1,-1],"split_conditions":[4.4620115E-2,3.1885725E-2,2.519786E-2,6.021629E-2,9.230098E-2,8.7608434E-2,7.281531E-2,-1.9917886E-3,1.6027352E-1,-7.9866245E-2,2.4780945E-1,1.2972951E-1,2.378254E-1,-1.07588135E-1,3.387418E-2],"split_indices":[2172,1952,2371,1848,1927,2539,1474,0,0,0,0,0,0,0,0],"split_type":[0,0,0,0,0,0,0,0,0,0,0,0,0,0,0],"sum_hessian":[5.6573325E3,5.360326E3,2.9700635E2,4.250963E3,1.1093632E3,2.8493106E2,1.20752945E1,4.0333394E3,2.1762369E2,1.0915099E3,1.7853247E1,2.072281E2,7.770295E1,1.0989644E1,1.0856502E0],"tree_param":{"num_deleted":"0","num_feature":"3000","num_nodes":"15","size_leaf_vector":"1"}},{"base_weights":[-2.2512688E-3,1.0721922E0,-1.0960561E-1,1.1368476E0,5.8634526E-1,-1.605943E-1,2.180676E0,-3.3081513E-2,1.1523533E-1,3.2599177E-2,1.2831257E-1,-2.1079713E-2,2.0626107E-1,7.895772E-1,1.968303E-1],"categories":[],"categories_nodes":[],"categories_segments":[],"categories_sizes":[],"default_left":[0,1,1,0,0,1,0,0,0,0,0,0,0,0,0],"id":16,"left_children":[1,3,5,7,9,11,13,-1,-1,-1,-1,-1,-1,-1,-1],"loss_changes":[6.458395E2,1.5310669E1,5.948107E2,1.0572449E1,1.079319E1,5.5632166E2,1.19098694E2,0E0,0E0,0E0,0E0,0E0,0E0,0E0,0E0],"parents":[2147483647,0,0,1,1,2,2,3,3,4,4,5,5,6,6],"right_children":[2,4,6,8,10,12,14,-1,-1,-1,-1,-1,-1,-1,-1],"split_conditions":[2.00001E0,1.5069549E-1,5.2496016E-2,5.840626E-2,1.7932948E-1,3.550765E-2,6.863553E-1,-3.3081513E-2,1.1523533E-1,3.2599177E-2,1.2831257E-1,-2.1079713E-2,2.0626107E-1,7.895772E-1,1.968303E-1],"split_indices":[701,2223,1467,2371,701,2297,966,0,0,0,0,0,0,0,0],"split_type":[0,0,0,0,0,0,0,0,0,0,0,0,0,0,0],"sum_hessian":[5.5971226E3,5.076254E2,5.089497E3,4.4682324E2,6.080214E1,4.9795664E3,1.0993055E2,4.4587016E0,4.4236453E2,4.5331707E1,1.5470434E1,4.8704897E3,1.09076744E2,2.642425E0,1.07288124E2],"tree_param":{"num_deleted":"0","num_feature":"3000","num_nodes":"15","size_leaf_vector":"1"}},{"base_weights":[-2.9343937E-2,1.0133979E0,-1.2807032E-1,1.0307801E0,-1.1040486E0,-1.9188367E-1,1.5874571E0,-6.5876976E-2,1.0451837E-1,-2.8635953E-2,-1.2635058E-1,-2.5002196E-2,1.7478846E-1,-5.625642E-2,1.6641127E-1],"categories":[],"categories_nodes":[],"categories_segments":[],"categories_sizes":[],"default_left":[0,1,1,0,0,1,0,0,0,0,0,0,0,0,0],"id":17,"left_children":[1,3,5,7,9,11,13,-1,-1,-1,-1,-1,-1,-1,-1],"loss_changes":[5.6456464E2,1.8595886E1,5.4871155E2,1.2150116E1,2.0469284E-1,5.4522125E2,3.0563568E1,0E0,0E0,0E0,0E0,0E0,0E0,0E0,0E0],"parents":[2147483647,0,0,1,1,2,2,3,3,4,4,5,5,6,6],"right_children":[2,4,6,8,10,12,14,-1,-1,-1,-1,-1,-1,-1,-1],"split_conditions":[2.00001E0,1.7181584E-1,3.0672682E-2,2.2813085E-2,7.833376E-2,1.8849589E-2,2.6877594E-1,-6.5876976E-2,1.0451837E-1,-2.8635953E-2,-1.2635058E-1,-2.5002196E-2,1.7478846E-1,-5.625642E-2,1.6641127E-1],"split_indices":[701,2036,632,1029,2610,633,1172,0,0,0,0,0,0,0,0],"split_type":[0,0,0,0,0,0,0,0,0,0,0,0,0,0,0],"sum_hessian":[5.4818174E3,4.733249E2,5.0084927E3,4.6998E2,3.3448572E0,4.829727E3,1.7876567E2,3.5946114E0,4.663854E2,1.0020792E0,2.342778E0,4.6900293E3,1.3969739E2,5.935963E0,1.7282971E2],"tree_param":{"num_deleted":"0","num_feature":"3000","num_nodes":"15","size_leaf_vector":"1"}},{"base_weights":[-1.7025862E-2,1.3542853E-1,-7.164872E-1,3.00606E-1,-6.311365E-1,-7.947082E-1,1.1036975E0,2.0702394E-2,1.6721483E-1,3.40134E-1,-6.9986306E-2,-8.051735E-2,3.9215514E-1,1.622352E-1,-7.4465625E-2],"categories":[],"categories_nodes":[],"categories_segments":[],"categories_sizes":[],"default_left":[1,1,1,1,0,1,1,0,0,0,0,0,0,0,0],"id":18,"left_children":[1,3,5,7,9,11,13,-1,-1,-1,-1,-1,-1,-1,-1],"loss_changes":[5.752442E2,5.610113E2,1.3832199E2,4.6745422E2,2.2007874E2,4.8870544E1,3.974121E1,0E0,0E0,0E0,0E0,0E0,0E0,0E0,0E0],"parents":[2147483647,0,0,1,1,2,2,3,3,4,4,5,5,6,6],"right_children":[2,4,6,8,10,12,14,-1,-1,-1,-1,-1,-1,-1,-1],"split_conditions":[1.0759898E-2,3.1885725E-2,5.479119E-2,2.9162098E-2,2.1461405E-1,1.8909867E-1,4.0172886E-2,2.0702394E-2,1.6721483E-1,3.40134E-1,-6.9986306E-2,-8.051735E-2,3.9215514E-1,1.622352E-1,-7.4465625E-2],"split_indices":[2371,1952,633,1898,1927,1775,311,0,0,0,0,0,0,0,0],"split_type":[0,0,0,0,0,0,0,0,0,0,0,0,0,0,0],"sum_hessian":[5.392557E3,4.4281953E3,9.6436176E2,3.6436736E3,7.845218E2,9.251669E2,3.9194893E1,3.4120183E3,2.3165543E2,1.2334164E1,7.721876E2,9.239459E2,1.2209493E0,3.070206E1,8.492833E0],"tree_param":{"num_deleted":"0","num_feature":"3000","num_nodes":"15","size_leaf_vector":"1"}},{"base_weights":[-1.5441695E-2,1.2068902E-1,-7.0193905E-1,2.673133E-1,-6.14719E-1,-7.599056E-1,9.4295996E-1,2.1754842E-2,2.567924E-1,-6.714638E-2,2.937512E-1,-7.9062976E-2,8.194636E-2,1.4158964E-1,-1.3448945E-1],"categories":[],"categories_nodes":[],"categories_segments":[],"categories_sizes":[],"default_left":[1,1,1,1,1,1,1,0,0,0,0,0,0,0,0],"id":19,"left_children":[1,3,5,7,9,11,13,-1,-1,-1,-1,-1,-1,-1,-1],"loss_changes":[4.9831763E2,4.7999756E2,8.485193E1,4.2430322E2,1.5114273E2,4.2035187E1,3.488758E1,0E0,0E0,0E0,0E0,0E0,0E0,0E0,0E0],"parents":[2147483647,0,0,1,1,2,2,3,3,4,4,5,5,6,6],"right_children":[2,4,6,8,10,12,14,-1,-1,-1,-1,-1,-1,-1,-1],"split_conditions":[1.4630057E-2,3.1885725E-2,9.190202E-2,2.8531823E-2,2.020089E-1,9.861623E-2,8.594506E-2,2.1754842E-2,2.567924E-1,-6.714638E-2,2.937512E-1,-7.9062976E-2,8.194636E-2,1.4158964E-1,-1.3448945E-1],"split_indices":[2371,1952,633,2137,778,778,2235,0,0,0,0,0,0,0,0],"split_type":[0,0,0,0,0,0,0,0,0,0,0,0,0,0,0],"sum_hessian":[5.3303525E3,4.4489595E3,8.813934E2,3.7099192E3,7.390403E2,8.5191E2,2.9483416E1,3.6324397E3,7.7479355E1,7.2821844E2,1.0821882E1,8.361435E2,1.5766477E1,2.4748604E1,4.7348113E0],"tree_param":{"num_deleted":"0","num_feature":"3000","num_nodes":"15","size_leaf_vector":"1"}},{"base_weights":[-1.2076058E-2,1.6678742E0,-6.704061E-2,1.0493402E0,2.3989513E0,-1.1200281E-1,2.0204206E0,1.08951904E-1,-7.0616886E-2,5.1690495E-1,2.1763098E-1,-1.5573855E-2,1.7562494E-1,1.7326753E-1,5.7237864E-1],"categories":[],"categories_nodes":[],"categories_segments":[],"categories_sizes":[],"default_left":[0,0,1,1,0,1,1,0,0,0,0,0,0,0,0],"id":20,"left_children":[1,3,5,7,9,11,13,-1,-1,-1,-1,-1,-1,-1,-1],"loss_changes":[4.8968597E2,7.345767E1,4.8217963E2,7.3141937E0,3.576071E1,4.1108038E2,1.0551517E2,0E0,0E0,0E0,0E0,0E0,0E0,0E0,0E0],"parents":[2147483647,0,0,1,1,2,2,3,3,4,4,5,5,6,6],"right_children":[2,4,6,8,10,12,14,-1,-1,-1,-1,-1,-1,-1,-1],"split_conditions":[5.6291914E-1,6.43883E-1,1.6407919E-1,6.1748166E-2,2.1362168E-1,3.550765E-2,1.7799066E-1,1.08951904E-1,-7.0616886E-2,5.1690495E-1,2.1763098E-1,-1.5573855E-2,1.7562494E-1,1.7326753E-1,5.7237864E-1],"split_indices":[464,701,778,1618,1026,2297,2250,0,0,0,0,0,0,0,0],"split_type":[0,0,0,0,0,0,0,0,0,0,0,0,0,0,0],"sum_hessian":[5.300996E3,1.6701337E2,5.133983E3,9.178945E1,7.522391E1,5.026659E3,1.07323784E2,9.010654E1,1.6829146E0,3.9433942E0,7.128052E1,4.9125728E3,1.14086555E2,1.0094815E2,6.375634E0],"tree_param":{"num_deleted":"0","num_feature":"3000","num_nodes":"15","size_leaf_vector":"1"}}]},"name":"gbtree"},"learner_model_param":{"base_score":"8.3432086E-2","boost_from_average":"1","num_class":"0","num_feature":"3000","num_target":"1"},"objective":{"name":"binary:logistic","reg_loss_param":{"scale_pos_weight":"1"}}},"version":[3,0,0]}